tree
version=v4
num_class=1
num_tree_per_iteration=1
label_index=0
max_feature_idx=109
objective=mape
feature_names=TableScan_Scan_const TableScan_Scan_in_card TableScan_Scan_in_size TableScan_Scan_out_percentage TableScan_Scan_like_percentage TableScan_Scan_compare_percentage TableScan_Scan_in_expression_percentage TableScan_Scan_between_percentage TableScan_Scan_or_exp_percentage TableScan_Scan_starts_with_percentage TableScan_Scan_empty_output InlineTable_Scan_const InlineTable_Scan_in_card InlineTable_Scan_in_size InlineTable_Scan_out_percentage PipelineBreakerScan_Scan_const PipelineBreakerScan_Scan_in_card PipelineBreakerScan_Scan_in_size PipelineBreakerScan_Scan_out_percentage Temp_Build_const Temp_Build_out_card Temp_Build_out_size Temp_Build_in_percentage EarlyExecution_Scan_const EarlyExecution_Scan_out_percentage Select_PassThrough_const Select_PassThrough_in_percentage Select_PassThrough_out_percentage Map_PassThrough_const Map_PassThrough_in_percentage Map_PassThrough_out_percentage MultiWayJoin_Build_const MultiWayJoin_Build_out_card MultiWayJoin_Build_out_size MultiWayJoin_Build_in_percentage MultiWayJoin_Scan_const MultiWayJoin_Scan_in_card MultiWayJoin_Scan_in_size MultiWayJoin_Scan_out_percentage HashJoin_Build_const HashJoin_Build_out_card HashJoin_Build_out_size HashJoin_Build_in_percentage HashJoin_Probe_const HashJoin_Probe_in_card HashJoin_Probe_right_percentage HashJoin_Probe_out_percentage IndexNLJoin_Probe_const IndexNLJoin_Probe_in_percentage IndexNLJoin_Probe_right_card IndexNLJoin_Probe_out_percentage GroupJoin_Build_const GroupJoin_Build_out_card GroupJoin_Build_out_size GroupJoin_Build_in_percentage GroupJoin_Probe_const GroupJoin_Probe_out_card GroupJoin_Probe_out_size GroupJoin_Probe_right_percentage GroupJoin_Probe_out_percentage GroupJoin_Scan_const GroupJoin_Scan_in_card GroupJoin_Scan_in_size GroupJoin_Scan_out_percentage GroupBy_Build_const GroupBy_Build_out_card GroupBy_Build_out_size GroupBy_Build_in_percentage GroupBy_Scan_const GroupBy_Scan_out_card GroupBy_Scan_out_size GroupBy_Scan_out_percentage Sort_Build_const Sort_Build_out_card Sort_Build_out_size Sort_Build_in_percentage Sort_Build_out_percentage Sort_Scan_const Sort_Scan_in_card Sort_Scan_in_size Sort_Scan_out_percentage SetOperation_Build_const SetOperation_Build_out_card SetOperation_Build_out_size SetOperation_Build_in_percentage SetOperation_Scan_const SetOperation_Scan_in_card SetOperation_Scan_in_size SetOperation_Scan_out_percentage SetOperation_PassThrough_const Window_Build_const Window_Build_out_card Window_Build_out_size Window_Build_in_percentage Window_Scan_const Window_Scan_in_card Window_Scan_in_size Window_Scan_out_percentage FileOutput_Build_const FileOutput_Build_out_card FileOutput_Build_out_size FileOutput_Build_in_percentage CsvWriter_Build_const CsvWriter_Build_out_card CsvWriter_Build_out_size CsvWriter_Build_in_percentage AssertSingle_PassThrough_const AssertSingle_PassThrough_in_percentage EarlyProbe_PassThrough_const EarlyProbe_PassThrough_out_percentage
feature_infos=[0:1] [0:600037902] none [0:1] [0:3.9950000000000001] [-1:6.0534140252144519] [0:7.5937504049999971] [0:5] [0:3.8225540022670588] [0:1.2161955599182204] [0:1] [0:1] none none none [0:1] [0:776175892] [0:222.1689453125] [0:1] [0:1] [0:74793180] [0:101.03222656249997] [0:9.2356849749229895] [0:1] [0:4] [0:2] [0:1.0585803921568628] [0:1] [0:1] [0:1.228472709713808] [0:1.228472709713808] none none none none none none none none [0:1] [0:453919593] [0:258.27999999999997] [0:1576.6441304058155] [0:14] [0:453919593] [0:3353] [0:231152] none none none none none none none none none none none none none none none none none [0:1] [0:600037902] [0:488] [0:227800] [0:1] [0:600037902] [0:488] [0:1] [0:1] [0:521480511] [0:488] [0:123.34516441412993] [0:72.23506002087683] [0:1] [0:585914200] [0:488] [0:1] [0:1] [0:19067441] [0:52] [0:2.6578320304335104] none none none none [0:1] [0:1] [0:594828867] [0:175.73632812500011] [0:1.228472709713808] [0:1] [0:594828867] [0:167.73632812500011] [0:1] none none none none none none none none none none [0:4] [0:4]
tree_sizes=2784 2949 2962 2971 2982 2977 2980 2973 2994 2977 2990 3010 2978 2984 2996 3004 2992 2990 3002 3006 2996 2995 3014 3026 3017 2987 2997 3017 3015 3015 3024 3015 2985 3015 3017 3028 3021 3027 3033 3038 3028 3029 3009 3020 3036 3047 3024 3022 3025 3036 3036 3030 3040 3023 3034 3028 3007 3060 3040 3067 3039 3038 3040 3038 3054 3048 3012 3004 3042 3027 2983 3007 3026 3015 3029 3012 3022 3032 3014 2975 3000 3009 3015 2975 3001 2980 2974 3001 2969 2954 3001 2983 2955 3001 2985 2941 2984 2977 2949 2974 2992 2983 2929 2988 2957 2952 3000 2962 2953 2995 2974 2969 2957 3003 2937 3040 2999 2960 2947 2975 2971 3015 2933 2939 2941 2930 2992 2984 2919 2998 2989 2981 2964 2958 2995 3016 2978 2916 2929 2938 2967 2978 3002 2974 2956 2928 2938 3006 2949 2951 2951 2973 2986 2909 2955 2934 2953 2926 2948 2967 2977 2906 2943 2973 2970 2983 2959 2946 2954 2944 2963 2935 2914 2909 2946 2957 2924 2913 2950 2963 2901 2982 2972 3014 2876 2890 2965 2898 2936 2936 2928 2925 2968 2958 3000 2957 2921 2960 2906 2971

Tree=0
num_leaves=31
num_cat=0
split_feature=1 69 93 95 78 65 46 1 42 1 42 65 16 76 74 76 65 1 67 42 46 65 1 1 40 22 69 69 1 69
split_gain=46.9856 8.18635 5.08566 3.73139 3.68192 2.27975 1.82016 1.53738 1.32139 1.27426 1.23525 1.46275 1.12198 0.677555 0.662907 0.614676 0.506777 0.451136 0.389081 0.379087 0.424256 0.357466 0.828437 0.325239 0.240212 0.227471 0.24921 0.852957 0.40009 0.217867
threshold=12747.500000000002 35089.500000000007 0.30817946612094121 2563.5000000000005 333.50000000000006 397098.00000000006 1.984662444962223 3354.0000000000005 0.20000626666666668 40485.000000000007 0.46076923076923088 73.500000000000014 5535.0000000000009 0.3768541497986625 23.175781250000011 0.00020306607138112387 1.5000000000000002 6792.5000000000009 0.55573712711907164 0.68050000000000022 0.69649652818627461 25979.000000000004 268757.00000000006 923295.00000000012 361948.50000000006 0.9998488923090979 1.0000000180025095e-35 1.5000000000000002 320.50000000000006 3120.0000000000005
decision_type=2 2 2 2 2 2 2 2 2 2 2 2 2 2 2 2 2 2 2 2 2 2 2 2 2 2 2 2 2 2
left_child=1 3 5 4 7 6 9 12 16 10 11 -2 25 19 -5 -3 17 -9 -7 21 -21 -11 -23 -8 -22 26 28 -28 -1 -29
right_child=2 15 -4 14 -6 18 23 8 -10 13 -12 -13 -14 -15 -16 -17 -18 -19 -20 20 24 22 -24 -25 -26 -27 27 29 -30 -31
leaf_value=18.166813468933107 18.657283401489259 18.665818786621095 18.455929374694826 18.743516349792479 18.628840255737305 18.639435005187988 18.492290115356447 18.54889087677002 18.47432174682617 18.798397254943847 18.545052337646485 18.487392616271972 18.632249641418458 18.500049400329591 18.50456256866455 18.513789558410643 18.369471549987793 18.597807502746583 18.505417823791504 18.595336341857909 18.550860977172853 18.53124122619629 18.659735679626465 18.601999473571777 18.59204807281494 20.161021995544434 18.090140342712402 18.116799354553223 18.451333045959473 18.435548019409179
leaf_weight=4863 1220 1193 673 578 1366 96 393 523 902 13602 423 197 214 111 211 126 142 481 458 1520 150 163 635 255 117 55 2600 1769 2029 827
leaf_count=4863 1220 1193 673 578 1366 96 393 523 902 13602 423 197 214 111 211 126 142 481 458 1520 150 163 635 255 117 55 2600 1769 2029 827
internal_value=18.5635 18.5598 18.5668 18.5592 18.5588 18.5671 18.5673 18.5584 18.5609 18.5675 18.565 18.5664 18.5579 18.5678 18.5659 18.5674 18.5631 18.5639 18.5608 18.5678 18.5665 18.568 18.5659 18.5621 18.5628 18.5578 18.5578 18.5583 18.5574 18.557
internal_weight=0 17879 20013 16560 15771 19340 18786 14405 2048 18138 1840 1417 12357 16298 789 1319 1146 1004 554 16187 1787 14400 798 648 267 12143 12088 5196 6892 2596
internal_count=37892 17879 20013 16560 15771 19340 18786 14405 2048 18138 1840 1417 12357 16298 789 1319 1146 1004 554 16187 1787 14400 798 648 267 12143 12088 5196 6892 2596
is_linear=0
shrinkage=1


Tree=1
num_leaves=31
num_cat=0
split_feature=1 69 93 95 78 65 1 46 42 42 40 16 76 65 1 75 76 65 41 1 46 67 42 22 108 69 69 1 69 96
split_gain=45.3055 7.95972 4.7307 3.46022 3.61195 2.05121 1.70988 1.6351 1.32378 1.2049 1.02434 1.02415 0.731503 0.7034 1.91166 0.695148 0.576561 0.558337 0.449702 0.392309 0.358607 0.350768 0.338638 0.244851 0.236427 0.230396 0.823555 0.462757 0.237531 0.192778
threshold=15504.000000000002 30358.000000000004 0.19117491985050802 2563.5000000000005 169.50000000000003 397098.00000000006 3354.0000000000005 1.681131381155853 0.20562813152400836 0.51956937685459958 47129.000000000007 14777.500000000002 0.25414432471801934 244.50000000000003 152500.00000000003 0.51619863600658922 0.00020306607138112387 4.5000000000000009 35.991210937500014 6792.5000000000009 13.469929618948038 0.4008459086067907 0.92188750000000008 0.9998488923090979 1.5000000000000002 1.0000000180025095e-35 1.5000000000000002 367.50000000000006 3120.0000000000005 14.000000000000002
decision_type=2 2 2 2 2 2 2 2 2 2 2 2 2 2 2 2 2 2 2 2 2 2 2 2 2 2 2 2 2 2
left_child=1 3 5 4 6 7 11 9 17 12 -11 23 13 -2 -15 -5 -3 19 24 -8 22 -7 -9 25 -12 27 -27 -1 -28 -17
right_child=2 16 -4 15 -6 21 8 20 -10 10 18 -13 -14 14 -16 29 -18 -19 -20 -21 -22 -23 -24 -25 -26 26 28 -29 -30 -31
leaf_value=-0.35758548736572282 0.20551736831665046 0.088921394348144389 -0.094655475616455223 0.17268758773803727 0.037678070068359305 0.083971767425537192 -0.013142566680908276 0.039014854431152206 -0.079854431152343613 -0.012515525817871166 0.032923374176025533 0.085181636810302663 -0.055747966766357494 -0.037679119110107351 0.13371095657348633 0.014467105865478658 -0.045253505706786969 -0.16366262435913087 -0.0022538566589354048 0.032685794830322128 -0.15401060104370112 -0.051594829559326177 -0.054288425445556503 1.4377754402160645 -0.008129634857177593 -0.42601804733276372 -0.4020249366760254 -0.10096292495727539 -0.12079841613769525 -0.077140636444091734
leaf_weight=4859 13472 1242 703 543 1401 79 525 409 921 442 1448 186 134 446 1576 74 133 155 371 554 188 475 94 60 69 2600 1769 2017 775 172
leaf_count=4859 13472 1242 703 543 1401 79 525 409 921 442 1448 186 134 446 1576 74 133 155 371 554 188 475 94 60 69 2600 1769 2017 775 172
internal_value=0 -0.0036664 0.00325812 -0.00427166 -0.00459396 0.00355308 -0.00506489 0.00373122 -0.00246705 0.00391489 0.0017935 -0.0055213 0.00423117 0.0042948 0.00255562 0.00219152 0.00364546 -0.000325855 0.00280801 0.000480351 -0.00104225 -0.00244336 0.000350473 -0.00563469 0.00357124 -0.0056665 -0.00516032 -0.00604517 -0.00643948 -0.00221841
internal_weight=0 17986 19906 16611 15822 19203 14421 18649 2155 17958 2330 12266 15628 15494 2022 789 1375 1234 1888 1079 691 554 503 12080 1517 12020 5144 6876 2544 246
internal_count=37892 17986 19906 16611 15822 19203 14421 18649 2155 17958 2330 12266 15628 15494 2022 789 1375 1234 1888 1079 691 554 503 12080 1517 12020 5144 6876 2544 246
is_linear=0
shrinkage=0.1


Tree=2
num_leaves=31
num_cat=0
split_feature=1 69 93 95 78 65 1 1 46 42 65 16 40 42 75 76 65 46 65 1 76 1 69 69 69 19 40 67 41 1
split_gain=43.2211 7.68024 4.20438 3.29467 3.48663 1.79005 1.70197 1.67234 1.28355 1.14701 1.46201 0.969188 0.95734 0.715471 0.672377 0.668332 0.546983 0.543467 0.503579 0.624479 0.453944 0.412163 0.465126 0.651615 0.594764 0.358782 0.319204 0.303344 0.300162 0.293276
threshold=15504.000000000002 41998.000000000007 0.34179334782303944 2563.5000000000005 137.50000000000003 397098.00000000006 4351.0000000000009 47592.000000000007 4.0300128205128214 0.15002704373358061 9.5000000000000018 5535.0000000000009 1801.0000000000002 0.35020508481763629 0.34959364977975455 0.25414432471801934 5.5000000000000009 0.4677224990189221 25979.000000000004 297357.00000000006 0.0019668374746205169 705.00000000000011 1.0000000180025095e-35 1.5000000000000002 21246.500000000004 1.0000000180025095e-35 576.50000000000011 0.85705979647776787 47.35800000000004 342336.00000000006
decision_type=2 2 2 2 2 2 2 2 2 2 2 2 2 2 2 2 2 2 2 2 2 2 2 2 2 2 2 2 2 2
left_child=1 3 5 4 6 7 11 9 13 10 -2 21 16 15 -5 18 -8 28 -9 -20 -3 22 25 -24 -25 -1 -23 -7 -15 -19
right_child=2 20 -4 14 -6 27 12 8 -10 -11 -12 -13 -14 17 -16 -17 -18 29 19 -21 -22 26 23 24 -26 -27 -28 -29 -30 -31
leaf_value=-0.31010227584838895 0.083456594467163123 0.084624248504638552 -0.089877428054809638 0.16551213645935087 0.027549835205077856 0.019353494644165182 0.024812303543090764 0.19760162544250479 -0.06034866714477545 -0.017881710052490264 -0.06105258750915539 0.05336215782165539 -0.053529830932616922 0.028926652908325325 -0.030462873458862207 -0.050173170089721712 -0.13255980491638192 -0.01255743598938004 -0.025505960464477798 0.073691644668578957 -0.073725858688354504 -0.041469926834106378 -0.38343388557434077 -0.31081526756286632 -0.0074423675537108385 1.293997896194458 -0.10555226325988763 -0.052432432174682478 -0.010541349411010615 0.024724191665649542
leaf_weight=5033 1076 1178 658 492 1423 164 665 13092 353 607 247 214 563 1832 297 132 114 243 171 640 71 1345 2604 2421 252 46 1268 390 136 165
leaf_count=5033 1076 1178 658 492 1423 164 665 13092 353 607 247 214 563 1832 297 132 114 243 171 640 71 1345 2604 2421 252 46 1268 390 136 165
internal_value=0 -0.00361901 0.00314435 -0.00418351 -0.00449558 0.00341305 -0.00495838 0.00357907 0.00389999 0.000791525 0.0024428 -0.00530375 -0.00156566 0.00402832 0.00212434 0.0043 0.000704953 0.00242356 0.00436723 0.00194915 0.00394545 -0.00541389 -0.00569707 -0.00503958 -0.00613637 -0.00638018 -0.0042916 -0.00218885 0.00311218 -0.00089803
internal_weight=0 17986 19906 16737 15948 19248 14525 18694 16764 1930 1323 13183 1342 16411 789 14035 779 2376 13903 811 1249 12969 10356 5277 2673 5079 2613 554 1968 408
internal_count=37892 17986 19906 16737 15948 19248 14525 18694 16764 1930 1323 13183 1342 16411 789 14035 779 2376 13903 811 1249 12969 10356 5277 2673 5079 2613 554 1968 408
is_linear=0
shrinkage=0.1


Tree=3
num_leaves=31
num_cat=0
split_feature=1 69 93 95 78 65 42 1 46 1 1 65 16 42 69 76 74 65 41 76 45 67 69 69 1 19 1 1 65 40
split_gain=40.7238 7.36244 3.84753 3.2987 3.50091 1.86398 2.29816 1.40073 1.12679 1.08593 1.03912 0.993202 0.957736 0.917719 0.736475 0.717392 0.667987 0.496261 0.493557 0.470972 0.371628 0.364686 0.319941 0.750974 0.51946 0.313813 0.276304 0.273511 0.380457 0.318741
threshold=10859.000000000002 46913.000000000007 0.13641999329292834 2563.5000000000005 86.500000000000014 1375.0000000000002 0.22670818794920955 84719.000000000015 5.0488133764832801 102730.00000000001 1920.0000000000002 673036.00000000012 3158.5000000000005 0.15002704373358061 15904.500000000002 0.50205496930251081 19.991210937500011 2.5000000000000004 36.002441406250036 0.0012102524336676111 0.27889968545648042 1.1130680027148763 1.5000000000000002 1.0000000180025095e-35 137.00000000000003 1.0000000180025095e-35 38915.000000000007 28591.500000000004 1.5000000000000002 2422.5000000000005
decision_type=2 2 2 2 2 2 2 2 2 2 2 2 2 2 2 2 2 2 2 2 2 2 2 2 2 2 2 2 2 2
left_child=1 3 5 4 10 6 8 20 15 -7 12 21 14 17 22 27 -5 -12 -9 -3 26 -11 23 24 25 -1 -8 28 29 -2
right_child=2 19 -4 16 -6 9 7 18 -10 11 13 -13 -14 -15 -16 -17 -18 -19 -20 -21 -22 -23 -24 -25 -26 -27 -28 -29 -30 -31
leaf_value=-0.30889341697692885 0.057541011619568039 0.077880535507202003 -0.076277334785461559 0.13766203479766867 0.022967413330077947 -0.050454944801330726 -0.010643850708007463 0.032612051582336578 -0.071143933868408032 0.079877816200256302 -0.00329327106475823 -0.036194659233093063 0.028304050636291225 -0.077655804634094147 -0.0052162757873535533 -0.077604049491882432 -0.042277692985534548 -0.17896575260162351 -0.0037711957931517051 -0.060238122367858797 -0.032462390327453863 -0.095395228958129866 -0.28648947429656996 -0.34509049701690664 -0.077362072944641022 1.1645981065750122 0.0052293916702272018 0.18040379505157456 -0.037497949790954624 -0.034665474700927845
leaf_weight=4552 767 1143 719 536 1445 327 506 1768 249 1406 1038 475 243 1085 372 110 253 183 371 79 299 85 2325 2604 1680 40 532 12549 95 56
leaf_count=4552 767 1143 719 536 1445 327 506 1768 249 1406 1038 475 243 1085 372 110 253 183 371 79 299 85 2325 2604 1680 40 532 12549 95 56
internal_value=0 -0.00359684 0.00297695 -0.00415624 -0.00447596 0.00324057 0.00359563 0.0012971 0.0041735 0.000561435 -0.00495566 0.00144896 -0.00533461 -0.00301393 -0.00546506 0.00429576 0.00215184 -0.00113339 0.00288418 0.00389053 -0.00124198 0.00271759 -0.00561044 -0.00533691 -0.00592959 -0.00648005 -0.000347185 0.00436146 0.00269522 0.00338689
internal_weight=0 17578 20314 16356 15567 19595 17302 3476 13826 2293 14122 1966 11816 2306 11573 13577 789 1221 2139 1222 1337 1491 11201 8876 6272 4592 1038 13467 918 823
internal_count=37892 17578 20314 16356 15567 19595 17302 3476 13826 2293 14122 1966 11816 2306 11573 13577 789 1221 2139 1222 1337 1491 11201 8876 6272 4592 1038 13467 918 823
is_linear=0
shrinkage=0.1


Tree=4
num_leaves=31
num_cat=0
split_feature=1 69 93 95 78 67 42 1 1 69 16 42 76 1 65 75 67 65 41 43 69 69 1 76 65 19 46 46 65 1
split_gain=38.5678 6.99068 3.47709 3.02308 3.36555 1.96079 2.43732 1.44104 1.16461 0.985543 1.03194 0.936167 0.920481 0.843704 1.19999 0.695813 0.596121 0.475229 0.455423 0.400914 0.380131 0.917063 0.353917 0.350595 0.340271 0.310914 0.274987 0.272076 0.26954 0.781793
threshold=10859.000000000002 52471.500000000007 0.068397876604889843 2563.5000000000005 56.500000000000007 0.60072816958689201 0.15002704373358061 97640.000000000015 180.50000000000003 12762.000000000002 3158.5000000000005 0.15776843918793074 0.12580452779450729 342336.00000000006 489282.50000000006 0.28202345675081941 3.2349020194637697 2.5000000000000004 36.002441406250036 1.0000000180025095e-35 1.0000000180025095e-35 1.5000000000000002 4351.0000000000009 0.0012102524336676111 55.500000000000007 1.0000000180025095e-35 0.78874118555842154 13.469929618948038 39.500000000000007 111865.00000000001
decision_type=2 2 2 2 2 2 2 2 2 2 2 2 2 2 2 2 2 2 2 2 2 2 2 2 2 2 2 2 2 2
left_child=1 3 5 4 8 6 12 19 9 10 20 17 27 24 16 -5 -15 22 26 -8 25 -22 -10 -3 -7 -1 -9 28 -2 -30
right_child=2 23 -4 15 -6 13 7 18 11 -11 -12 -13 -14 14 -16 -17 -18 -19 -20 -21 21 -23 -24 -25 -26 -27 -28 -29 29 -31
leaf_value=-0.27790985225677506 0.16326387483596783 0.073216528282165433 -0.068175434436798105 0.13791364480972312 0.020448282775878471 0.012476485652923586 -0.0011203948783876428 0.035267704334258812 -0.021818085193633863 -0.0043379297637937244 0.024337247257232519 -0.073605548572540161 -0.054259534664154077 0.1019807632637022 -0.039534917736053291 -0.02643005826950038 -0.060731105270385659 -0.17893817300796508 -0.00094931303024274887 -0.027518782672882481 -0.31058144731521581 -0.26272906141281144 0.016672469997406125 -0.047531914196014213 -0.039769737529754684 1.0481382959175107 0.00037642969131432838 -0.10677011436462394 -0.024388795070648329 0.13550638360977169
leaf_weight=4555 11653 1109 731 481 1460 184 1096 1732 1124 474 242 2180 168 1334 432 308 169 229 418 386 2604 2264 435 73 475 40 209 48 211 1068
leaf_count=4555 11653 1109 731 481 1460 184 1096 1732 1124 474 242 2180 168 1334 432 308 169 229 418 386 2604 2264 435 73 475 40 209 48 211 1068
internal_value=0 -0.00352554 0.00287186 -0.00406099 -0.00436629 0.00312463 0.00351563 0.00129958 -0.00483805 -0.00540453 -0.00562199 -0.00338485 0.00416302 0.000563841 0.00161632 0.00197818 0.00295141 -0.00168881 0.00283482 -0.00114416 -0.00578689 -0.00517112 -0.00106398 0.00390183 -0.00252651 -0.00643925 0.00347961 0.00425821 0.00428611 0.00290806
internal_weight=0 17578 20314 16396 15607 19583 16989 3841 14147 10179 9705 3968 13148 2594 1935 789 1503 1788 2359 1482 9463 4868 1559 1182 659 4595 1941 12980 12932 1279
internal_count=37892 17578 20314 16396 15607 19583 16989 3841 14147 10179 9705 3968 13148 2594 1935 789 1503 1788 2359 1482 9463 4868 1559 1182 659 4595 1941 12980 12932 1279
is_linear=0
shrinkage=0.1


Tree=5
num_leaves=31
num_cat=0
split_feature=1 69 93 95 78 1 65 42 46 69 1 16 1 40 76 75 67 46 65 40 66 65 1 69 69 41 19 41 76 75
split_gain=36.4153 6.21199 3.25557 2.79306 2.89972 2.15195 1.93402 1.53617 1.16899 1.15627 1.05759 0.867443 0.843127 0.809857 0.661933 0.64911 0.597234 0.587576 0.583476 0.426215 0.377224 0.356924 0.939031 0.341574 0.912161 0.321976 0.286798 0.27385 0.267012 0.258295
threshold=18100.000000000004 57770.500000000007 0.068397876604889843 2563.5000000000005 46.500000000000007 4097.0000000000009 15016.000000000002 0.086679835101423575 2.8062782921261893 9846.0000000000018 182035.00000000003 1350.5000000000002 107.50000000000001 1789.4844020995636 0.12580452779450729 0.32742917108593655 0.5213220920117384 0.10107268401262585 73.500000000000014 1082.5000000000002 20.174587673611118 122.50000000000001 111865.00000000001 1.0000000180025095e-35 1.5000000000000002 44.424316406250007 1.0000000180025095e-35 20.02333333333333 0.0012102524336676111 0.99999989171864179
decision_type=2 2 2 2 2 2 2 2 2 2 2 2 2 2 2 2 2 2 2 2 2 2 2 2 2 2 2 2 2 2
left_child=1 3 6 4 5 9 7 8 14 11 17 12 23 18 21 -5 -8 27 -7 -14 -18 -2 -23 26 -25 -12 -1 -9 -3 -11
right_child=2 28 -4 15 -6 13 16 10 -10 29 25 -13 19 -15 -16 -17 20 -19 -20 -21 -22 22 -24 24 -26 -27 -28 -29 -30 -31
leaf_value=-0.25420221435165402 0.15405361436653139 0.068529496120452657 -0.061357890993118148 0.12306103154945376 0.017628344425201448 0.011886148328781232 0.071160402994155811 0.01039748674201988 -0.035252439018249503 0.0011941838550569629 0.045368717485427729 0.019169054071426574 -0.039263168764114204 -0.03442062812232969 -0.030581135595321742 -0.02422127180290197 0.0072997767353058414 -0.015631776823044063 -0.099245434122085641 -0.090697966127395446 -0.035581425962448066 -0.029565158140182391 0.1184260058689116 -0.27952330258369429 -0.24319539019584654 -0.0022010957469937864 0.94332446632575973 -0.00668954247856135 -0.038774625791549513 -0.06611805674552898
leaf_weight=4504 11610 1051 731 488 1476 1090 439 1173 382 524 1611 257 2070 754 149 301 548 520 155 754 601 242 931 2604 2171 213 38 333 65 107
leaf_count=4504 11610 1051 731 488 1476 1090 439 1173 382 524 1611 257 2070 754 149 301 548 520 155 754 601 242 931 2604 2171 213 38 333 65 107
internal_value=0 -0.00329924 0.00290334 -0.00376589 -0.00404377 -0.00445918 0.00315857 0.00346747 0.0039762 -0.0049279 0.00170819 -0.00514043 -0.00526213 -0.00140415 0.00413725 0.00204658 -0.000180231 0.000135582 0.000162235 -0.00374848 -0.00137896 0.00421449 0.00255208 -0.00572092 -0.00513039 0.00345496 -0.00634174 0.00113628 0.00393185 -0.000752136
internal_weight=0 18409 19483 17293 16504 15028 18752 17164 13314 13029 3850 12398 12141 1999 12932 789 1588 2026 1245 2824 1149 12783 1173 9317 4775 1824 4542 1506 1116 631
internal_count=37892 18409 19483 17293 16504 15028 18752 17164 13314 13029 3850 12398 12141 1999 12932 789 1588 2026 1245 2824 1149 12783 1173 9317 4775 1824 4542 1506 1116 631
is_linear=0
shrinkage=0.1


Tree=6
num_leaves=31
num_cat=0
split_feature=1 69 93 95 78 1 67 69 42 42 16 1 1 65 76 65 1 76 46 46 66 41 40 41 4 69 69 75 44 19
split_gain=33.646 5.66264 2.96796 2.62543 2.64523 2.51966 1.83884 1.45532 1.38874 1.21273 0.906034 0.848979 0.782336 0.728539 0.713646 0.659838 0.711564 0.566647 0.502153 0.421049 0.339406 0.325717 0.322721 0.309365 0.308348 0.292594 0.89787 0.287318 0.283241 0.269021
threshold=23680.000000000004 60973.500000000007 0.47833962473165109 25137.500000000004 35.500000000000007 3860.0000000000005 0.75901854976604421 6951.5000000000009 0.077372840081472563 0.15002704373358061 533.50000000000011 182035.00000000003 73.000000000000014 23.500000000000004 0.12580452779450729 52254.500000000007 91100.000000000015 0.17500639034034568 17.034193382479003 0.81124930665187545 14.000000000000002 20.02333333333333 1082.5000000000002 32.118202930659223 0.2131587727016139 1.5000000000000002 1.0000000180025095e-35 0.99220046944172469 4.5000000000000009 1.0000000180025095e-35
decision_type=2 2 2 2 2 2 2 2 2 2 2 2 2 2 2 2 2 2 2 2 2 2 2 2 2 2 2 2 2 2
left_child=1 3 6 4 5 7 8 10 14 13 12 19 25 24 -2 16 -8 -5 -18 21 -17 -10 -14 -13 28 26 29 -9 -7 -1
right_child=2 -3 -4 17 -6 9 15 27 11 -11 -12 23 22 -15 -16 20 18 -19 -20 -21 -22 -23 -24 -25 -26 -27 -28 -29 -30 -31
leaf_value=-0.23645773601951597 0.13627530515308345 0.059263178283309875 -0.067319079127693013 0.11753021220798487 0.015361111636734037 0.034520626402855116 -0.039813943672561442 0.0018186241827010008 0.0079079158784868039 -0.037518182255744395 0.014490782773780709 0.045937658954047937 -0.041900509724616702 -0.079431188796806398 -0.043426304201316768 0.013501485463142516 0.076377325500678953 -0.012856098052787602 -0.096160731645965225 -0.020071688606834927 -0.034219595316886856 -0.0077375587202070054 -0.082129922368049085 0.010454289859199762 -0.017535396622657729 -0.22772175266551964 -0.25157097232532488 -0.061221261395454363 -0.0031055796403883563 0.84899201969318383
leaf_weight=4404 12186 1103 602 451 1492 767 195 623 1345 1141 266 1387 1883 226 162 243 1227 326 91 194 582 439 549 473 171 2070 2604 122 531 37
leaf_count=4404 12186 1103 602 451 1492 767 195 623 1345 1141 266 1387 1883 226 162 243 1227 326 91 194 582 439 549 473 171 2070 2604 122 531 37
internal_value=0 -0.00311876 0.00284119 -0.00355285 -0.00381438 -0.00420403 0.00306576 -0.00481201 0.00344442 -0.00151186 -0.00508235 0.00178298 -0.00521528 0.000184767 0.00396083 0.000444249 0.00168477 0.00213071 0.00251892 0.000340734 -0.00183079 0.000821857 -0.00362175 0.00331672 0.000997944 -0.00564045 -0.00533333 -0.000525335 0.0015238 -0.0061978
internal_weight=0 18766 19126 17663 16886 15394 18524 12558 16186 2836 11813 3838 11547 1695 12348 2338 1513 777 1318 1978 825 1784 2432 1860 1469 9115 7045 745 1298 4441
internal_count=37892 18766 19126 17663 16886 15394 18524 12558 16186 2836 11813 3838 11547 1695 12348 2338 1513 777 1318 1978 825 1784 2432 1860 1469 9115 7045 745 1298 4441
is_linear=0
shrinkage=0.1


Tree=7
num_leaves=31
num_cat=0
split_feature=1 69 93 95 78 1 65 42 46 42 65 16 69 1 67 74 1 76 66 1 65 69 69 41 41 70 76 19 44 4
split_gain=30.5078 5.0354 2.71447 2.62871 2.62649 3.20004 1.92638 1.57516 1.25637 1.20558 0.981525 0.962143 0.731797 0.66126 0.57937 0.565949 0.545542 0.451128 0.360422 0.347505 0.88325 0.315705 0.805896 0.286522 0.285636 0.284693 0.273124 0.261858 0.25758 0.266623
threshold=28591.500000000004 6354.5000000000009 0.068397876604889843 2563.5000000000005 24.500000000000004 65.500000000000014 9121.0000000000018 0.15002704373358061 1.984662444962223 0.077372840081472563 1.5000000000000002 533.50000000000011 63510.000000000007 102730.00000000001 0.22230799927953979 23.175781250000011 6792.5000000000009 0.061271270354391331 20.174587673611118 111865.00000000001 2.5000000000000004 1.5000000000000002 1.0000000180025095e-35 14.500000000000002 52.154296875000028 18.316406250000011 0.0010000200008000323 1.0000000180025095e-35 7142.5000000000009 0.11006388297014276
decision_type=2 2 2 2 2 2 2 2 2 2 2 2 2 2 2 2 2 2 2 2 2 2 2 2 2 2 2 2 2 2
left_child=1 3 6 4 5 11 8 10 9 17 16 21 25 -11 -8 -5 -7 19 -16 20 -2 22 27 -9 -15 -3 -14 -1 29 -18
right_child=2 12 -4 15 -6 7 14 23 -10 13 -12 -13 26 24 18 -17 28 -19 -20 -21 -22 -23 -24 -25 -26 -27 -28 -29 -30 -31
leaf_value=-0.2449498332061385 0.05718281653078066 0.0096513901175502084 -0.049576238292560505 0.081123374764041856 0.010530869976081903 -0.012270651928424671 0.10085702611864066 -0.030735857006549596 -0.026787025030917989 0.00040856473176944521 -0.095877755552882971 0.013041704496402674 0.057801200664939857 0.027492566795520902 0.0088172305935863456 -0.044402897469158376 0.032899291372966745 -0.020117618635921278 -0.028017933827495511 0.1572770395532416 -0.025196333859844346 -0.20818453604764928 -0.22641387509279234 -0.06115409498592364 -0.0098404829987906346 -0.0068514823494908233 -0.033856508689651225 0.76409281772386528 -0.062702597216510725 -0.0096707528409002222
leaf_weight=4096 2234 314 731 578 1514 1300 289 1523 531 1347 437 266 1021 2205 676 211 915 160 753 9575 241 2020 2604 1395 149 494 69 37 55 152
leaf_count=4096 2234 314 731 578 1514 1300 289 1523 531 1347 437 266 1021 2205 676 211 915 160 753 9575 241 2020 2604 1395 149 494 69 37 55 152
internal_value=0 -0.00296467 0.00271029 -0.00350697 -0.00377961 -0.00418544 0.0029508 -0.00234776 0.00328372 0.00344341 -0.000679561 -0.00536202 0.00192204 0.00186236 -0.000235451 0.00213041 0.000107479 0.00392265 -0.0010613 0.00399269 0.00293644 -0.005542 -0.00521322 -0.00398222 0.00287349 -0.000358586 0.00361264 -0.00608136 0.00172296 0.00206696
internal_weight=0 19001 18891 17103 16314 14800 18160 5777 16442 15911 2859 9023 1898 3701 1718 789 2422 12210 1429 12050 2475 8757 6737 2918 2354 808 1090 4133 1122 1067
internal_count=37892 19001 18891 17103 16314 14800 18160 5777 16442 15911 2859 9023 1898 3701 1718 789 2422 12210 1429 12050 2475 8757 6737 2918 2354 808 1090 4133 1122 1067
is_linear=0
shrinkage=0.1


Tree=8
num_leaves=31
num_cat=0
split_feature=1 69 68 93 11 42 67 67 46 1 76 65 1 1 27 78 75 69 69 42 65 69 1 40 46 41 4 66 1 19
split_gain=26.9992 4.49997 2.89649 2.46732 2.19665 2.90757 1.75173 1.0901 1.06803 0.778964 0.721973 0.708834 0.614342 0.578259 0.777366 0.74704 0.522187 0.491507 0.581284 0.473249 0.522309 0.431216 0.421472 0.372241 0.359326 0.335765 0.311988 0.30793 0.304192 0.401407
threshold=33963.500000000007 4750.5000000000009 1.0000000180025095e-35 0.055243988190001349 1.0000000180025095e-35 0.25795892452971497 0.34610077211113011 0.28877096832335897 0.35495913839807519 212873.00000000003 0.00010657658351269714 54353.000000000007 876502.00000000012 6792.5000000000009 1.0000000180025095e-35 15919.500000000002 0.16961988388385685 1.5000000000000002 1.0000000180025095e-35 0.025709422715214068 4.5000000000000009 77311.000000000015 838531.00000000012 43.500000000000007 0.039280570409455658 16.90909090909091 0.088362617536756408 20.174587673611118 43.500000000000007 1.0000000180025095e-35
decision_type=2 2 2 2 2 2 2 2 2 2 2 2 2 2 2 2 2 2 2 2 2 2 2 2 2 2 2 2 2 2
left_child=1 2 4 6 5 7 8 13 9 19 21 12 -8 14 15 28 -16 18 -4 20 -2 -3 -10 -7 26 -25 -15 -13 29 -1
right_child=3 10 17 -5 -6 23 11 -9 22 -11 -12 27 -14 24 16 -17 -18 -19 -20 -21 -22 -23 -24 25 -26 -27 -28 -29 -30 -31
leaf_value=-0.15062490908962617 0.063334728359147982 0.0034278379817106242 -0.31326242892605194 -0.044467933921312409 -0.28799959628445038 -0.083218826936305848 -0.006452984211805202 -0.09315830676418671 -0.0072244961938455537 0.13820594417946028 -0.04478114630091632 0.0051566842844106738 0.083767300525590838 0.034831160441884994 0.092707845148965629 0.23444020821040717 -0.017403239272077542 -0.19744861341822606 -0.20377248758351316 0.0057509860186026884 -0.019427714611127911 0.058213669404598184 0.050828586696550104 -0.026542439149440614 -0.012253647907724386 -0.060303479477408932 -0.012689919438398079 -0.031517811015119433 -0.012655629670762992 1.5668640122419533
leaf_weight=1300 2581 824 534 737 879 1279 719 608 707 9087 246 452 1162 1033 527 1018 338 1919 2604 1590 146 937 586 2001 382 1251 184 515 1651 95
leaf_count=1300 2581 824 534 737 879 1279 719 608 707 9087 246 452 1162 1033 527 1018 338 1919 2604 1590 146 937 586 2001 382 1251 184 515 1651 95
internal_value=0 -0.00267145 -0.00318295 0.00267049 -0.00236855 -0.00200535 0.00290859 -0.000747428 0.00334845 0.00361321 0.00181483 0.000638714 0.00176987 -0.000370232 -0.000906295 -0.00148568 0.00181579 -0.0052034 -0.00443245 0.0025072 0.00330668 0.00252371 0.000603745 -0.0039865 0.00128221 -0.00341807 0.00212207 -0.00156159 -0.00226947 -0.00335664
internal_weight=0 19610 17603 18282 12546 11667 17545 7136 14697 13404 2007 2848 1881 6528 4929 4064 865 5057 3138 4317 2727 1761 1293 4531 1599 3252 1217 967 3046 1395
internal_count=37892 19610 17603 18282 12546 11667 17545 7136 14697 13404 2007 2848 1881 6528 4929 4064 865 5057 3138 4317 2727 1761 1293 4531 1599 3252 1217 967 3046 1395
is_linear=0
shrinkage=0.1


Tree=9
num_leaves=31
num_cat=0
split_feature=1 69 78 95 1 93 1 65 65 42 44 16 40 46 76 1 76 76 69 69 69 69 75 4 40 109 46 46 65 42
split_gain=23.7022 4.73745 2.30318 2.63516 2.25004 1.93695 1.74301 1.68975 1.62563 1.53424 0.958052 0.883426 0.812208 0.626606 0.625413 0.609247 0.492147 0.465852 0.427686 0.524242 0.586618 0.427447 0.414858 0.400257 0.387539 0.385717 0.366025 0.343608 0.318997 0.365583
threshold=10859.000000000002 4094.5000000000005 18.500000000000004 25137.500000000004 28.500000000000004 0.54128935261887368 342336.00000000006 2.5000000000000004 143439.00000000003 0.025709422715214068 324914.50000000006 533.50000000000011 1082.5000000000002 0.042432835187500649 0.00031235551801279883 1153732.0000000002 0.24667597364495336 0.049483834854643728 1.0000000180025095e-35 1.5000000000000002 1666.0000000000002 77311.000000000015 0.01788930885529158 0.52439384449995685 1921878.0000000002 0.039598593237827183 0.41918665495969404 22.371933194372712 150.50000000000003 0.0012140354047484806
decision_type=2 2 2 2 2 2 2 2 2 2 2 2 2 2 2 2 2 2 2 2 2 2 2 2 2 2 2 2 2 2
left_child=1 2 3 4 11 6 7 9 10 22 17 18 26 25 21 -12 -5 24 -1 -20 -21 -3 23 27 -8 -11 28 -2 29 -6
right_child=5 14 -4 16 12 -7 8 -9 -10 13 15 -13 -14 -15 -16 -17 -18 -19 19 20 -22 -23 -24 -25 -26 -27 -28 -29 -30 -31
leaf_value=-0.21935512371655222 0.060170318668059157 0.002917690507468507 0.022601688777725573 0.084587954799108189 0.0017723073472168949 -0.053957946254278966 0.12303704501297902 -0.024182176643057576 -0.017673447530566124 0.0079753333528625354 -0.034755288169470336 0.01103417870328407 -0.052281883489888159 -0.013668235509168625 -0.049871149313094068 0.038827793609170415 -0.017335995449049336 -0.031706915362638456 -0.18339523882516176 -0.20695733026243862 -0.0086872554180779105 0.052133856724392302 -0.053627752093130358 -0.00034299038741139045 -0.042257699371862502 -0.010135278107214063 -0.11238862736653631 -0.19337681337279344 -0.13273351006946685 -0.018339766441651407
leaf_weight=3332 3627 875 1534 471 1076 553 9791 898 738 1973 332 260 1223 850 225 515 306 133 2604 1587 287 950 88 350 85 349 405 32 150 2293
leaf_count=3332 3627 875 1534 471 1076 553 9791 898 738 1973 332 260 1223 850 225 515 306 133 2604 1587 287 950 88 350 85 349 405 32 150 2293
internal_value=0 -0.00280212 -0.00339861 -0.00380184 -0.00413456 0.00221305 0.0023764 0.0012574 0.00316465 0.00176297 0.00347338 -0.00517656 -0.0025008 0.000111858 0.00171611 0.000244046 0.00185779 0.00374666 -0.00536746 -0.00472913 -0.00600457 0.0023294 0.0030413 0.00319039 0.00382583 0.00096223 -0.00179949 0.00349942 -0.00147184 -0.00127095
internal_weight=0 17578 15528 13994 13217 20314 19761 8167 11594 7269 10856 8070 5147 3172 2050 847 777 10009 7810 4478 1874 1825 4097 4009 9876 2322 3924 3659 3519 3369
internal_count=37892 17578 15528 13994 13217 20314 19761 8167 11594 7269 10856 8070 5147 3172 2050 847 777 10009 7810 4478 1874 1825 4097 4009 9876 2322 3924 3659 3519 3369
is_linear=0
shrinkage=0.1


Tree=10
num_leaves=31
num_cat=0
split_feature=1 69 68 11 42 93 46 65 42 65 41 23 1 76 1 65 44 4 69 40 4 1 95 75 78 44 69 69 69 41
split_gain=21.3125 3.77712 2.81366 2.4273 2.31964 2.01631 1.45877 1.01431 0.934985 0.894778 0.675427 0.646726 0.623315 0.577989 0.571062 0.647893 0.46117 0.454527 0.425211 0.414061 0.370896 0.426037 0.427836 0.46561 0.386998 0.375864 0.363633 0.422232 0.634216 0.358271
threshold=33963.500000000007 4094.5000000000005 1.0000000180025095e-35 1.0000000180025095e-35 0.27730498866213155 0.055243988190001349 0.25009312721177135 140895.00000000003 0.11441405723905725 1.5000000000000002 21.27099609375 1.0000000180025095e-35 1153732.0000000002 1.5014703142520561e-05 111865.00000000001 2.5000000000000004 96779.000000000015 1.1868931869517492 83184.000000000015 19.500000000000004 0.20164963411435255 6792.5000000000009 50873.500000000007 0.11212863443679504 392210.00000000006 1033.0000000000002 1.0000000180025095e-35 1.5000000000000002 896.50000000000011 16.011904761904766
decision_type=2 2 2 2 2 2 2 2 2 2 2 2 2 2 2 2 2 2 2 2 2 2 2 2 2 2 2 2 2 2
left_child=1 2 3 4 9 6 7 8 14 11 -10 20 16 18 15 -2 -8 -16 -3 -6 21 22 24 -24 -1 -23 -4 -28 -29 -21
right_child=5 13 26 -5 19 -7 12 -9 10 -11 -12 -13 -14 -15 17 -17 -18 -19 -20 29 -22 25 23 -25 -26 -27 27 28 -30 -31
leaf_value=-0.020076033006274054 0.041468461327325561 0.003066891814616213 -0.26000067366179158 -0.23726412428435018 -0.096657358537279775 -0.038977343279241697 0.0060933424884570542 -0.011319232584028073 0.014343145798527602 -0.074585868721994339 -0.0047843586837114319 -0.19590344084318811 0.053096678982140239 -0.033530423791511409 0.12402772290532732 -0.015834029143240971 -0.019119967450877341 -0.025561849918006276 0.054155807355664012 -0.021799827037872178 -0.027882685185981873 0.028885165973273175 0.083428201067244245 -0.012334333312591284 0.40661065993005074 -0.0097599213787550113 -0.16505571494264562 -0.20769332941392912 -0.019619105132617776 -0.048298525154662292
leaf_weight=3312 1994 911 534 879 649 737 987 611 1690 546 852 199 1136 274 9060 305 810 100 865 2404 322 1068 426 337 643 335 2604 1382 494 1426
leaf_count=3312 1994 911 534 879 649 737 987 611 1690 546 852 199 1136 274 9060 305 810 100 865 2404 322 1068 426 337 643 335 2604 1382 494 1426
internal_value=0 -0.0024478 -0.002922 -0.00212177 -0.00173998 0.00229833 0.00251357 0.00292209 0.00309614 -0.000626925 0.00136111 -0.000307035 0.000478327 0.00161408 0.00348103 0.00207192 -0.000680752 0.0038347 0.00227361 -0.00352624 -0.000133618 4.04023e-05 -0.000414546 0.00175351 -0.000832809 0.0015703 -0.00492432 -0.00463031 -0.00577408 -0.00313045
internal_weight=0 19610 17560 12546 11667 18282 17545 14612 14001 7188 2542 6642 2933 2050 11459 2299 1797 9160 1776 4479 6443 6121 4718 763 3955 1403 5014 4480 1876 3830
internal_count=37892 19610 17560 12546 11667 18282 17545 14612 14001 7188 2542 6642 2933 2050 11459 2299 1797 9160 1776 4479 6443 6121 4718 763 3955 1403 5014 4480 1876 3830
is_linear=0
shrinkage=0.1


Tree=11
num_leaves=31
num_cat=0
split_feature=1 69 68 11 42 92 65 42 46 4 41 1 75 65 69 1 23 65 109 1 76 69 69 95 76 93 78 69 40 1
split_gain=19.6184 4.06997 2.19982 2.17024 1.93741 1.60988 1.73197 2.28174 0.875443 0.876627 0.865103 0.817552 0.693116 0.633077 0.620271 0.575132 0.549062 0.537338 0.457101 0.416714 0.359801 0.354274 0.549841 0.349772 0.402009 0.344125 0.343829 0.324681 0.309658 0.497586
threshold=9044.0000000000018 2352.5000000000005 1.0000000180025095e-35 1.0000000180025095e-35 0.26962000000000003 18.000000000000004 492.50000000000006 0.040072500000000004 1.1130680027148763 0.49999974869547831 24.653808593750021 923295.00000000012 0.041779248768086849 900866.00000000012 66690.500000000015 82033.500000000015 1.0000000180025095e-35 1.5000000000000002 0.062867345404557864 72406.000000000015 0.00053397094810883302 1.5000000000000002 1.0000000180025095e-35 25137.500000000004 0.71795443503606216 0.83301087103366689 392210.00000000006 512.00000000000011 19.500000000000004 1100.0000000000002
decision_type=2 2 2 2 2 2 2 2 2 2 2 2 2 2 2 2 2 2 2 2 2 2 2 2 2 2 2 2 2 2
left_child=1 2 3 4 16 6 7 8 9 12 15 -8 19 -13 20 -9 17 23 -17 -2 -3 22 -4 26 -25 -21 -1 -23 -6 -30
right_child=5 14 21 -5 28 -7 11 10 -10 -11 -12 13 -14 -15 -16 18 -18 -19 -20 25 -22 27 -24 24 -26 -27 -28 -29 29 -31
leaf_value=-0.017293522746484415 0.024710607504163207 0.0017950507185581445 -0.23400060629561248 -0.21353771185591519 -0.086991622683551748 -0.047160182986961986 -0.022557436415139166 -0.0027296143949612885 -0.015449821265865183 0.0017170369126308317 -0.0103894152131641 0.055191349235400367 -0.018302545556012007 -0.024932909072329326 0.035556632870097714 0.016122087027943977 -0.17751157927229713 -0.13662084340564534 -0.0066143876493555357 0.11529768942933956 -0.056334789215233987 -0.20389434483069044 -0.14855014344838099 0.055856645167954612 -0.032290074973588649 -0.012066112552391673 0.36594959393704585 -0.037732151322542332 -0.022917037219070124 -0.048514650242288231
leaf_weight=3727 1750 1014 534 879 649 527 976 1128 559 853 1272 1180 347 424 1062 2053 201 283 298 9039 164 1220 2604 591 184 108 643 466 1882 1275
leaf_count=3727 1750 1014 534 879 649 527 976 1128 559 853 1272 1180 347 424 1062 2053 201 283 298 9039 164 1220 2604 591 184 108 643 466 1882 1275
internal_value=0 -0.00267258 -0.00326126 -0.00243684 -0.00199409 0.00189389 0.00203774 0.00239612 0.0030976 0.00327639 0.000527475 -0.000380212 0.00351086 0.00100837 0.0013058 0.00134341 -0.000815779 -0.000625726 0.00223402 0.00365096 -0.000274196 -0.00502393 -0.00439577 -0.000392378 0.00156552 0.00392145 -0.000739602 -0.00619306 -0.00373678 -0.00332781
internal_weight=0 17378 15138 10314 9435 20514 19987 17407 12656 12097 4751 2580 11244 1604 2240 3479 5629 5428 2351 10897 1178 4824 3138 5145 775 9147 4370 1686 3806 3157
internal_count=37892 17378 15138 10314 9435 20514 19987 17407 12656 12097 4751 2580 11244 1604 2240 3479 5629 5428 2351 10897 1178 4824 3138 5145 775 9147 4370 1686 3806 3157
is_linear=0
shrinkage=0.1


Tree=12
num_leaves=31
num_cat=0
split_feature=1 69 78 95 1 3 1 92 40 65 44 16 76 42 1 1 41 69 65 65 40 11 44 74 76 93 67 72 66 65
split_gain=17.9104 3.80187 2.18838 2.30145 2.25122 1.57565 1.30843 1.42348 1.06581 1.02787 0.893839 0.858836 0.614273 0.567927 0.506464 0.461511 0.445766 0.425705 0.395797 0.390579 0.416942 0.383703 0.380962 0.379677 0.375873 0.342865 0.335806 0.332289 0.322712 0.316703
threshold=6792.5000000000009 2174.0000000000005 10.500000000000002 2563.5000000000005 28.500000000000004 0.52666629574678547 84719.000000000015 18.000000000000004 1082.5000000000002 1906.0000000000002 110526.00000000001 533.50000000000011 1.5014703142520561e-05 0.20000626666666668 974422.50000000012 268757.00000000006 18.675900021114881 95700.000000000015 1.5000000000000002 729.50000000000011 403.50000000000006 1.0000000180025095e-35 3581.5000000000005 19.991210937500011 0.00010188949795846747 0.041589833008944588 0.13920942704405609 1.0000000180025095e-35 18.316406250000011 1.5000000000000002
decision_type=2 2 2 2 2 2 2 2 2 2 2 2 2 2 2 2 2 2 2 2 2 2 2 2 2 2 2 2 2 2
left_child=1 2 3 4 11 15 19 9 18 10 13 21 17 24 -12 29 -15 -3 -6 20 22 27 -7 -5 -8 -17 -11 -1 -28 -2
right_child=5 12 -4 23 8 6 7 -9 -10 26 14 -13 -14 16 -16 25 -18 -19 -20 -21 -22 -23 -24 -25 -26 -27 28 -29 -30 -31
leaf_value=-0.13238115663039843 0.026264481495225669 0.0023415160427440185 0.020702231712258268 0.054886946363157919 -0.011005048462983426 0.019494139368293164 0.090430359791124112 -0.053993542129672181 -0.050600212195598362 0.089605342668793497 -0.016480855885381729 0.015348388754492959 -0.031365558768918687 0.014934457904903199 0.018495192436173369 0.10292836732246187 -0.0026516635210011687 0.050314949685627046 -0.13423551916639909 -0.029841406242968205 -0.0069376259811509307 -0.19218394067032368 -0.01941065313639001 -0.029061067476229854 -0.028515515133442904 -0.0070689807322580128 0.0099297396747754629 -0.2508697297786 -0.025668110501750975 -0.013183733661626108
leaf_weight=6167 3115 1140 1563 536 3355 1007 5091 381 829 187 511 259 310 702 782 4381 773 818 194 246 1659 879 286 253 151 179 568 506 879 185
leaf_count=6167 3115 1140 1563 536 3355 1007 5091 381 829 187 511 259 310 702 782 4381 773 818 194 246 1659 879 286 253 151 179 568 506 879 185
internal_value=0 -0.0026552 -0.00324915 -0.00367488 -0.00401369 0.00172093 0.00105441 0.00161625 -0.00219842 0.00185309 0.00231938 -0.00503113 0.00115286 0.00278285 -8.83206e-05 0.00284222 0.0010494 0.0018077 -0.00144433 -0.000706808 -0.000387783 -0.00522532 0.000958398 0.00155923 0.00327061 0.00349408 -0.000432669 -0.00496662 -0.000948022 0.00194146
internal_weight=0 16809 14541 12978 12189 21083 13223 10025 4378 9644 8010 7811 2268 6717 1293 7860 1475 1958 3549 3198 2952 7552 1293 789 5242 4560 1634 6673 1447 3300
internal_count=37892 16809 14541 12978 12189 21083 13223 10025 4378 9644 8010 7811 2268 6717 1293 7860 1475 1958 3549 3198 2952 7552 1293 789 5242 4560 1634 6673 1447 3300
is_linear=0
shrinkage=0.1


Tree=13
num_leaves=31
num_cat=0
split_feature=1 69 68 11 3 42 1 92 65 44 65 76 44 42 41 23 65 42 4 1 40 4 76 1 70 4 65 41 4 69
split_gain=15.6077 3.54797 2.35413 2.36267 1.41365 1.34069 1.26054 1.53238 0.999372 0.881331 0.782375 0.672382 0.622737 0.530879 0.555922 0.522825 0.545647 0.494861 0.516084 0.462898 0.500978 0.444316 0.439656 0.41455 0.38132 0.379758 0.341354 0.34034 0.338949 0.332591
threshold=6792.5000000000009 1505.0000000000002 1.0000000180025095e-35 1.0000000180025095e-35 0.20045821777931866 0.35761111111111116 342336.00000000006 10.000000000000002 89999.000000000015 92352.000000000015 1.5000000000000002 0.0024534875324925391 1550.5000000000002 0.038723270117213229 25.579101562500025 1.0000000180025095e-35 1.5000000000000002 0.011203909045609464 0.42089087304155109 1100.0000000000002 17.500000000000004 0.49999974869547831 0.056345583715471069 1153732.0000000002 21.063476562500011 0.24552423880380872 112.50000000000001 27.991210937500011 0.19605366693981202 1.0000000180025095e-35
decision_type=2 2 2 2 2 2 2 2 2 2 2 2 2 2 2 2 2 2 2 2 2 2 2 2 2 2 2 2 2 2
left_child=1 2 3 5 25 15 10 8 9 13 12 24 17 21 -15 16 28 18 -6 20 -7 22 26 -11 -3 -2 -8 -22 -1 -4
right_child=4 11 29 -5 6 19 7 -9 -10 23 -12 -13 -14 14 -16 -17 -18 -19 -20 -21 27 -23 -24 -25 -26 -27 -28 -29 -30 -31
leaf_value=-0.0046297035665165964 0.072014688924316422 0.018855187072212943 -0.19736243000301137 -0.1729655466032913 0.039941337925130688 -0.073327274255372471 0.12696831169998077 -0.032556628407427728 -0.014397887166724743 -0.014564224496354328 -0.019755290008429682 -0.05479503226086635 -0.0088633085746916869 0.017746847878897399 -0.013482844050680143 -0.14652230568202765 -0.12653423775145997 0.00084849504651209886 -0.014487317700550763 -0.047727281868171191 -0.010750878286924604 -0.01325767608789903 -0.039539498855335614 0.021212438024099001 0.00097784406032594981 0.0059139327659007536 0.04698197880959612 -0.069257181539252241 -0.046772384486546414 -0.12123444874323752
leaf_weight=4987 4316 1056 534 879 1507 540 4235 642 804 672 881 209 1511 706 326 201 237 2509 208 952 1537 205 108 912 1101 603 938 255 157 4164
leaf_count=4987 4316 1056 534 879 1507 540 4235 642 804 672 881 209 1511 706 326 201 237 2509 208 952 1537 205 108 912 1101 603 938 255 157 4164
internal_value=0 -0.00254254 -0.00313057 -0.00224413 0.00154259 -0.00175385 0.00109087 0.00182597 0.0021661 0.0024998 3.00014e-05 0.00104701 0.000456219 0.00301396 0.000933165 -0.000810643 -0.000623597 0.00107946 0.00238864 -0.00335707 -0.0025985 0.00340539 0.0035827 0.000384108 0.00157176 0.00302695 0.00371453 -0.00179391 -0.000407451 -0.00496932
internal_weight=0 16809 14443 9745 21083 8866 16164 9548 8906 8102 6616 2366 5735 6518 1032 5582 5381 4224 1715 3284 2332 5486 5281 1584 2157 4919 5173 1792 5144 4698
internal_count=37892 16809 14443 9745 21083 8866 16164 9548 8906 8102 6616 2366 5735 6518 1032 5582 5381 4224 1715 3284 2332 5486 5281 1584 2157 4919 5173 1792 5144 4698
is_linear=0
shrinkage=0.1


Tree=14
num_leaves=31
num_cat=0
split_feature=1 69 68 11 93 42 67 42 41 4 75 76 65 23 65 44 93 1 44 69 41 44 69 69 69 70 66 42 1 95
split_gain=14.3335 2.64572 3.4085 2.80705 1.40249 1.30184 1.25568 1.41715 0.76044 0.743163 0.692081 0.666196 0.631772 0.597097 0.54321 0.404799 0.383128 0.420944 0.383222 0.38242 0.36952 0.345138 0.338863 0.452292 0.38564 0.334702 0.330341 0.325766 0.331384 0.35668
threshold=40485.000000000007 1280.5000000000002 1.0000000180025095e-35 1.0000000180025095e-35 0.67899965647200144 0.49995322707217066 0.21718416021811288 0.029384066805845516 21.27099609375 0.23388649741354028 0.041779248768086849 0.0018492248888576075 594.50000000000011 1.0000000180025095e-35 112.50000000000001 136626.50000000003 0.041589833008944588 212873.00000000003 342.50000000000006 93385.000000000015 16.011904761904766 86886.500000000015 1.0000000180025095e-35 1.5000000000000002 330.50000000000006 14.000000000000002 28.252929687499982 0.031257548879351463 3354.0000000000005 25137.500000000004
decision_type=2 2 2 2 2 2 2 2 2 2 2 2 2 2 2 2 2 2 2 2 2 2 2 2 2 2 2 2 2 2
left_child=1 2 3 5 6 12 7 9 -9 10 16 19 13 27 15 -8 17 18 -2 25 -7 -19 -4 -24 -25 -3 -16 28 29 -1
right_child=4 11 22 -5 -6 20 14 8 -10 -11 -12 -13 -14 -15 26 -17 -18 21 -20 -21 -22 -23 23 24 -26 -27 -28 -29 -30 -31
leaf_value=-0.031723915521876478 0.046372598145497795 0.011943019291557277 -0.17762618700271027 -0.1556689919429621 -0.03939827849393112 -0.017173941671057593 0.044212433357512994 0.0093621491499934709 -0.0065692010774821346 0.00038384164296125791 -0.022125628302550739 -0.048598842012131632 -0.043123029600806717 -0.13187007511382484 0.00013179200331663312 -0.013903722772858274 -0.005411623253539233 0.12868607129025519 0.0031061106061891055 0.041126855992753168 -0.045963003740193645 0.023010451415521518 -0.1083335685661794 -0.1685386598233185 -0.022498609326020259 -0.0021589895482161839 -0.028528742031900124 -0.011326439527267241 0.012122893259740765 0.024343384365512578
leaf_weight=3074 1752 419 534 879 481 2348 765 2428 1400 867 365 224 305 201 1261 347 258 6049 660 878 1454 741 2604 1103 414 888 702 1912 1804 775
leaf_count=3074 1752 419 534 879 481 2348 765 2428 1400 867 365 224 305 201 1261 347 258 6049 660 878 1454 741 2604 1103 414 888 702 1912 1804 775
internal_value=0 -0.00215206 -0.00258191 -0.00173646 0.0017419 -0.00133276 0.00188754 0.0022763 0.000625219 0.00286743 0.00311509 0.000953985 -0.000614074 -0.00043874 5.1816e-05 0.00181773 0.00327994 0.0033865 0.00225171 0.00148644 -0.00285842 0.00378962 -0.00489796 -0.00459083 -0.00596341 0.000402125 -0.000948537 -0.000295812 8.58273e-05 -0.000438341
internal_weight=0 19816 17407 12752 18076 11873 17595 14520 3828 10692 9825 2409 8071 7766 3075 1112 9460 9202 2412 2185 3802 6790 4655 4121 1517 1307 1963 7565 5653 3849
internal_count=37892 19816 17407 12752 18076 11873 17595 14520 3828 10692 9825 2409 8071 7766 3075 1112 9460 9202 2412 2185 3802 6790 4655 4121 1517 1307 1963 7565 5653 3849
is_linear=0
shrinkage=0.1


Tree=15
num_leaves=31
num_cat=0
split_feature=1 69 68 11 1 93 67 46 42 65 42 41 76 23 75 109 4 65 4 41 1 40 65 44 44 70 69 69 69 44
split_gain=13.3743 2.90225 2.43081 2.53603 1.24167 1.45628 1.06114 1.00284 0.996869 0.706279 0.655008 0.604498 0.591562 0.536697 0.523997 0.513437 0.510404 0.505732 0.441186 0.434786 0.434498 0.540362 0.389135 0.445985 0.370843 0.356927 0.339141 0.408228 0.377032 0.311414
threshold=6792.5000000000009 1205.5000000000002 1.0000000180025095e-35 1.0000000180025095e-35 342336.00000000006 0.023397144844165791 0.19679720496894412 0.033264291911641389 0.35761111111111116 1.5000000000000002 0.06355428571428573 21.991210937500007 0.0024534875324925391 1.0000000180025095e-35 0.045283264763124838 0.032751685832999505 0.24552423880380872 1.5000000000000002 0.440994880118253 18.675900021114881 1100.0000000000002 15.500000000000002 1010000.0000000001 136626.50000000003 39015.000000000007 21.063476562500011 1.0000000180025095e-35 1.5000000000000002 299.50000000000006 25.500000000000004
decision_type=2 2 2 2 2 2 2 2 2 2 2 2 2 2 2 2 2 2 2 2 2 2 2 2 2 2 2 2 2 2
left_child=1 2 3 8 7 6 10 9 13 15 14 -12 25 17 16 18 24 -1 19 -2 21 -10 23 -8 -6 -3 -4 -28 -29 -23
right_child=4 12 26 -5 5 -7 22 -9 20 -11 11 -13 -14 -15 -16 -17 -18 -19 -20 -21 -22 29 -24 -25 -26 -27 27 28 -30 -31
leaf_value=-0.0056987738984627615 0.021364930961144779 0.015999089048096948 -0.15986356830243925 -0.14010209274866589 0.12399961412361371 -0.025361137717291982 0.029115496071241156 -0.011253081194713844 -0.068252117489709371 -0.013619482343414903 0.017027117311219087 -0.010282126457514097 -0.044609945665804673 -0.11868306760244228 -0.014907481908316811 -0.011232151071050113 0.0045777395268750357 -0.11070842242412625 -0.0092139524989804048 0.0035256863629193448 -0.03992363429594406 -0.0070116909378160844 -0.022034522520684875 -0.024570301962067734 0.028582923280576013 0.00011493844362355788 -0.097500211709561496 -0.15507007769999639 -0.022722216599823854 -0.11083814617166254
leaf_weight=5144 3737 1077 534 879 5447 721 1643 1831 520 672 925 521 218 201 313 374 546 237 450 1890 952 1611 366 530 1117 1128 2604 1072 431 201
leaf_count=5144 3737 1077 534 879 5447 721 1643 1831 520 672 925 521 218 201 313 374 546 237 450 1890 952 1611 366 530 1117 1128 2604 1072 431 201
internal_value=0 -0.0024237 -0.00296297 -0.00206591 0.00135787 0.00201725 0.00229272 0.000464685 -0.00155797 0.00100125 0.00280875 0.000861631 0.000778067 -0.000744645 0.00318804 0.00132263 0.00336433 -0.000555133 0.00154395 0.00178491 -0.00294041 -0.00220548 0.000490164 0.000998242 0.00360869 0.00126937 -0.00484658 -0.00453833 -0.00585062 -0.00139003
internal_weight=0 16809 14386 9745 21083 12129 11408 8954 8866 7123 8869 1446 2423 5582 7423 6451 7110 5381 6077 5627 3284 2332 2539 2173 6564 2205 4641 4107 1503 1812
internal_count=37892 16809 14386 9745 21083 12129 11408 8954 8866 7123 8869 1446 2423 5582 7423 6451 7110 5381 6077 5627 3284 2332 2539 2173 6564 2205 4641 4107 1503 1812
is_linear=0
shrinkage=0.1


Tree=16
num_leaves=31
num_cat=0
split_feature=1 69 68 11 1 46 91 65 42 65 42 76 23 65 4 41 1 40 44 69 40 4 69 69 6 4 46 76 41 92
split_gain=12.2718 2.62771 2.61917 2.63482 1.23641 1.3054 1.30112 0.856192 0.846218 0.793472 0.644462 0.567174 0.53213 0.483456 0.479187 0.422378 0.41325 0.461882 0.393577 0.382703 0.355216 0.343266 0.330934 0.469477 0.321047 0.300074 0.299368 0.286933 0.280756 0.279723
threshold=6792.5000000000009 896.50000000000011 1.0000000180025095e-35 1.0000000180025095e-35 1059596.0000000002 0.045674506080171332 759788.50000000012 1010000.0000000001 0.35761111111111116 122.50000000000001 0.016163945692224652 0.0035005085039916703 1.0000000180025095e-35 1.5000000000000002 0.14642150730339501 17.962890625000011 1100.0000000000002 19.500000000000004 96779.000000000015 99144.000000000015 1921878.0000000002 0.22363248860528487 1.0000000180025095e-35 1.5000000000000002 0.37671038214496266 0.28964817959214956 6.9572326507549667 0.25414432471801934 27.991210937500011 10.000000000000002
decision_type=2 2 2 2 2 2 2 2 2 2 2 2 2 2 2 2 2 2 2 2 2 2 2 2 2 2 2 2 2 2
left_child=1 2 3 8 5 9 7 18 12 10 14 19 13 25 24 -12 17 -10 20 -3 21 27 -4 -24 29 -1 -7 -6 -19 -2
right_child=4 11 22 -5 6 26 -8 -9 16 -11 15 -13 -14 -15 -16 -17 -18 28 -20 -21 -22 -23 23 -25 -26 -27 -28 -29 -30 -31
leaf_value=-0.0032267378847166128 0.046771883757672585 0.00053622529256074363 -0.14387721147219532 -0.12609188347379927 0.10742332214484591 -0.0056097622762962375 -0.023520824726812606 -0.016841708789532461 -0.055736189907857184 -0.010610739948654314 0.0076730941320530379 -0.04074810312057018 -0.1068147608421981 -0.099637580181713759 -0.0020061764931622152 -0.0037751391160206539 -0.035931270866349507 -0.0055756842763262432 0.013931856752079242 0.038689512107628235 -0.042051133608230276 0.0031448662425511034 -0.087750190538605291 -0.10667692013470785 0.0028091854764447535 -0.044680080934300294 -0.14879526074579524 -0.048369131572753687 -0.057033993917526088 -0.029786616715695404
leaf_weight=4997 4194 1458 534 879 5317 2841 634 392 573 909 2068 235 201 237 685 1563 952 1509 1113 851 79 374 2604 1382 536 147 212 75 250 91
leaf_count=4997 4194 1458 534 879 5317 2841 634 392 573 909 2068 235 201 237 685 1563 952 1509 1113 851 79 374 2604 1382 536 147 212 75 250 91
internal_value=0 -0.0023619 -0.00288991 -0.00196707 0.00126046 0.00066259 0.00224136 0.00261629 -0.00144933 0.00121291 0.00149323 0.000598805 -0.000699979 -0.000511275 0.00217524 0.000459038 -0.00272304 -0.0020063 0.00287247 0.00107515 0.00320066 0.00329191 -0.00487952 -0.00456633 0.00252689 -0.000307819 -0.00114827 0.00349511 -0.00120306 0.00281551
internal_weight=0 16809 14265 9745 21083 13099 7984 7350 8866 10046 9137 2544 5582 5381 5506 3631 3284 2332 6958 2309 5845 5766 4520 3986 4821 5144 3053 5392 1759 4285
internal_count=37892 16809 14265 9745 21083 13099 7984 7350 8866 10046 9137 2544 5582 5381 5506 3631 3284 2332 6958 2309 5845 5766 4520 3986 4821 5144 3053 5392 1759 4285
is_linear=0
shrinkage=0.1


Tree=17
num_leaves=31
num_cat=0
split_feature=1 69 68 11 1 93 67 42 42 4 75 41 44 70 23 65 65 1 40 69 69 69 76 92 44 6 65 41 109 66
split_gain=11.1295 2.37718 2.6326 2.74485 1.20308 1.00262 1.03386 1.16762 0.752118 0.574638 0.612486 0.535103 0.505279 0.495528 0.471593 0.433962 0.418424 0.369002 0.524498 0.352295 0.347506 0.454888 0.325896 0.314836 0.308131 0.318492 0.307924 0.322848 0.305495 0.278102
threshold=6792.5000000000009 896.50000000000011 1.0000000180025095e-35 1.0000000180025095e-35 72406.000000000015 0.67899965647200144 0.19679720496894412 0.017200517088843365 0.44129006631592255 0.22363248860528487 0.033188664518030486 21.27099609375 1605.0000000000002 18.316406250000011 1.0000000180025095e-35 1.5000000000000002 112.50000000000001 1100.0000000000002 19.500000000000004 1.0000000180025095e-35 1.5000000000000002 192.50000000000003 0.0038283862817086929 24.6796875 9376.0000000000018 0.43548319331115298 551.50000000000011 4.5000000000000009 0.032751685832999505 25.01953125
decision_type=2 2 2 2 2 2 2 2 2 2 2 2 2 2 2 2 2 2 2 2 2 2 2 2 2 2 2 2 2 2
left_child=1 2 3 8 12 6 7 9 14 10 23 28 26 -3 15 -1 -8 18 -10 -4 -21 -22 -15 24 25 -6 27 -2 -9 -18
right_child=4 13 19 -5 5 -7 16 11 17 -11 -12 -13 -14 22 -16 -17 29 -19 -20 20 21 -23 -24 -25 -26 -27 -28 -29 -30 -31
leaf_value=-0.0048255891982925906 0.012044912640664408 0.014122739466492007 -0.1294894903249757 -0.11348269512641931 0.093647204231866968 -0.03057025440012744 0.02136324796009248 0.010166497760932104 -0.061674278222979599 0.0011622090791266972 -0.015630771539227341 -0.0055037104531095345 -0.018778216407588744 -7.185116962382665e-05 -0.096133284757978291 -0.089673822163542388 0.0022901605372538827 -0.034118824497648248 -0.00988445414935093 -0.078975171484744783 -0.14040333975453781 -0.016212899108240111 -0.040457865600566481 -0.0094319074414247698 0.030947714331652068 0.020282897585165216 -0.019677278298197012 -0.0035864909320423525 -0.006108200068818093 -0.02387101759002306
leaf_weight=5345 1512 990 534 879 6064 479 1119 2030 495 833 371 1407 834 1362 201 237 1093 872 1716 2604 964 418 192 142 1592 629 189 1668 266 855
leaf_count=5345 1512 990 534 879 6064 479 1119 2030 495 833 371 1407 834 1362 201 237 1093 872 1716 2604 964 418 192 142 1592 629 189 1668 266 855
internal_value=0 -0.00228214 -0.00278435 -0.00185915 0.00116751 0.00154445 0.00167616 0.00205694 -0.00133071 0.00263718 0.00287486 0.000547798 -0.000346357 0.000533888 -0.000658211 -0.00048685 2.07001e-05 -0.00259215 -0.0019051 -0.00477905 -0.00445592 -0.00573759 -0.000580067 0.00304993 0.00312995 0.00342738 0.000199173 0.000432244 0.00148883 -0.000864562
internal_weight=0 16809 14265 9745 21083 16880 16401 13334 8866 9631 8798 3703 4203 2544 5783 5582 3067 3083 2211 4520 3986 1382 1554 8427 8285 6693 3369 3180 2296 1948
internal_count=37892 16809 14265 9745 21083 16880 16401 13334 8866 9631 8798 3703 4203 2544 5783 5582 3067 3083 2211 4520 3986 1382 1554 8427 8285 6693 3369 3180 2296 1948
is_linear=0
shrinkage=0.1


Tree=18
num_leaves=31
num_cat=0
split_feature=1 69 68 11 1 92 44 65 42 27 78 1 40 4 16 1 69 65 44 76 69 75 91 69 69 41 6 75 70 1
split_gain=10.4015 2.27628 2.60207 2.79364 1.15187 0.930716 0.962756 0.738313 0.800104 0.637076 0.680686 0.716251 0.699644 0.559637 0.558892 0.545033 0.473348 0.44439 0.433328 0.36131 0.359018 0.357002 0.354339 0.338696 0.376713 0.32941 0.325837 0.323534 0.308078 0.279742
threshold=4097.0000000000009 731.50000000000011 1.0000000180025095e-35 1.0000000180025095e-35 72406.000000000015 22.000000000000004 50824.000000000007 685.00000000000011 0.015010002590353514 3.5449899174771837e-05 10.500000000000002 19.500000000000004 474.50000000000006 0.40869121143713777 533.50000000000011 974422.50000000012 85877.500000000015 1.5000000000000002 986.50000000000011 0.0085259702988894522 1.0000000180025095e-35 0.0053751282788596999 41936.000000000007 1.5000000000000002 192.50000000000003 18.675900021114881 0.46934781250000007 0.80278068317926665 30.144531250000004 3449506.5000000005
decision_type=2 2 2 2 2 2 2 2 2 2 2 2 2 2 2 2 2 2 2 2 2 2 2 2 2 2 2 2 2 2
left_child=1 2 3 9 18 6 7 8 13 10 11 14 17 21 -1 -8 19 -13 -2 -3 -4 22 26 -22 -25 -10 -6 -11 -18 -9
right_child=4 16 20 -5 5 -7 15 29 25 27 -12 12 -14 -15 -16 -17 28 -19 -20 -21 23 -23 -24 24 -26 -27 -28 -29 -30 -31
leaf_value=-0.10033431164335749 0.0012855346493360288 -0.00010807187372705585 -0.11654054129247804 -0.10213442561377734 0.077564066558603179 -0.029006492204743495 -0.011408510676186978 -0.008997575795631008 0.0090050447565786836 0.04117408148609876 0.023642480548018697 -0.0039685663143163913 -0.028926261329949909 3.9694020417968548e-05 0.031132059036486484 0.013985746090974872 0.05406507358951132 -0.10860778495409812 -0.016053496478014396 -0.039395575863266433 -0.071077654336270335 -0.0054061500528980845 -0.0027730921848402091 -0.12636300577908396 -0.016424475866117307 -0.0014335735375130554 0.016060040042529523 -0.034699521933015023 -0.0010366156724124665 0.029284213783577685
leaf_weight=1054 3619 1466 534 879 6994 445 1114 1054 1543 723 1563 3268 1339 725 164 1556 596 178 983 178 2604 298 307 964 362 1440 648 178 360 756
leaf_count=1054 3619 1466 534 879 6994 445 1114 1054 1543 723 1563 3268 1339 725 164 1556 596 178 983 178 2604 298 307 964 362 1440 648 178 360 756
internal_value=0 -0.00226101 -0.00277204 -0.00182338 0.00108271 0.00146505 0.00158724 0.00192432 0.00220929 -0.00126632 -0.00156566 -0.00204965 -0.00149854 0.00268101 -0.00421469 -0.000150586 0.00045336 -0.00074479 -0.000319706 -0.00057556 -0.0047582 0.00291518 0.00304257 -0.00442762 -0.00572856 0.000790508 0.00317639 0.00124731 0.00222276 4.2116e-05
internal_weight=0 16410 13810 9346 21482 16880 16435 13765 11955 8467 7566 6003 4785 8972 1218 2670 2600 3446 4602 1644 4464 8247 7949 3930 1326 2983 7642 901 956 1810
internal_count=37892 16410 13810 9346 21482 16880 16435 13765 11955 8467 7566 6003 4785 8972 1218 2670 2600 3446 4602 1644 4464 8247 7949 3930 1326 2983 7642 901 956 1810
is_linear=0
shrinkage=0.1


Tree=19
num_leaves=31
num_cat=0
split_feature=1 11 69 68 1 65 93 42 65 41 44 4 70 41 69 44 65 6 23 72 40 44 69 4 76 75 92 40 42 69
split_gain=9.55785 2.30947 1.64742 3.48488 1.15571 0.98144 0.92837 0.804284 0.768303 0.620602 0.470885 0.452708 0.43429 0.396861 0.392644 0.382067 0.350603 0.335832 0.313967 0.309844 0.300809 0.295851 0.277258 0.270293 0.276857 0.265233 0.272246 0.250369 0.24175 0.241318
threshold=4097.0000000000009 1.0000000180025095e-35 896.50000000000011 1.0000000180025095e-35 1059596.0000000002 7.5000000000000009 0.68721076558960292 0.0088283340273502108 95232.500000000015 8.5000000000000018 3581.5000000000005 0.13958789193899784 14.000000000000002 17.962890625000011 1.0000000180025095e-35 626596.00000000012 1.5000000000000002 0.17245293577338031 1.0000000180025095e-35 1.0000000180025095e-35 1454156.5000000002 209.50000000000003 3022333.5000000005 0.22363248860528487 0.25414432471801934 0.0032728033866187265 10.000000000000002 199412.00000000003 0.43414639023104146 150.50000000000003
decision_type=2 2 2 2 2 2 2 2 2 2 2 2 2 2 2 2 2 2 2 2 2 2 2 2 2 2 2 2 2 2
left_child=1 2 3 9 5 7 8 10 15 16 11 17 -4 27 -5 20 18 25 21 29 23 -1 -14 24 -6 26 -2 -9 -11 -16
right_child=4 -3 12 14 6 -7 -8 13 -10 28 -12 -13 22 -15 19 -17 -18 -19 -20 -21 -22 -23 -24 -25 -26 -27 -28 -29 -30 -31
leaf_value=-0.0026507640866608286 0.039122417049237163 -0.091920983052399666 0.014631886333144451 -0.10488648716323024 0.073537028073481989 -0.015400853138475412 -0.025528297818253522 0.0016254328579009326 -0.0092457249005402538 -0.0097959185421078853 -0.00379914738976872 -0.0031386035728463214 -0.003957198074571267 -0.0056084035718740217 -0.065646829820612138 -0.0089899685444930107 -0.09181038383905929 0.0012789914872641363 -0.067385706483811356 -0.12532319415381235 -0.024043043710165791 -0.054570199389394607 0.036259274238372545 0.00086520755091044075 -0.041428526256265745 -0.037820961392936427 -0.028351039466602047 0.015685126844871888 -0.033007914462603337 -0.0059706907120590461
leaf_weight=5307 3752 879 749 534 6003 1628 420 2629 652 853 1165 693 1615 2465 3312 339 204 621 240 304 114 235 180 373 83 107 91 347 1628 370
leaf_count=5307 3752 879 749 534 6003 1628 420 2629 652 853 1165 693 1615 2465 3312 339 204 621 240 304 114 235 180 373 83 107 91 347 1628 370
internal_value=0 -0.00220265 -0.00192043 -0.00237626 0.0010026 0.000438491 0.0019563 0.000754282 0.0022104 -0.0011794 0.00151154 0.00191416 0.000406586 -0.000140489 -0.00461826 0.00251993 -0.000628229 0.00227525 -0.000484476 -0.00427712 0.00268878 -0.000331129 -0.000437409 0.00277865 0.0029388 0.00261511 0.00275184 0.000636781 -0.00250923 -0.00402378
internal_weight=0 16410 15531 12987 21482 13498 7984 11870 7564 8467 6429 5264 2544 5441 4520 6912 5986 4571 5782 3986 6573 5542 1795 6459 6086 3950 3843 2976 2481 3682
internal_count=37892 16410 15531 12987 21482 13498 7984 11870 7564 8467 6429 5264 2544 5441 4520 6912 5986 4571 5782 3986 6573 5542 1795 6459 6086 3950 3843 2976 2481 3682
is_linear=0
shrinkage=0.1


Tree=20
num_leaves=31
num_cat=0
split_feature=1 11 70 69 1 69 92 44 68 65 44 41 42 91 76 95 78 76 4 74 41 46 74 4 108 65 41 42 65 1
split_gain=8.69239 2.37911 1.66064 2.32918 1.0562 0.934621 0.865311 0.967773 0.846289 0.685216 0.544089 0.521597 0.408451 0.357342 0.315231 0.312343 0.359212 0.33262 0.312156 0.311298 0.307439 0.279009 0.274001 0.254666 0.271521 0.2581 0.382141 0.23584 0.224256 0.310013
threshold=5135.0000000000009 1.0000000180025095e-35 14.000000000000002 699.50000000000011 322490.00000000006 551.50000000000011 24.6796875 83071.500000000015 1.0000000180025095e-35 2000.5000000000002 472.50000000000006 8.5000000000000018 0.0088283340273502108 10447764.500000002 0.0081023793349794277 25137.500000000004 392210.00000000006 0.083472686733556303 0.22363248860528487 30.838378906250004 23.806152343749996 0.99499833828692597 6.0000000000000009 0.088362617536756408 1.5000000000000002 1.5000000000000002 4.5000000000000009 0.01004755466045767 1.5000000000000002 22.000000000000004
decision_type=2 2 2 2 2 2 2 2 2 2 2 2 2 2 2 2 2 2 2 2 2 2 2 2 2 2 2 2 2 2
left_child=1 2 5 22 10 8 7 9 11 12 23 15 13 18 -5 16 28 -17 19 -6 -14 -9 -4 24 25 26 -2 -28 29 -1
right_child=4 -3 3 14 6 -7 -8 21 -10 -11 -12 -13 20 -15 -16 17 -18 -19 -20 -21 -22 -23 -24 -25 -26 -27 27 -29 -30 -31
leaf_value=-0.047720175843975102 0.01617290410210721 -0.082728884747159628 -0.060074731067066622 -0.00018097103396534921 0.071473356699239335 0.01297839608706859 -0.03093960225273662 0.0039441354578634959 -0.057534619525318575 0.00014415135288068371 -0.0092409708980792267 -0.022544458433135087 0.013206045923080013 -0.022693389265092637 -0.035365845008513475 0.06078542402907168 0.33019571173296608 -0.013034843978020306 0.0068287966591007894 -0.024114417989993343 -0.0023016109198824354 -0.021399587273123546 -0.15694303919765959 -0.0091533913708147455 -0.017704316296894618 -0.0077312163158794085 0.013161721708807406 -0.0025792337570035074 -0.076258419551832907 -0.0019118547938461461
leaf_weight=2070 2520 879 2898 1641 6331 797 379 1232 1158 1465 2058 2539 1032 121 201 424 643 351 577 169 767 719 369 544 115 585 946 1633 222 2507
leaf_count=2070 2520 879 2898 1641 6331 797 379 1232 1158 1465 2058 2539 1032 121 201 424 643 351 577 169 767 719 369 544 115 585 946 1633 222 2507
internal_value=0 -0.00210948 -0.00182813 -0.00331161 0.000941234 -0.00112053 0.00151333 0.00165705 -0.00138538 0.00203835 7.01104e-05 -0.00104939 0.00236492 0.00270177 -0.000468043 -0.00055615 -0.000823633 0.0013221 0.0027939 0.00299177 0.00101716 -0.00038764 -0.00491487 0.00052851 0.000722582 0.000819912 0.00104816 0.000192413 -0.00112102 -0.000970473
internal_weight=0 16699 15820 5109 21193 10711 12792 12413 9914 10462 8401 8756 8997 7198 1842 6217 5442 775 7077 6500 1799 1951 3267 6343 5799 5684 5099 2579 4799 4577
internal_count=37892 16699 15820 5109 21193 10711 12792 12413 9914 10462 8401 8756 8997 7198 1842 6217 5442 775 7077 6500 1799 1951 3267 6343 5799 5684 5099 2579 4799 4577
is_linear=0
shrinkage=0.1


Tree=21
num_leaves=31
num_cat=0
split_feature=1 11 70 69 46 69 1 91 95 78 1 69 16 40 67 42 76 1 65 74 41 4 44 4 3 41 65 44 40 1
split_gain=7.71651 2.45173 1.58335 1.93347 0.940684 0.931753 0.867952 1.00559 0.577586 0.602067 0.682292 0.945327 0.678853 0.659957 0.576897 0.468518 0.43333 0.363787 0.333151 0.316998 0.311175 0.308479 0.279014 0.272347 0.268962 0.281172 0.335881 0.261626 0.337195 0.327211
threshold=4097.0000000000009 1.0000000180025095e-35 18.316406250000011 150.50000000000003 0.6003766809828911 56803.000000000007 322490.00000000006 3004.5000000000005 294.50000000000006 9.5000000000000018 19.500000000000004 127.50000000000001 533.50000000000011 427.50000000000006 0.11183618415332076 0.0082221626116774534 0.0085259702988894522 2943910.0000000005 1.5000000000000002 19.991210937500011 20.02333333333333 0.22363248860528487 30004.000000000004 0.23388649741354028 0.015379269473736456 12.500000000000002 1.5000000000000002 25.500000000000004 45.500000000000007 43.500000000000007
decision_type=2 2 2 2 2 2 2 2 2 2 2 2 2 2 2 2 2 2 2 2 2 2 2 2 2 2 2 2 2 2
left_child=1 2 5 -4 6 8 24 14 9 10 11 12 -1 18 15 21 -5 -6 23 -10 -17 22 -8 27 -2 26 -26 29 -29 -12
right_child=4 -3 3 16 17 -7 7 -9 19 -11 13 -13 -14 -15 -16 20 -18 -19 -20 -21 -22 -23 -24 -25 25 -27 -28 28 -30 -31
leaf_value=-0.062614353175349011 0.018450331144072862 -0.074455996272443592 -0.059512929041902932 -0.0008701502199734535 -0.01391253949854594 0.048339936155088026 0.078330722568396641 -0.016549500076212455 0.041984103305852116 0.024844638833502942 -0.0078809391938477798 0.0017000228457794365 0.02819034972237482 -0.02285434861892597 0.0033979899977424569 0.012016894556279568 -0.034135431198136779 0.023927679803146164 -0.080940126119598693 -0.023510191062151978 -0.0019924348814686966 0.0058926210633451605 0.014690089375501359 -0.039890104965174089 0.0055841725884722138 -0.0051379167171766941 -0.0099181932630443732 0.004148391508929628 -0.070651134158581999 0.010884819306027539
leaf_weight=2511 1344 879 2583 1579 1809 439 5082 738 540 1571 878 739 258 1387 1951 1189 266 475 178 260 900 576 814 165 3614 2233 757 239 227 1711
leaf_count=2511 1344 879 2583 1579 1809 439 5082 738 540 1571 878 739 258 1387 1951 1189 266 475 178 260 900 576 814 165 3614 2233 757 239 227 1711
internal_value=0 -0.0020353 -0.00174451 -0.00334335 0.0008447 -0.00110688 0.00107295 0.00163811 -0.00129274 -0.00150233 -0.00184237 -0.00290172 -0.00374977 -0.00106573 0.00188861 0.00224226 -0.000870895 -0.00107381 -0.000315419 0.00129148 0.000940145 0.00266256 0.00287834 -8.26148e-05 0.000272989 1.05591e-05 0.000476935 0.000131117 -0.00205015 0.000523728
internal_weight=0 16410 15531 4428 21482 11103 19198 11250 10664 9864 8293 3508 2769 4785 10512 8561 1845 2284 3398 800 2089 6472 5896 3220 7948 6604 4371 3055 466 2589
internal_count=37892 16410 15531 4428 21482 11103 19198 11250 10664 9864 8293 3508 2769 4785 10512 8561 1845 2284 3398 800 2089 6472 5896 3220 7948 6604 4371 3055 466 2589
is_linear=0
shrinkage=0.1


Tree=22
num_leaves=31
num_cat=0
split_feature=1 11 70 69 1 91 69 68 67 46 42 27 78 76 3 75 66 4 4 41 65 109 44 1 78 17 44 65 40 4
split_gain=7.07597 2.33525 1.51776 2.28129 0.950247 0.836619 0.705132 0.7558 0.680895 0.585428 0.513114 0.431303 0.465916 0.414986 0.372975 0.348663 0.347429 0.313877 0.309065 0.326565 0.345868 0.380977 0.308849 0.422694 0.307885 0.438741 0.293813 0.286943 0.325362 0.278628
threshold=2984.5000000000005 1.0000000180025095e-35 14.000000000000002 138.00000000000003 838531.00000000012 3004.5000000000005 551.50000000000011 1.0000000180025095e-35 0.19110437954637993 0.6003766809828911 0.43414639023104146 3.5449899174771837e-05 15919.500000000002 0.0081023793349794277 0.0049983230434365979 0.66989997734160889 25.01953125 0.59980464247145482 0.016029216742763339 28.653808593750021 5.5000000000000009 0.02236158798283262 45.500000000000007 16.500000000000004 7.5000000000000009 1.0000000180025095e-35 9376.0000000000018 1.5000000000000002 474.50000000000006 3.4613104827788609e-05
decision_type=2 2 2 2 2 2 2 2 2 2 2 2 2 2 2 2 2 2 2 2 2 2 2 2 2 2 2 2 2 2
left_child=1 2 6 -4 9 8 7 11 10 14 15 12 22 -5 -2 17 -10 26 19 20 21 -16 23 24 25 -1 -6 28 29 -25
right_child=4 -3 3 13 5 -7 -8 -9 16 -11 -12 -13 -14 -15 18 -17 -18 -19 -20 -21 -22 -23 -24 27 -26 -27 -28 -29 -30 -31
leaf_value=-0.080375485228231902 0.023625880202002139 -0.067010396645199324 -0.053683134245622814 -0.00038708562667597593 0.079836275116350927 -0.014894550068591174 0.010189580410797561 -0.045573795588992105 0.017880683950514963 -0.013044067892546708 -0.0089020199665508677 0.017001696393235479 0.20811697820752181 -0.032363857912815777 0.0066995125148871185 -0.036645876157831124 -0.015622532306024084 -0.0034034967855070875 -0.013235969761576172 -0.0059415638522395398 -0.0078806278430811009 -0.0096662180838254855 -0.055469975400036377 0.001587486481652789 -0.01797000829245583 0.084150333510773834 0.020162676214870601 -0.089510405326625533 -0.015840499543203278 -0.035901094468656684
leaf_weight=975 1509 879 2958 1865 4342 702 797 1158 1160 1187 350 901 1018 286 6127 158 909 324 594 1623 1095 430 559 2531 564 154 1570 123 874 170
leaf_count=975 1509 879 2958 1865 4342 702 797 1158 1160 1187 350 901 1018 286 6127 158 909 324 594 1623 1095 430 559 2531 564 154 1570 123 874 170
internal_value=0 -0.00203396 -0.00173911 -0.0031371 0.000737283 0.00149115 -0.00101208 -0.00126382 0.0017558 0.000166407 0.00224265 -0.000912804 -0.00117902 -0.000659101 0.000386876 0.00244673 0.000168872 0.00256427 0.000162996 0.000304616 0.000577891 0.000852632 -0.00151726 -0.00128526 -0.00259394 -0.00354708 0.00273036 -0.000686124 -0.000522732 1.9941e-05
internal_weight=0 15812 14933 5109 22080 9515 9824 9027 8813 12565 6744 7869 6968 2151 11378 6394 2069 6236 9869 9275 7652 6557 5950 5391 1693 1129 5912 3698 3575 2701
internal_count=37892 15812 14933 5109 22080 9515 9824 9027 8813 12565 6744 7869 6968 2151 11378 6394 2069 6236 9869 9275 7652 6557 5950 5391 1693 1129 5912 3698 3575 2701
is_linear=0
shrinkage=0.1


Tree=23
num_leaves=31
num_cat=0
split_feature=1 11 70 69 64 44 91 69 65 42 6 46 68 69 41 75 4 76 42 1 109 41 65 1 40 72 65 4 46 69
split_gain=6.06209 1.68304 1.95697 2.22131 0.667703 0.645792 0.719117 0.608111 0.558531 0.774819 0.579355 0.452523 0.419833 0.782834 0.499313 0.419207 0.379917 0.361475 0.319347 0.307659 0.299979 0.297726 0.293943 0.293583 0.276527 0.264063 0.239587 0.232609 0.21751 0.205014
threshold=72406.000000000015 1.0000000180025095e-35 14.000000000000002 112.00000000000001 1.0000000180025095e-35 46042.500000000007 3004.5000000000005 108841.00000000001 11.500000000000002 0.0031636714583732424 0.13732242439436579 0.6003766809828911 1.0000000180025095e-35 109.50000000000001 20.000488281250011 0.002277194037681546 0.14642150730339501 0.0081023793349794277 0.050813844248929596 3449506.5000000005 0.032751685832999505 61.467285156250021 2744413.0000000005 974422.50000000012 45.500000000000007 1.0000000180025095e-35 617.50000000000011 0.39641486434848333 5.727537686533144 4233162.5000000009
decision_type=2 2 2 2 2 2 2 2 2 2 2 2 2 2 2 2 2 2 2 2 2 2 2 2 2 2 2 2 2 2
left_child=1 2 7 25 -3 6 8 11 9 10 15 12 14 -14 26 16 -2 29 -16 -10 21 -11 -21 -7 28 -4 27 -1 -13 -5
right_child=5 4 3 17 -6 23 -8 -9 19 20 -12 24 13 -15 18 -17 -18 -19 -20 22 -22 -23 -24 -25 -26 -27 -28 -29 -30 -31
leaf_value=-0.00031258691111339947 0.061969588755425777 -0.062079281144497678 -0.044926988179459039 -0.0016445598998977573 -0.00090374403512267782 -0.0086378443250698222 -0.013650094073861398 0.092012436158655578 -0.0085345358116924782 0.006047804238374966 0.00021744370512841727 -0.0043727446955038832 -0.044527844863100796 0.0022261491332965732 -0.002736333070074082 -0.012512396948440242 0.0054326740541082337 -0.030110815033790317 -0.022784426865121079 0.052419498492762888 -0.0099600695538438096 -0.024469057161018527 -0.010977210910160906 0.0066288054983758117 -0.067124407205550796 -0.14265226601296313 -0.01814790687274126 -0.021052817387913692 -0.15094376982218913 0.038414194105316574
leaf_weight=9500 5492 634 2639 1740 245 1169 754 251 1378 3086 931 407 1039 659 769 308 628 295 1257 782 343 179 209 1621 366 280 312 356 108 155
leaf_count=9500 5492 634 2639 1740 245 1169 754 251 1378 3086 931 407 1039 659 769 308 628 295 1257 782 343 179 209 1621 366 280 312 356 108 155
internal_value=0 -0.00153431 -0.0013473 -0.00303799 -0.00581756 0.00101056 0.00128579 -0.000772377 0.00145567 0.00175645 0.00234499 -0.000855305 -0.000715928 -0.00218912 -0.000510787 0.00268267 0.00286383 -0.000630681 -0.00194433 6.3239e-05 0.000556028 0.000851569 0.00140706 -0.000379438 -0.00305307 -0.00484409 -0.00022515 -0.000138784 -0.00155952 -0.00012378
internal_weight=0 21012 20133 5109 879 16880 14090 15024 13336 10967 7359 14773 13892 1698 12194 6428 6120 2190 2026 2369 3608 3265 991 2790 881 2919 10168 9856 515 1895
internal_count=37892 21012 20133 5109 879 16880 14090 15024 13336 10967 7359 14773 13892 1698 12194 6428 6120 2190 2026 2369 3608 3265 991 2790 881 2919 10168 9856 515 1895
is_linear=0
shrinkage=0.1


Tree=24
num_leaves=31
num_cat=0
split_feature=1 11 70 69 1 69 92 64 65 42 65 78 95 44 6 44 41 69 68 91 75 72 76 16 44 1 78 77 4 65
split_gain=5.67903 1.47062 1.40597 1.87239 0.79789 0.716165 0.682722 0.667703 0.549755 0.560166 0.542051 0.425791 0.484663 0.366743 0.455475 0.335753 0.331856 0.327284 0.793536 0.314489 0.289749 0.283903 0.279257 0.268879 0.307081 0.327239 0.373871 0.268578 0.266508 0.264988
threshold=3354.0000000000005 1.0000000180025095e-35 16.316406250000011 138.00000000000003 1059596.0000000002 116935.00000000001 31.352050781250014 1.0000000180025095e-35 3.5000000000000004 0.0013227032385988104 729315.50000000012 392210.00000000006 171.00000000000003 7142.5000000000009 0.13732242439436579 71780.500000000015 32.000976562500007 72.500000000000014 1.0000000180025095e-35 10514245.000000002 0.16961988388385685 1.0000000180025095e-35 0.0081023793349794277 94412.000000000015 292.50000000000006 24.500000000000004 9.5000000000000018 1.0000000180025095e-35 0.020421640162805666 1.5000000000000002
decision_type=2 2 2 2 2 2 2 2 2 2 2 2 2 2 2 2 2 2 2 2 2 2 2 2 2 2 2 2 2 2
left_child=1 2 5 -4 8 11 10 -3 9 13 15 12 17 14 21 19 -11 18 23 -6 -14 28 -5 24 25 26 27 -1 -2 -27
right_child=4 7 3 22 6 -7 -8 -9 -10 16 -12 -13 20 -15 -16 -17 -18 -19 -20 -21 -22 -23 -24 -25 -26 29 -28 -29 -30 -31
leaf_value=-0.02889124992305412 0.029257894023217546 -0.055871353030048004 -0.043659711267030769 -0.00060088719820079468 0.045674224194334562 0.078312861546869436 -0.031187446782842798 -0.00081336963161042779 -0.011724796478714695 0.00071350712914259879 -0.012468524853324682 0.27391123754667851 0.04680651743965214 -0.0060315480935290823 -0.0084939770110633358 0.00444087617223552 -0.0094507325758904429 0.0012444828161232381 -0.041486470709154948 -0.024184881497134471 -0.011988126067837612 -0.027213042457327676 -0.026116390618155096 0.092529603048136275 -0.051320055879177318 -0.0029807406974182273 -0.018338577442600014 -0.14880160714290389 0.00053608007424266191 -0.074945907721624572
leaf_weight=1209 3458 634 2561 1594 5887 322 270 245 1735 5126 435 643 459 886 768 1258 1313 910 1400 134 345 199 277 128 330 3399 928 312 592 135
leaf_count=1209 3458 634 2561 1594 5887 322 270 245 1735 5126 435 643 459 886 768 1258 1313 910 1400 134 345 199 277 128 330 3399 928 312 592 135
internal_value=0 -0.00184243 -0.00160874 -0.00310272 0.000639816 -0.000979329 0.00143837 -0.00581756 0.000186903 0.000421211 0.00161137 -0.00112594 -0.00129356 0.00112483 0.00145607 0.00181629 -0.000223838 -0.00150944 -0.00171778 0.00212674 0.0010561 0.00186115 -0.000697995 -0.00124876 -0.00134076 -0.00117697 -0.00206537 -0.00303048 0.00204235 -0.000561317
internal_weight=0 15831 14952 4432 22061 10520 7984 879 14077 12342 7714 10198 9555 5903 5017 7279 6439 8751 7841 6021 804 4249 1871 6441 6313 5983 2449 1521 4050 3534
internal_count=37892 15831 14952 4432 22061 10520 7984 879 14077 12342 7714 10198 9555 5903 5017 7279 6439 8751 7841 6021 804 4249 1871 6441 6313 5983 2449 1521 4050 3534
is_linear=0
shrinkage=0.1


Tree=25
num_leaves=31
num_cat=0
split_feature=1 11 70 69 64 1 67 91 69 40 44 78 95 66 75 76 46 4 44 96 1 69 78 16 44 40 19 65 40 109
split_gain=5.22987 1.46556 1.37921 2.20761 0.719717 0.67958 0.531465 0.689658 0.52795 0.388536 0.388041 0.377079 0.386718 0.364829 0.330122 0.312275 0.28584 0.27752 0.341172 0.25868 0.251846 0.445305 0.506245 0.527624 0.380133 0.299239 0.257361 0.241956 0.270822 0.241227
threshold=2984.5000000000005 1.0000000180025095e-35 14.000000000000002 77.500000000000014 1.0000000180025095e-35 566558.50000000012 0.22230799927953979 3004.5000000000005 116935.00000000001 901556.00000000012 472.50000000000006 392210.00000000006 171.00000000000003 29.166503906249968 0.15070789616633121 0.019689922480620157 55.350272280549163 0.11425248046237395 7760.0000000000009 32.00439453125 16.500000000000004 109.50000000000001 7.5000000000000009 94412.000000000015 25.500000000000004 45.500000000000007 1.0000000180025095e-35 1.5000000000000002 474.50000000000006 0.02236158798283262
decision_type=2 2 2 2 2 2 2 2 2 2 2 2 2 2 2 2 2 2 2 2 2 2 2 2 2 2 2 2 2 2
left_child=1 2 8 -4 -3 10 7 9 11 14 29 12 20 -8 17 -5 -12 18 -7 -14 21 22 23 26 27 -26 -1 28 -22 -2
right_child=5 4 3 15 -6 6 13 -9 -10 -11 16 -13 19 -15 -16 -17 -18 -19 -20 -21 24 -23 -24 -25 25 -27 -28 -29 -30 -31
leaf_value=-0.046918344768338831 0.0035029501789168196 -0.050284217727043237 -0.040081830748835229 -0.00031413576864789409 -0.00073203266844945603 0.059566343469282759 0.0083908696929182024 -0.011778937982899862 0.083974581070720339 -0.010376143381549597 -0.0043011014559400712 0.24652011379201078 0.028306568033505286 -0.019910842890106653 -0.025872005573247137 -0.025570691058389453 -0.39693694647309852 -0.00070729805913813957 0.012811133059987868 -0.029832485439566982 0.0012164127888262045 0.0018790859383546632 -0.01634799875488966 0.08327664274332279 -0.0029575859264113547 -0.052329939198922308 0.730735142259621 -0.067583223406408877 -0.013765755133693958 -0.0090474203316059498
leaf_weight=2121 8095 634 2869 1962 245 4671 1436 712 243 329 2820 643 560 799 255 278 68 540 1933 244 2625 667 939 128 205 385 72 119 873 422
leaf_count=2121 8095 634 2869 1962 245 4671 1436 712 243 329 2820 643 560 799 255 278 68 540 1933 244 2625 667 939 128 205 385 72 119 873 422
internal_value=0 -0.00178393 -0.00155035 -0.00288301 -0.00575208 0.000598534 0.00117197 0.00153506 -0.000857301 0.00180944 6.1802e-05 -0.000974049 -0.00114231 -0.000199184 0.00195896 -0.000530483 -0.000939894 0.00208516 0.00226339 0.000949874 -0.00134912 -0.00192505 -0.00240672 -0.00319934 -0.000811515 -0.0031651 -0.0035636 -0.000427601 -0.000276747 0.000401463
internal_weight=0 15812 14933 5109 879 22080 10675 8440 9824 7728 11405 9581 8938 2235 7399 2240 2888 7144 6604 804 8134 3927 3260 2321 4207 590 2193 3617 3498 8517
internal_count=37892 15812 14933 5109 879 22080 10675 8440 9824 7728 11405 9581 8938 2235 7399 2240 2888 7144 6604 804 8134 3927 3260 2321 4207 590 2193 3617 3498 8517
is_linear=0
shrinkage=0.1


Tree=26
num_leaves=31
num_cat=0
split_feature=1 69 78 27 1 40 40 3 17 69 65 11 1 91 46 6 65 76 66 65 72 41 5 41 46 42 4 6 75 70
split_gain=4.88352 1.75332 1.78377 1.55639 0.976056 0.748758 0.588862 0.522082 0.4886 0.400876 0.393309 0.566612 0.388691 0.499093 0.362182 0.352389 0.32162 0.321092 0.319563 0.308881 0.295163 0.293776 0.286623 0.285784 0.301851 0.255094 0.243114 0.240335 0.219939 0.215259
threshold=26.000000000000004 109.50000000000001 7.5000000000000009 3.5449899174771837e-05 72406.000000000015 2.5000000000000004 259.50000000000006 0.19874652904640119 1.0000000180025095e-35 146907.00000000003 1.0000000180025095e-35 1.0000000180025095e-35 1612100.0000000002 3913919.0000000005 0.6003766809828911 0.153533517552632 729315.50000000012 0.046246673215636525 14.000000000000002 617.50000000000011 1.0000000180025095e-35 8.5000000000000018 0.009975000000000003 32.000976562500007 0.49123351294289624 0.20562813152400836 0.041982046019387452 0.56083677159875867 0.837823070228496 47.000000000000007
decision_type=2 2 2 2 2 2 2 2 2 2 2 2 2 2 2 2 2 2 2 2 2 2 2 2 2 2 2 2 2 2
left_child=1 2 3 5 6 8 14 27 10 17 11 20 18 16 15 19 25 -3 21 22 -1 -9 26 24 -8 -14 -2 -6 -5 -11
right_child=4 9 -4 28 7 -7 23 12 -10 29 -12 -13 13 -15 -16 -17 -18 -19 -20 -21 -22 -23 -24 -25 -26 -27 -28 -29 -30 -31
leaf_value=-0.033967102323012456 0.023633404495382496 -0.00083427377806160057 0.023838366462548777 0.019320997784565464 0.034835799229711743 -0.010212389989485794 -0.0046747963764097733 0.0080932094299495105 0.51768198692555212 0.035491902626734274 -0.0014642073618094998 -0.045255795954338929 0.033920530655557717 -0.02055679202059757 -0.04631672622628713 -0.017722927589357163 -0.0077417117362081457 -0.023820602106197342 -0.0096456542646450316 -0.013676887124461601 -0.12037947761730675 -0.0018071857323750608 0.0023985023704643283 -0.028168920161463263 -0.034602736417010858 -0.0225996837930353 -0.0099170008616763297 -0.0053114255363446716 -0.032878681338196006 -0.019090102608905826
leaf_weight=4198 1132 2107 1582 768 3516 1040 2905 3387 121 666 400 634 4136 417 475 465 372 240 1841 298 327 2670 2481 505 241 142 157 399 173 97
leaf_count=4198 1132 2107 1582 768 3516 1040 2905 3387 121 666 400 634 4136 417 475 465 372 240 1841 298 327 2670 2481 505 241 142 157 399 173 97
internal_value=0 -0.00205264 -0.0027437 -0.00337499 0.000369236 -0.00390835 -0.000493916 0.000812011 -0.00436003 1.21959e-06 -0.00449687 -0.00473108 0.000506405 0.00119 0.000210203 0.00048549 0.00148721 -0.000646118 6.78408e-05 0.000783585 -0.0043388 0.000418526 0.00102857 -0.00145974 -0.00110527 0.00173245 0.00223825 0.00182406 0.000433976 0.00199244
internal_weight=0 12353 9243 7661 25539 6720 8659 16880 5680 3110 5559 5159 12965 5067 5008 4533 4650 2347 7898 4068 4525 6057 3770 3651 3146 4278 1289 3915 941 763
internal_count=37892 12353 9243 7661 25539 6720 8659 16880 5680 3110 5559 5159 12965 5067 5008 4533 4650 2347 7898 4068 4525 6057 3770 3651 3146 4278 1289 3915 941 763
is_linear=0
shrinkage=0.1


Tree=27
num_leaves=31
num_cat=0
split_feature=1 69 68 11 42 64 67 6 91 76 45 4 41 42 1 65 76 78 27 72 109 1 46 1 40 96 67 46 70 69
split_gain=4.65573 1.6466 1.77054 1.79751 0.861875 0.815454 0.743726 0.556954 0.649885 0.646882 0.520487 0.529027 0.37883 0.373943 0.367111 0.33038 0.320196 0.314205 0.347647 0.31317 0.300858 0.300299 0.244729 0.240891 0.221824 0.21787 0.200392 0.192524 0.192377 0.212052
threshold=32.500000000000007 109.50000000000001 1.0000000180025095e-35 1.0000000180025095e-35 0.0209050444383399 1.0000000180025095e-35 0.043977211538461548 0.13113393731634723 3004.5000000000005 8.1498830351482757e-06 0.34086427669582348 0.020421640162805666 29.579101562500025 7.4209375994532762e-06 1612100.0000000002 1.5000000000000002 5.0984959905206874e-05 392210.00000000006 3.5449899174771837e-05 1.0000000180025095e-35 1.0331374363513774 3449506.5000000005 0.99977827485548654 4683900.0000000009 9472.5000000000018 32.00439453125 27.715447154471548 0.65000741660494354 36.218750000000021 146907.00000000003
decision_type=2 2 2 2 2 2 2 2 2 2 2 2 2 2 2 2 2 2 2 2 2 2 2 2 2 2 2 2 2 2
left_child=1 2 3 17 6 -5 7 8 9 10 11 13 20 -2 -12 26 28 18 -1 -4 22 27 -6 -23 -14 -20 -8 -17 29 -3
right_child=4 16 19 5 12 -7 15 -9 -10 -11 14 -13 24 -15 -16 21 -18 -19 25 -21 -22 23 -24 -25 -26 -27 -28 -29 -30 -31
leaf_value=-0.025583405627713066 0.070147764810638336 0.00085408534829198865 -0.028362540680799065 -0.040730216358905127 0.00062915601297284249 -0.00051240866542343608 0.014156371240067502 -0.010117575160645842 -0.01236980960606715 -0.033523968187431662 0.0029563235578475401 0.00056481358758588842 -0.024903910010932506 0.020349194500970925 0.035896830122098322 -0.0086810888381805285 -0.016668855442905795 0.21948426576655466 0.022018513584166399 -0.11074374009117172 -0.02370709741211954 0.046694142184611924 -0.020139235690582426 -0.0052468161435051293 -0.0044520960500598504 -0.032362955936762104 -0.1585869478627675 -0.045561456387063264 -0.0049136699132048996 0.042626534995896748
leaf_weight=3019 3200 1584 3657 634 6301 245 1093 1380 757 420 3097 824 629 1210 1722 1716 468 643 662 297 146 300 406 666 1004 239 51 464 496 562
leaf_count=3019 3200 1584 3657 634 6301 245 1093 1380 757 420 3097 824 629 1210 1722 1716 468 643 662 297 146 300 406 666 1004 239 51 464 496 562
internal_value=0 -0.00200658 -0.00266673 -0.00149664 0.000350701 -0.00563746 0.000763589 0.00115052 0.00138349 0.00158801 0.00174865 0.00243908 -0.000471574 0.00287366 0.000998768 -0.000373755 -1.21183e-05 -0.000698964 -0.00103504 -0.00427716 -0.000145419 -0.000902946 -4.7661e-05 0.000564753 -0.0018403 0.00068879 0.00108152 -0.00155331 0.000414937 0.000825176
internal_weight=0 12506 9396 5442 25386 879 16900 12610 11230 10473 10053 5234 8486 4410 4819 4290 3110 4563 3920 3954 6853 3146 6707 966 1633 901 1144 2180 2642 2146
internal_count=37892 12506 9396 5442 25386 879 16900 12610 11230 10473 10053 5234 8486 4410 4819 4290 3110 4563 3920 3954 6853 3146 6707 966 1633 901 1144 2180 2642 2146
is_linear=0
shrinkage=0.1


Tree=28
num_leaves=31
num_cat=0
split_feature=1 69 78 95 1 16 44 40 92 65 11 72 109 65 8 76 1 75 65 6 5 42 73 42 74 91 65 46 46 41
split_gain=4.39545 1.74289 1.87638 1.67346 0.853062 0.688457 0.466278 0.424007 0.421613 0.400068 0.641088 0.361614 0.354173 0.350249 0.383325 0.320772 0.302851 0.270947 0.247863 0.256183 0.325335 0.330689 0.239455 0.223762 0.228392 0.241939 0.21997 0.215378 0.207741 0.227571
threshold=16.500000000000004 72.500000000000014 7.5000000000000009 78.500000000000014 72406.000000000015 17.500000000000004 30004.000000000004 259.50000000000006 32.7412109375 1.0000000180025095e-35 1.0000000180025095e-35 1.0000000180025095e-35 0.030084880239016776 397098.00000000006 0.046874921640767259 0.023447032937907935 1059596.0000000002 0.00040079411073582345 1.5000000000000002 0.080113572640665209 0.009975000000000003 0.75256547619047631 194092.00000000003 0.0092613210400865273 16.396267361111104 1285725.0000000002 1.5000000000000002 55.350272280549163 0.30801466186645637 8.5000000000000018
decision_type=2 2 2 2 2 2 2 2 2 2 2 2 2 2 2 2 2 2 2 2 2 2 2 2 2 2 2 2 2 2
left_child=1 2 3 5 7 9 8 17 12 10 11 -1 13 14 16 -3 26 18 19 20 -2 -22 -5 24 25 -18 -6 -8 29 -9
right_child=4 15 -4 22 6 -7 27 28 -10 -11 -12 -13 -14 -15 -16 -17 23 -19 -20 -21 21 -23 -24 -25 -26 -27 -28 -29 -30 -31
leaf_value=-0.028929282675951563 0.013763657223256232 0.0012261559238307741 0.022794812574957038 0.038895464908783595 0.0086535308821176216 0.0098121371271577829 -0.0016501026420939981 -0.0010489704864561134 -0.024884427164147384 -0.00099875401103926014 -0.036657194723014541 -0.10443642524625983 -0.0088651252825911794 -0.0093064917838226787 -0.0095737334219979445 -0.01830373270194734 0.049471905237916051 -0.085932484179611288 -0.013521978555983694 -0.014947542173619866 0.0026083391422559998 -0.01938105486016788 -0.013099704329871998 -0.0066370748298446363 -0.01851434172264561 -0.00054379758651066366 -0.0044161746037964635 -0.36468407932216673 -0.024312916946150055 -0.012078576356488215
leaf_weight=4455 1632 2875 1582 472 5557 311 3113 1617 258 330 634 296 375 456 885 314 4416 80 661 494 2544 344 336 316 142 407 902 53 411 1624
leaf_count=4455 1632 2875 1582 472 5557 311 3113 1617 258 330 634 296 375 456 885 314 4416 80 661 494 2544 344 336 316 142 407 902 53 411 1624
internal_value=0 -0.00204176 -0.00279613 -0.00351454 0.000294832 -0.00408755 0.000720097 -0.000468266 0.000972625 -0.00433689 -0.00454401 -0.00414543 0.0010494 0.00113627 0.00123461 -5.09099e-05 0.0013859 6.65485e-05 0.000148016 0.000387972 0.000624279 -1.34815e-05 0.000758917 0.0019476 0.00211181 0.00222819 0.000926638 -0.000373766 -0.00131105 -0.00104247
internal_weight=0 11605 8416 6834 26287 6026 16880 9407 13714 5715 5385 4751 13456 13081 12625 3189 11740 5755 5675 5014 4520 2888 808 5281 4965 4823 6459 3166 3652 3241
internal_count=37892 11605 8416 6834 26287 6026 16880 9407 13714 5715 5385 4751 13456 13081 12625 3189 11740 5755 5675 5014 4520 2888 808 5281 4965 4823 6459 3166 3652 3241
is_linear=0
shrinkage=0.1


Tree=29
num_leaves=31
num_cat=0
split_feature=1 69 78 27 1 16 67 41 65 11 92 41 75 40 4 66 45 72 4 76 76 6 67 40 65 3 3 1 46 1
split_gain=4.20415 1.73878 1.8493 1.54841 0.720623 0.494143 0.489993 0.393759 0.390531 0.66025 0.371545 0.528805 0.397183 0.367577 0.356362 0.320251 0.312938 0.290432 0.275672 0.281418 0.272178 0.245197 0.229882 0.248949 0.26668 0.231206 0.214898 0.205217 0.189972 0.173439
threshold=16.500000000000004 60.500000000000007 6.5000000000000009 3.5449899174771837e-05 152500.00000000003 17.500000000000004 0.063782175224956314 16.011904761904766 1.0000000180025095e-35 1.0000000180025095e-35 14.000000000000002 14.500000000000002 0.70839008910032697 446181.50000000006 0.62419285363771138 14.000000000000002 0.3600344451353375 1.0000000180025095e-35 0.0050786654450000008 0.00022574708339396038 0.023447032937907935 0.13732242439436579 6.2784585142884639 122.50000000000001 1.5000000000000002 0.99996709507983583 0.78051751807421965 2778.5000000000005 0.6003766809828911 1822500.0000000002
decision_type=2 2 2 2 2 2 2 2 2 2 2 2 2 2 2 2 2 2 2 2 2 2 2 2 2 2 2 2 2 2
left_child=1 2 3 5 7 8 10 18 9 17 11 12 14 -13 16 -8 21 -1 19 22 -3 -6 23 24 25 -2 -25 -26 -9 -18
right_child=4 20 -4 -5 6 -7 15 28 -10 -11 -12 13 -14 -15 -16 -17 29 -19 -20 -21 -22 -23 -24 26 27 -27 -28 -29 -30 -31
leaf_value=-0.025856396064850531 0.0052741073086398421 0.0010926796172642029 0.019519357902087364 0.0042815891362071312 0.059991366445477118 0.01205305575681237 0.016421974233345439 -0.0063955853023227151 -0.00089887860993531632 -0.032991475250713088 -0.012648992994326492 0.0052381639024979172 -0.036317138850176178 -0.0088913023606782115 -0.010153302984926782 -0.0098682125774718805 0.005135032968517095 -0.094114853034133902 -0.013437246783482949 -0.071468142016751737 -0.016208574425229473 0.010439101238411653 -0.11458659439034379 0.0038724567263752618 -0.069750472545914918 0.01832926633090395 -0.0041786076954917206 -0.00099149920069265831 -0.046235016909624706 0.033832270854767192
leaf_weight=4387 2590 2898 1590 939 2778 210 912 3338 330 634 611 2989 185 498 352 2220 1377 295 624 105 322 399 87 1481 118 1311 1993 772 266 1281
leaf_count=4387 2590 2898 1590 939 2778 210 912 3338 330 634 611 2989 185 498 352 2220 1377 295 624 105 322 399 87 1481 118 1311 1993 772 266 1281
internal_value=0 -0.00203656 -0.00279509 -0.00351348 0.000248618 -0.00411795 0.000754242 -0.000293557 -0.00429511 -0.00450233 0.00108251 0.00123081 0.00177259 0.000240792 0.00190911 -0.000343136 0.00209551 -0.00409223 5.74339e-05 0.000207097 -6.13014e-05 0.00276536 0.000271776 0.000325603 0.000792946 0.00114931 -0.000318911 -0.000769033 -0.00117795 0.00129487
internal_weight=0 11605 8385 6795 26287 5856 13602 12685 5646 5316 10470 9859 6372 3487 6187 3132 5835 4682 9081 8457 3220 3177 8352 8265 4791 3901 3474 890 3604 2658
internal_count=37892 11605 8385 6795 26287 5856 13602 12685 5646 5316 10470 9859 6372 3487 6187 3132 5835 4682 9081 8457 3220 3177 8352 8265 4791 3901 3474 890 3604 2658
is_linear=0
shrinkage=0.1


Tree=30
num_leaves=31
num_cat=0
split_feature=1 69 68 11 64 42 67 76 4 91 45 6 41 78 1 67 72 27 65 109 69 1 76 96 44 4 41 1 44 19
split_gain=4.03821 1.4972 1.63978 1.8336 0.815454 0.622196 0.543439 0.45684 0.488063 0.475644 0.48636 0.514956 0.332394 0.295194 0.280295 0.273762 0.26929 0.264791 0.258096 0.249254 0.238035 0.237544 0.202239 0.18905 0.187278 0.178525 0.176517 0.212127 0.209743 0.175689
threshold=38.500000000000007 60.500000000000007 1.0000000180025095e-35 1.0000000180025095e-35 1.0000000180025095e-35 0.01004755466045767 0.043977211538461548 0.00022574708339396038 0.020421640162805666 3004.5000000000005 0.38196531899344682 0.17479140122929718 36.000488281250014 392210.00000000006 373155.00000000006 19.453931717018865 1.0000000180025095e-35 3.5449899174771837e-05 1.5000000000000002 1.0600000000000003 150143.00000000003 1612100.0000000002 0.023447032937907935 20.155273437500011 901.00000000000011 1.0242703514397908 8.5000000000000018 450000.00000000006 137.50000000000003 1.0000000180025095e-35
decision_type=2 2 2 2 2 2 2 2 2 2 2 2 2 2 2 2 2 2 2 2 2 2 2 2 2 2 2 2 2 2
left_child=1 2 3 13 -5 6 7 8 9 10 11 14 19 17 -2 18 -4 29 -8 26 22 24 -3 -19 -12 -10 27 28 -7 -1
right_child=5 20 16 4 -6 12 15 -9 25 -11 21 -13 -14 -15 -16 -17 -18 23 -20 -21 -22 -23 -24 -25 -26 -27 -28 -29 -30 -31
leaf_value=-0.022445819024605563 0.019070943093738538 -0.0007549620617485431 -0.020553833698355641 -0.029692327725641832 -0.00027140453678349276 0.0026607981376169931 0.010872286432935141 -0.038378462260448387 -0.0019347728736676117 -0.010351844558853785 0.0081138394743845762 -0.0028906660213465331 -0.01278670215656348 0.19330442214219482 0.074590346047532563 -0.12319461481982118 -0.084703367730720569 0.026997780199730672 -0.006182843910103486 -0.021281283779517324 0.021399782060849762 0.026155882863502813 -0.016008546289889482 -0.011753153798622407 -0.0067828670058698755 -0.033016201768296581 -0.0028289612975306968 0.017779796001228833 -0.0064229105911557845 1.2854270936596164
leaf_weight=2948 1971 2191 3569 634 245 2705 1077 296 1146 757 1811 773 1091 643 2428 128 275 481 3085 146 743 1673 286 420 1165 171 3961 361 617 95
leaf_count=2948 1971 2191 3569 634 245 2705 1077 296 1146 757 1811 773 1091 643 2428 128 275 481 3085 146 743 1673 286 420 1165 171 3961 361 617 95
internal_value=0 -0.00192359 -0.00256645 -0.0014535 -0.00563746 0.000270737 0.000634326 0.000974964 0.00107153 0.00129755 0.00148372 0.00215091 -0.000403997 -0.000651736 0.00256919 -0.000333672 -0.00414902 -0.000975647 -0.000193581 -0.000175048 -6.48806e-05 0.000741469 -0.000535775 0.000530169 0.00020552 -0.000743837 -9.68727e-05 0.000401477 0.000151298 -0.0014215
internal_weight=0 12530 9310 5466 879 25362 16481 12191 11895 10578 9821 5172 8881 4587 4399 4290 3844 3944 4162 7790 3220 4649 2477 901 2976 1317 7644 3683 3322 3043
internal_count=37892 12530 9310 5466 879 25362 16481 12191 11895 10578 9821 5172 8881 4587 4399 4290 3844 3944 4162 7790 3220 4649 2477 901 2976 1317 7644 3683 3322 3043
is_linear=0
shrinkage=0.1


Tree=31
num_leaves=31
num_cat=0
split_feature=1 69 78 95 16 42 65 75 6 1 65 11 91 45 4 41 74 46 46 44 44 70 4 108 7 69 73 46 65 42
split_gain=3.77445 1.55624 1.66357 1.42635 0.623301 0.599438 0.564192 0.487812 0.48345 0.430129 0.396743 0.745556 0.394005 0.581977 0.459182 0.341639 0.292096 0.276512 0.28454 0.307655 0.245947 0.237505 0.235651 0.242488 0.227879 0.213245 0.206078 0.202495 0.199434 0.189018
threshold=16.500000000000004 54.500000000000007 6.5000000000000009 78.500000000000014 17.500000000000004 0.00091078758862894813 1.5000000000000002 0.70839008910032697 0.39410996700655992 3449506.5000000005 1.0000000180025095e-35 1.0000000180025095e-35 3004.5000000000005 0.19779422085947121 0.0011430844665632686 28.653808593750021 1.0000000180025095e-35 114.52865153643614 1.5019226662576209e-06 292.50000000000006 30004.000000000004 21.063476562500011 3.4613104827788609e-05 1.5000000000000002 0.0029254928462842359 146907.00000000003 2628556.5000000005 0.6003766809828911 11392737.000000002 1.0010000000000001
decision_type=2 2 2 2 2 2 2 2 2 2 2 2 2 2 2 2 2 2 2 2 2 2 2 2 2 2 2 2 2 2
left_child=1 2 3 4 10 6 7 8 12 27 11 16 13 14 24 22 -1 18 19 -15 -20 25 23 29 -2 -3 -5 -8 -11 -7
right_child=5 21 -4 26 -6 15 9 -9 -10 28 -12 -13 -14 17 -16 -17 -18 -19 20 -21 -22 -23 -24 -25 -26 -27 -28 -29 -30 -31
leaf_value=-0.021410113383939944 0.062537992725169647 0.00074621761038464742 0.019812004014339024 0.024298002179757461 0.0089333972671216347 0.0009506094645590935 -0.0058989902207773788 -0.048670449722387946 -0.01279841655060885 0.021261911677282086 -0.00078185029526327558 -0.02672309495307772 -0.0093166601029682997 0.0042855927922023085 0.0031614323101337052 -0.0095127667132341998 -0.07796471278137905 -0.30787674912154483 0.019961472992311258 -0.028512400459136347 0.0018490684069057295 -0.0037896078801946233 -0.021423673998214099 -0.016482686387691816 0.019775835025567547 0.084090621261471918 -0.024107341414749683 -0.039222315757125516 -0.018086005952396889 -0.083682630624553778
leaf_weight=4414 2539 1160 1590 619 311 8169 2094 259 1012 1210 330 634 757 1453 863 2253 283 49 2172 366 1152 1727 252 197 816 348 189 488 98 88
