tree
version=v4
num_class=1
num_tree_per_iteration=1
label_index=0
max_feature_idx=109
objective=mape
feature_names=TableScan_Scan_const TableScan_Scan_in_card TableScan_Scan_in_size TableScan_Scan_out_percentage TableScan_Scan_like_percentage TableScan_Scan_compare_percentage TableScan_Scan_in_expression_percentage TableScan_Scan_between_percentage TableScan_Scan_or_exp_percentage TableScan_Scan_starts_with_percentage TableScan_Scan_empty_output InlineTable_Scan_const InlineTable_Scan_in_card InlineTable_Scan_in_size InlineTable_Scan_out_percentage PipelineBreakerScan_Scan_const PipelineBreakerScan_Scan_in_card PipelineBreakerScan_Scan_in_size PipelineBreakerScan_Scan_out_percentage Temp_Build_const Temp_Build_out_card Temp_Build_out_size Temp_Build_in_percentage EarlyExecution_Scan_const EarlyExecution_Scan_out_percentage Select_PassThrough_const Select_PassThrough_in_percentage Select_PassThrough_out_percentage Map_PassThrough_const Map_PassThrough_in_percentage Map_PassThrough_out_percentage MultiWayJoin_Build_const MultiWayJoin_Build_out_card MultiWayJoin_Build_out_size MultiWayJoin_Build_in_percentage MultiWayJoin_Scan_const MultiWayJoin_Scan_in_card MultiWayJoin_Scan_in_size MultiWayJoin_Scan_out_percentage HashJoin_Build_const HashJoin_Build_out_card HashJoin_Build_out_size HashJoin_Build_in_percentage HashJoin_Probe_const HashJoin_Probe_in_card HashJoin_Probe_right_percentage HashJoin_Probe_out_percentage IndexNLJoin_Probe_const IndexNLJoin_Probe_in_percentage IndexNLJoin_Probe_right_card IndexNLJoin_Probe_out_percentage GroupJoin_Build_const GroupJoin_Build_out_card GroupJoin_Build_out_size GroupJoin_Build_in_percentage GroupJoin_Probe_const GroupJoin_Probe_out_card GroupJoin_Probe_out_size GroupJoin_Probe_right_percentage GroupJoin_Probe_out_percentage GroupJoin_Scan_const GroupJoin_Scan_in_card GroupJoin_Scan_in_size GroupJoin_Scan_out_percentage GroupBy_Build_const GroupBy_Build_out_card GroupBy_Build_out_size GroupBy_Build_in_percentage GroupBy_Scan_const GroupBy_Scan_out_card GroupBy_Scan_out_size GroupBy_Scan_out_percentage Sort_Build_const Sort_Build_out_card Sort_Build_out_size Sort_Build_in_percentage Sort_Build_out_percentage Sort_Scan_const Sort_Scan_in_card Sort_Scan_in_size Sort_Scan_out_percentage SetOperation_Build_const SetOperation_Build_out_card SetOperation_Build_out_size SetOperation_Build_in_percentage SetOperation_Scan_const SetOperation_Scan_in_card SetOperation_Scan_in_size SetOperation_Scan_out_percentage SetOperation_PassThrough_const Window_Build_const Window_Build_out_card Window_Build_out_size Window_Build_in_percentage Window_Scan_const Window_Scan_in_card Window_Scan_in_size Window_Scan_out_percentage FileOutput_Build_const FileOutput_Build_out_card FileOutput_Build_out_size FileOutput_Build_in_percentage CsvWriter_Build_const CsvWriter_Build_out_card CsvWriter_Build_out_size CsvWriter_Build_in_percentage AssertSingle_PassThrough_const AssertSingle_PassThrough_in_percentage EarlyProbe_PassThrough_const EarlyProbe_PassThrough_out_percentage
feature_infos=[0:1] [0:133110000] none [0:1] [0:4.9204989999999995] [-1:6.1868439416411896] [0:7.5937504049999971] [0:4.2485091290318193] [0:3.8225540022670588] none [0:1] [0:1] none none none [0:1] [0:74793180] [0:220.064453125] [0:1] [0:1] [0:74793180] [0:101.03222656249997] [0:9.2356849749229895] [0:1] [0:4] [0:2] [0:1.0594777777777777] [0:1] [0:1] [0:1.228472709713808] [0:1.228472709713808] none none none none none none none none [0:1] [0:453919593] [0:240.06445312499994] [0:1576.6441304058155] [0:14] [0:453919593] [0:3353] [0:231151] none none none none none none none none none none none none none none none none none [0:1] [0:34271897] [0:488] [0:227800] [0:1] [0:63387432] [0:488] [0:1] [0:1] [0:126021240] [0:488] [0:5637.4847283974486] [0:42] [0:1] [0:585914200] [0:488] [0:1] [0:1] [0:1908822] [0:52] [0:2.6578320304335104] none none none none [0:1] [0:1] [0:5887835] [0:175.10156249999997] [0:1.228472709713808] [0:1] [0:5887835] [0:167.10156249999997] [0:1] none none none none none none none none none none [0:4] [0:4]
tree_sizes=2765 2948 2950 2948 2953 2955 2967 2980 2969 2956 2970 2994 2975 2994 2967 2986 2993 2981 2988 3005 2986 2984 3003 2995 2999 2991 2990 2994 3008 3002 3026 3001 3010 2999 3013 3002 3017 3018 3031 3025 3001 2998 3023 3020 3022 3035 3012 3024 3014 3031 3048 3047 3045 3036 2994 3037 3028 3032 3030 3003 3015 3025 3005 3024 3009 2995 3025 2977 3016 3019 3009 3047 3026 3013 3021 3012 2991 2981 2968 3011 2977 3023 3002 3000 2990 3023 3018 2967 2957 2973 3015 3001 2931 2963 2981 2913 2901 2947 2960 2972 2945 2967 2949 2925 2957 2948 2943 2982 2934 2935 2959 2951 2964 2915 2971 2946 2967 2955 2989 2927 2928 2918 2963 2980 2935 2911 2932 2966 2943 2986 2949 2920 2971 2954 2943 2975 2918 2928 2953 2955 2985 2906 2991 2937 2964 2943 2912 3026 2948 2971 2934 2936 2900 2919 2866 2884 2920 2930 2986 2929 2911 2955 2935 2903 2974 2949 2961 2988 2977 2880 2959 2970 2957 2934 2924 2945 2998 2952 2996 2978 2968 2964 2985 2988 2934 2929 2953 2961 2961 2932 2883 2888 2918 2885 2959 2880 2881 2971 2904 2921

Tree=0
num_leaves=31
num_cat=0
split_feature=1 69 46 78 1 65 42 1 42 65 16 76 76 65 46 42 1 22 65 1 42 46 67 69 69 1 39 40 65 109
split_gain=50.2285 7.59217 1.95014 1.31617 1.49396 1.2717 1.22374 0.942678 0.972457 1.31049 0.729896 0.641048 0.576153 0.416188 0.301932 0.295801 0.282484 0.25764 0.243079 0.644824 0.250367 0.330749 0.207743 0.195522 0.774105 0.239073 0.172812 0.165535 0.160716 0.155656
threshold=12747.500000000002 30448.000000000004 1.9997558896993792 290.50000000000006 3354.0000000000005 442279.00000000006 0.1515572777777778 40485.000000000007 0.51257812500000011 98.500000000000014 54599.000000000007 0.46795264339661163 0.0002129476870174202 4.5000000000000009 16.617581040507382 0.98232883510845936 6066.0000000000009 0.99984753066374477 26387.000000000004 268757.00000000006 0.72450000000000003 0.80338706294638895 0.85574155636397009 1.5000000000000002 1.0000000180025095e-35 107.50000000000001 1.0000000180025095e-35 361876.00000000006 69.500000000000014 1.7650400000000002
decision_type=2 2 2 2 2 2 2 2 2 2 2 2 2 2 2 2 2 2 2 2 2 2 2 2 2 2 2 2 2 2
left_child=1 3 5 4 10 7 13 8 9 -2 17 18 -3 16 15 28 26 23 20 -20 -9 29 -7 24 25 -1 -6 -23 -4 -22
right_child=2 12 14 -5 6 22 -8 11 -10 -11 -12 -13 -14 -15 -16 -17 -18 -19 19 -21 21 27 -24 -25 -26 -27 -28 -29 -30 -31
leaf_value=18.110404014587402 18.604094314575196 18.606537055969238 18.564272117614745 18.42924346923828 18.52797164916992 18.54051399230957 18.426124000549315 18.747795486450194 18.496244812011717 18.442252540588377 18.608837318420409 18.432507705688476 18.457330322265626 18.316655540466307 18.335746383666994 18.452160263061522 18.546861839294433 20.11287784576416 18.481571006774903 18.608891868591307 18.54710865020752 18.500333023071288 18.465030479431153 18.127410125732421 18.041635227203368 18.393092727661134 18.493285369873046 18.541500282287597 18.43527717590332 18.509116172790527
leaf_weight=3901 1269 944 268 830 181 74 825 11552 377 181 92 91 93 109 195 86 375 58 136 546 1283 121 229 2233 2258 2144 269 90 105 72
leaf_count=3901 1269 944 268 830 181 74 825 11552 377 181 92 91 93 109 195 86 375 58 136 546 1283 121 229 2233 2258 2144 269 90 105 72
internal_value=18.51 18.5057 18.5137 18.505 18.5048 18.5139 18.5075 18.5141 18.5119 18.5131 18.5043 18.5144 18.5139 18.5099 18.5084 18.5098 18.5107 18.5042 18.5144 18.5126 18.5145 18.5133 18.5075 18.5042 18.5044 18.5038 18.509 18.5096 18.511 18.5139
internal_weight=0 14312 16675 13275 12445 16021 1759 15718 1827 1450 10686 13891 1037 934 654 459 825 10594 13800 682 13118 1566 303 10536 8303 6045 450 211 373 1355
internal_count=30987 14312 16675 13275 12445 16021 1759 15718 1827 1450 10686 13891 1037 934 654 459 825 10594 13800 682 13118 1566 303 10536 8303 6045 450 211 373 1355
is_linear=0
shrinkage=1


Tree=1
num_leaves=31
num_cat=0
split_feature=1 69 46 78 1 65 42 1 65 42 76 16 76 65 46 1 1 1 69 69 22 1 42 65 1 41 40 39 75 67
split_gain=47.7437 7.61376 1.86911 1.32995 1.5669 1.16673 1.12546 0.994699 0.939142 1.36822 0.717318 0.654065 0.597515 0.382231 0.305873 0.291236 0.270882 0.268952 0.253015 0.692206 0.294151 0.289514 0.251775 0.283706 0.62262 0.263212 0.2146 0.188724 0.169857 0.157842
threshold=12747.500000000002 20503.000000000004 1.681131381155853 290.50000000000006 3354.0000000000005 397098.00000000006 0.2073677909979528 53395.000000000007 69.500000000000014 0.15002704373358061 0.00022374803694179417 16565.000000000004 0.26466235155691303 4.5000000000000009 23.791850201963751 27168.000000000004 838531.00000000012 6792.5000000000009 1.5000000000000002 1.0000000180025095e-35 0.99984753066374477 510.00000000000006 0.51257812500000011 10616.000000000002 150947.00000000003 36.735351562500021 83071.500000000015 1.0000000180025095e-35 0.21613503949331242 0.85574155636397009
decision_type=2 2 2 2 2 2 2 2 2 2 2 2 2 2 2 2 2 2 2 2 2 2 2 2 2 2 2 2 2 2
left_child=1 3 5 4 11 7 13 8 9 28 -3 18 22 17 16 -11 -4 27 19 20 21 -1 23 -9 -25 26 -24 -6 -2 -7
right_child=2 10 14 -5 6 29 -8 12 -10 15 -12 -13 -14 -15 -16 -17 -18 -19 -20 -21 -22 -23 25 24 -26 -27 -28 -29 -30 -31
leaf_value=-0.33305740356445312 0.11162902832031243 0.078571491241455155 -0.040425071716308741 -0.072681083679199079 0.016672477722168112 0.02530670166015625 -0.079689922332763535 0.22324024200439468 -0.056249942779540874 -0.022623863220214702 -0.059807739257812645 0.069212512969970774 -0.048993797302246025 -0.17401021957397447 -0.27468782424926774 0.0044798660278321028 0.060692386627197337 0.033266429901123121 -0.35782091140747063 -0.42156731605529779 1.4425898551940919 -0.10024314880371109 0.010891056060791016 -0.024990062713623119 0.092665157318115379 -0.0038561248779295457 0.04506330490112305 -0.018780441284179619 -0.067390327453613355 -0.039787273406982494
leaf_weight=4213 1299 1056 335 830 216 79 777 10779 220 251 121 112 104 109 123 491 257 353 2099 2261 44 1817 439 142 722 199 982 304 20 233
leaf_count=4213 1299 1056 335 830 216 79 777 10779 220 251 121 112 104 109 123 491 257 353 2099 2261 44 1817 439 142 722 199 982 304 20 233
internal_value=0 -0.00425259 0.00362085 -0.00494303 -0.00520436 0.00384494 -0.0024413 0.00396567 0.00203561 0.00269855 0.00345247 -0.00566522 0.00429502 -0.000191277 -0.0013812 -0.000736706 -0.000438426 0.000505852 -0.00574682 -0.0054997 -0.0060557 -0.00611515 0.00435423 0.00451675 0.0027732 0.00318618 0.00366319 -0.000940308 0.00463105 -0.00221015
internal_weight=0 14312 16675 13135 12305 15960 1759 15648 2281 2061 1177 10546 13367 982 715 742 592 873 10434 8335 6074 6030 13263 11643 864 1620 1421 520 1319 312
internal_count=30987 14312 16675 13135 12305 15960 1759 15648 2281 2061 1177 10546 13367 982 715 742 592 873 10434 8335 6074 6030 13263 11643 864 1620 1421 520 1319 312
is_linear=0
shrinkage=0.1


Tree=2
num_leaves=31
num_cat=0
split_feature=1 69 46 78 1 65 1 42 65 42 76 16 76 67 42 65 1 41 46 42 69 69 69 22 1 1 65 45 108 44
split_gain=45.404 7.33485 1.68213 1.49357 1.13194 1.14079 1.09717 1.03962 1.16982 0.888247 0.707743 0.668398 0.497179 0.429898 0.417244 0.393342 0.86181 0.343496 0.31496 0.296525 0.265156 0.251729 0.722508 0.264337 0.274238 0.249207 0.221873 0.220868 0.234386 0.193733
threshold=9903.0000000000018 14368.000000000002 1.3042869306087699 136.50000000000003 44422.000000000007 397098.00000000006 2457.5000000000005 0.3388541424809553 98.500000000000014 0.15409211937329653 0.00032971372788617709 8661.5000000000018 0.26466235155691303 0.21493430749016326 0.34907143926913292 654.00000000000011 314400.00000000006 32.000976562500007 16.617581040507382 0.98232883510845936 43405.500000000007 1.5000000000000002 1.0000000180025095e-35 0.99984753066374477 320.50000000000006 233053.50000000003 69.500000000000014 0.33770497083994 1.5000000000000002 1.0000000180025095e-35
decision_type=2 2 2 2 2 2 2 2 2 2 2 2 2 2 2 2 2 2 2 2 2 2 2 2 2 2 2 2 2 2
left_child=1 3 4 6 7 12 11 8 -2 13 20 21 14 29 15 -6 -17 25 19 26 -3 22 23 24 -1 27 -4 28 -16 -8
right_child=2 10 18 -5 5 -7 9 -9 -10 -11 -12 -13 -14 -15 17 16 -18 -19 -20 -21 -22 -23 -24 -25 -26 -27 -28 -29 -30 -31
leaf_value=-0.31554946899414066 0.075167819976806535 0.006535303115844826 0.058389060974121068 -0.065278507232665817 0.20665256881713889 -0.027013952255249052 0.009813634872436694 -0.011920209884643285 -0.057148462295532103 -0.084179405212402622 -0.061979736328125062 0.045516817092895678 -0.04270605850219731 -0.17322149658203154 0.02242936134338365 -0.015787397384643499 0.11912785911560064 0.00095581436157239359 -0.13736081504821804 -0.046013607025146189 0.083645593643188576 -0.33145149040222183 -0.37941058444976794 1.2983308696746825 -0.090870002746582301 0.062518238067627158 -0.059807184219360467 -0.003022640228271456 -0.0046424007415772905 -0.019916797637939257
leaf_weight=4047 1377 290 350 863 10097 304 571 585 189 877 122 130 106 172 735 293 1156 374 196 108 863 2000 2261 38 1439 752 155 119 83 335
leaf_count=4047 1377 290 350 863 10097 304 571 585 189 877 122 130 106 172 735 293 1156 374 196 108 863 2000 2261 38 1439 752 155 119 83 335
internal_value=0 -0.00423125 0.00345993 -0.00495535 0.00368256 0.00401029 -0.00524738 0.0015466 0.00289029 -0.00308225 0.00300007 -0.00567429 0.0041446 -0.00115967 0.00419773 0.00443179 0.00289104 0.0028878 -0.000990017 0.000125693 0.00376646 -0.00576893 -0.00551184 -0.00612818 -0.00618575 0.00349501 0.0011428 0.00240682 0.00299241 -0.00028956
internal_weight=0 14008 16979 12733 16170 14019 11870 2151 1566 1955 1275 9915 13715 1078 13609 11546 1449 2063 809 613 1153 9785 7785 5524 5486 1689 505 937 818 906
internal_count=30987 14008 16979 12733 16170 14019 11870 2151 1566 1955 1275 9915 13715 1078 13609 11546 1449 2063 809 613 1153 9785 7785 5524 5486 1689 505 937 818 906
is_linear=0
shrinkage=0.1


Tree=3
num_leaves=31
num_cat=0
split_feature=1 69 46 78 1 1 65 42 65 42 76 16 76 42 65 41 69 66 40 67 69 69 1 19 1 1 75 67 1 65
split_gain=42.8824 7.29238 1.64415 1.52152 1.18523 1.16154 1.12299 1.07177 1.28511 0.857072 0.730548 0.645222 0.456397 0.450244 0.391318 0.294516 0.280111 0.279775 0.271816 0.269065 0.26237 0.662088 0.333153 0.269771 0.252155 0.248785 0.18556 0.185006 0.180446 0.177706
threshold=11859.000000000002 11253.500000000002 1.9997558896993792 87.000000000000014 2457.5000000000005 53395.000000000007 54940.000000000007 0.15002704373358061 45.500000000000007 0.2073677909979528 0.00042572493242708801 3192.0000000000005 0.50416599002435925 0.25630737532815007 1.5000000000000002 36.428710937500007 46639.000000000007 18.316406250000011 83071.500000000015 0.55298593029156884 1.5000000000000002 1.0000000180025095e-35 180.50000000000003 1.0000000180025095e-35 28591.500000000004 923295.00000000012 0.23499696627195896 0.061129746656886537 6792.5000000000009 130.50000000000003
decision_type=2 2 2 2 2 2 2 2 2 2 2 2 2 2 2 2 2 2 2 2 2 2 2 2 2 2 2 2 2 2
left_child=1 3 5 4 11 7 12 8 26 14 16 20 13 29 28 18 -3 -8 -15 -19 21 22 23 -1 -9 -4 -2 -10 -6 -7
right_child=2 10 25 -5 9 6 17 24 27 -11 -12 -13 -14 15 -16 -17 -18 19 -20 -21 -22 -23 -24 -25 -26 -27 -28 -29 -30 -31
leaf_value=-0.30235008239746081 0.087741875457764004 0.0069380243301388591 -0.051397446250915739 -0.058515671157836735 -0.01051542320251464 0.19416106376647982 0.034484055137634327 -0.019423211288452081 0.01411680660247825 -0.07746219215393034 -0.058429505920409852 0.020158496665954574 -0.077997507858276555 0.01022815799713115 -0.15842748222351055 -0.0015739253997800518 0.076712499427795677 0.054878442955017093 0.040379243469238449 -0.030702927970886407 -0.30434720058441161 -0.34146952600479108 -0.080724042510986749 1.1684977827072143 0.0034542606353760164 0.028739152145385562 -0.06816807670593264 -0.051977401161193627 0.021824367332458652 0.10890566120147725
leaf_weight=3822 1404 371 393 882 757 9439 317 420 40 830 131 161 78 686 160 285 845 104 1248 359 1926 2261 1619 35 471 264 21 202 236 1220
leaf_count=3822 1404 371 393 882 757 9439 317 420 40 830 131 161 78 686 160 285 845 104 1248 359 1926 2261 1619 35 471 264 21 202 236 1220
internal_value=0 -0.00410897 0.00336429 -0.00485162 -0.00515091 0.00356205 0.0039264 0.00160553 0.00310201 -0.00292086 0.00288692 -0.00560105 0.00414826 0.00419445 -0.00115697 0.00289852 0.0036513 0.000241333 0.00334078 -0.00132577 -0.00570566 -0.00544568 -0.00604009 -0.00654544 -0.00119428 -0.00154033 0.00424621 -0.00363555 -0.000417472 0.00446423
internal_weight=0 14036 16951 12689 11807 16294 13736 2558 1667 1983 1347 9824 12956 12878 1153 2219 1216 780 1934 463 9663 7737 5476 3857 891 657 1425 242 993 10659
internal_count=30987 14036 16951 12689 11807 16294 13736 2558 1667 1983 1347 9824 12956 12878 1153 2219 1216 780 1934 463 9663 7737 5476 3857 891 657 1425 242 993 10659
is_linear=0
shrinkage=0.1


Tree=4
num_leaves=31
num_cat=0
split_feature=1 69 78 46 1 42 65 1 1 42 76 65 76 16 65 45 46 69 69 1 69 41 1 1 4 44 22 108 41 69
split_gain=40.3197 7.58518 1.62682 1.51965 1.1713 1.12405 1.5824 1.41059 1.10794 1.05627 0.77786 0.755311 0.689327 0.671511 0.405704 0.365337 0.307888 0.275319 0.827559 0.272509 0.26104 0.248583 0.243874 0.243502 0.201327 0.27283 0.183051 0.155164 0.145231 0.144283
threshold=9903.0000000000018 7296.5000000000009 56.000000000000007 1.3042869306087699 510.00000000000006 0.14816461210010315 130.50000000000003 111865.00000000001 97640.000000000015 0.2073677909979528 0.00054504331102119918 397098.00000000006 0.12322901006787847 772.00000000000011 1.5000000000000002 0.092602357581133637 53.405332220303826 1.0000000180025095e-35 1.5000000000000002 28591.500000000004 52624.000000000007 52.000488281250014 6066.0000000000009 838531.00000000012 2.9733779192780873e-05 27.500000000000004 0.99984753066374477 1.0000000180025095e-35 28.152343750000011 20503.000000000004
decision_type=2 2 2 2 2 2 2 2 2 2 2 2 2 2 2 2 2 2 2 2 2 2 2 2 2 2 2 2 2 2
left_child=1 2 4 5 13 6 12 -8 15 14 20 -9 -2 17 22 19 23 26 -19 -7 29 -10 24 -5 25 -6 -1 28 -21 -3
right_child=3 10 -4 16 9 8 7 11 21 -11 -12 -13 -14 -15 -16 -17 -18 18 -20 27 -22 -23 -24 -25 -26 -27 -28 -29 -30 -31
leaf_value=-0.2497243270874023 0.16157032817840611 0.016768881626129328 -0.052052989540099764 -0.029442858448028277 9.7615814205198603e-06 -0.010842371063232293 -0.035214719638824124 0.097834957065582276 0.034503715934753744 -0.079469390907287274 -0.056196549587249581 -0.024531821308136161 -0.034583546028137138 0.0076556837272644179 -0.16149323467254606 -0.018266133594512724 -0.40018445562362681 -0.30732257340431207 -0.28514218633651717 0.013265929126739807 0.071306035251617675 -0.010981302604675136 0.018206841487884519 0.048105946807861247 -0.051148761978149798 -0.026290507850647061 1.0516480044364929 -0.0045452300071715966 -0.0054866112518311642 0.0020870983314516425
leaf_weight=4099 10465 248 894 421 653 309 425 1446 1777 1647 140 304 131 186 206 337 83 2261 1804 620 814 97 262 305 141 365 23 167 92 265
leaf_count=4099 10465 248 894 421 653 309 425 1446 1777 1647 140 304 131 186 206 337 83 2261 1804 620 814 97 262 305 141 365 23 167 92 265
internal_value=0 -0.003991 -0.00478687 0.00325677 -0.00510242 0.00346838 0.00389851 0.00144162 0.00185225 -0.0034987 0.00281271 0.00269663 0.00440283 -0.0057295 -0.00169152 -0.000149142 -0.000972796 -0.00586449 -0.00528053 0.000675221 0.00356065 0.00348092 -0.00109028 -0.000313177 -0.00171315 -0.00122264 -0.00644037 0.0015732 0.00221666 0.00179391
internal_weight=0 14008 12541 16979 11647 16170 12771 2175 3399 3274 1467 1750 10596 8373 1627 1525 809 8187 4065 1188 1327 1874 1421 726 1159 1018 4122 879 712 513
internal_count=30987 14008 12541 16979 11647 16170 12771 2175 3399 3274 1467 1750 10596 8373 1627 1525 809 8187 4065 1188 1327 1874 1421 726 1159 1018 4122 879 712 513
is_linear=0
shrinkage=0.1


Tree=5
num_leaves=31
num_cat=0
split_feature=1 69 46 78 1 42 67 42 1 1 76 1 65 16 76 65 41 1 65 69 69 46 65 42 46 1 109 69 40 4
split_gain=37.5664 7.31044 1.49898 1.495 1.71141 1.16915 1.0335 0.998418 0.85802 0.842076 0.797175 0.692441 0.674571 0.665077 0.489031 0.442175 0.386512 0.377796 0.314758 0.27397 0.823878 0.245434 0.242706 0.352008 0.312779 0.233713 0.209089 0.203554 0.19537 0.25198
threshold=15504.000000000002 5783.5000000000009 0.56311882165879779 45.500000000000007 137.00000000000003 0.35020508481763629 0.59545745747364787 0.078632294309532461 159535.00000000003 314400.00000000006 0.000127251748617421 838531.00000000012 707294.00000000012 772.00000000000011 0.12322901006787847 6.5000000000000009 20.030104166666664 4351.0000000000009 93076.000000000015 1.0000000180025095e-35 1.5000000000000002 5.0488133764832801 246.50000000000003 0.81819227299469188 7.0104444381416995 23680.000000000004 1.917685660569038 56545.000000000007 79.500000000000014 2.9733779192780873e-05
decision_type=2 2 2 2 2 2 2 2 2 2 2 2 2 2 2 2 2 2 2 2 2 2 2 2 2 2 2 2 2 2
left_child=1 3 6 4 13 15 7 14 16 -8 27 22 -11 19 -2 17 25 28 21 -1 -21 -13 23 24 -4 -9 -27 -3 29 -6
right_child=2 10 11 -5 5 -7 9 8 -10 12 -12 18 -14 -15 -16 -17 -18 -19 -20 20 -22 -23 -24 -25 -26 26 -28 -29 -30 -31
leaf_value=-0.25035690536499011 0.15332383308029202 0.0091354337100980846 0.034646503063202161 -0.045148052219390424 -0.0036799542770385332 -0.070816351352691251 -0.027167689393997566 -0.0088789929866791798 0.048224052616119555 0.092298820062637441 -0.044124119665146115 0.10871819648361232 -0.026127177385330214 0.0068901153545379403 -0.027177347263335962 -0.13532785132980329 -0.0072954330368041557 0.011505862689972092 -0.041377447656631365 -0.27659031606388068 -0.26662094865989661 -0.021945769737243739 -0.063073430887222059 -0.018473482707977596 -0.070377167001724319 0.013293013525009556 -0.0071052715206146649 0.066484467981338821 -0.03290857289886482 -0.051573183441162129
leaf_weight=3787 9907 606 475 907 781 1739 318 173 1337 733 184 760 197 186 106 227 451 597 98 2261 1710 115 169 291 117 1248 70 771 524 142
leaf_count=3787 9907 606 475 907 781 1739 318 173 1337 733 184 760 197 186 106 227 451 597 98 2261 1710 115 169 291 117 1248 70 771 524 142
internal_value=0 -0.00376588 0.00321454 -0.00455025 -0.00484723 -0.00316313 0.00356954 0.00382788 0.00231337 0.000818096 0.00269654 0.000665524 0.00233704 -0.00569734 0.00432384 -0.00166895 0.00097116 -0.00120394 0.00258831 -0.00583902 -0.00525869 0.00319023 -0.00111287 -0.000448367 0.000951484 0.00174706 0.00220066 0.00352261 -0.0020772 -0.00120169
internal_weight=0 14422 16565 12861 11954 4010 14540 13292 3279 1248 1561 2025 930 7944 10013 2271 1942 2044 973 7758 3971 875 1052 883 592 1491 1318 1377 1447 923
internal_count=30987 14422 16565 12861 11954 4010 14540 13292 3279 1248 1561 2025 930 7944 10013 2271 1942 2044 973 7758 3971 875 1052 883 592 1491 1318 1377 1447 923
is_linear=0
shrinkage=0.1


Tree=6
num_leaves=31
num_cat=0
split_feature=1 69 1 78 67 42 1 76 1 76 16 40 1 65 46 67 42 65 69 69 46 67 65 1 46 69 46 4 65 41
split_gain=34.4617 6.89411 1.91426 1.75821 1.4396 1.24016 0.783546 0.776176 0.734021 0.705075 0.640054 0.625543 0.620618 0.660746 0.49972 0.49443 0.448266 0.488918 0.301867 0.765788 0.272814 0.27016 0.254051 0.644903 0.259618 0.238109 0.213748 0.265082 0.212791 0.204676
threshold=18100.000000000004 4032.5000000000005 4097.0000000000009 36.500000000000007 0.71043743054951536 0.084337066315327197 73.000000000000014 0.0010959056896720021 226428.00000000003 0.12322901006787847 343.00000000000006 234.50000000000003 342336.00000000006 153128.50000000003 0.104602697426429 3.2349020194637697 0.29493147867911612 23.500000000000004 1.5000000000000002 1.0000000180025095e-35 0.54731328890100428 0.095101564545103004 18.500000000000004 127220.00000000001 5.0488133764832801 64178.000000000007 0.04934722222222223 0.48589103139585599 89.500000000000014 18.675900021114881
decision_type=2 2 2 2 2 2 2 2 2 2 2 2 2 2 2 2 2 2 2 2 2 2 2 2 2 2 2 2 2 2
left_child=1 2 3 6 5 9 10 25 14 22 18 21 28 15 29 -14 17 26 19 -1 -10 -8 24 -24 -2 -3 27 -4 -6 -7
right_child=4 7 16 -5 12 8 11 -9 20 -11 -12 -13 13 -15 -16 -17 -18 -19 -20 -21 -22 -23 23 -25 -26 -27 -28 -29 -30 -31
leaf_value=-0.23916913810729953 0.14446937793388379 0.0079838880960465992 0.028318647547149568 -0.040414664844131212 0.014695112644577081 0.013463043717384339 -0.014714723459625035 -0.053712947685051304 0.043645908142470803 -0.046504075351333544 0.0037932222747805613 -0.068608170187378192 0.096670435669327051 -0.022067592085456767 -0.01057382355194072 -0.039578844741058467 -0.025019162933730854 -0.089982781553649721 -0.24799661166744225 -0.24893128445749257 -0.0002466001163483611 -0.14767553094139174 -0.023036824986076357 0.11229817236557019 -0.02171178573551167 0.062510123966407968 -0.012736245374298251 -0.019796701268768403 -0.029305680986976414 -0.00037530670623766584
leaf_weight=3676 9179 784 680 924 175 1038 1091 144 1300 145 188 1533 1039 353 516 157 570 137 1610 2261 184 186 194 910 95 736 236 91 394 461
leaf_count=3676 9179 784 680 924 175 1038 1091 144 1300 145 188 1533 1039 353 516 157 570 137 1610 2261 184 186 194 910 95 736 236 91 394 461
internal_value=0 -0.00352246 -0.00428804 -0.00475388 0.00315309 0.00352014 -0.00512039 0.00254281 0.00188922 0.00406244 -0.00563994 -0.00369022 0.000723065 0.00176054 0.000646252 0.0028826 -0.00117094 -2.94079e-05 -0.00578352 -0.00545417 0.00357695 -0.00205547 0.0041592 0.00272518 0.0043299 0.00320757 0.000733111 0.00153917 -0.00210129 0.0015702
internal_weight=0 14847 13183 11469 16140 14022 10545 1664 3499 10523 7735 2810 2118 1549 2015 1196 1714 1144 7547 5937 1484 1277 10378 1104 9274 1520 1007 771 569 1499
internal_count=30987 14847 13183 11469 16140 14022 10545 1664 3499 10523 7735 2810 2118 1549 2015 1196 1714 1144 7547 5937 1484 1277 10378 1104 9274 1520 1007 771 569 1499
is_linear=0
shrinkage=0.1


Tree=7
num_leaves=31
num_cat=0
split_feature=1 69 1 78 65 42 1 46 76 1 16 42 1 76 65 44 42 65 1 65 65 69 69 41 44 69 44 4 4 22
split_gain=30.9384 6.35998 1.86804 1.61589 1.38671 1.16544 0.966416 0.885492 0.774121 0.651325 0.643184 0.615035 0.576568 0.531042 0.461268 0.402729 0.394727 0.454986 0.341758 0.630889 0.327947 0.310125 0.845207 0.279241 0.275034 0.221518 0.212248 0.208276 0.203092 0.192885
threshold=18100.000000000004 3403.5000000000005 4097.0000000000009 28.500000000000004 2664.0000000000005 0.10988000000000002 43.500000000000007 3.4837069261150879 0.00054504331102119918 342336.00000000006 343.00000000000006 0.1332916666666667 159535.00000000003 0.098944899419729213 320428.00000000006 2388.0000000000005 0.29493147867911612 162.50000000000003 111865.00000000001 1.5000000000000002 5.5000000000000009 1.0000000180025095e-35 1.5000000000000002 48.840820312500014 146893.50000000003 77767.500000000015 314138.50000000006 0.26287044158840872 0.51085934976506631 0.99984753066374477
decision_type=2 2 2 2 2 2 2 2 2 2 2 2 2 2 2 2 2 2 2 2 2 2 2 2 2 2 2 2 2 2
left_child=1 2 3 6 5 7 10 13 25 -6 21 20 15 18 24 -7 17 -4 19 28 27 29 -23 26 -11 -3 -14 -8 -2 -1
right_child=4 8 16 -5 9 12 11 -9 -10 14 -12 -13 23 -15 -16 -17 -18 -19 -20 -21 -22 22 -24 -25 -26 -27 -28 -29 -30 -31
leaf_value=-0.26943589815521207 0.060829935257682877 0.0089875622747232608 0.0062709588044739919 -0.036369765132178954 -0.025996136657657945 0.0068224825497626542 -0.0083224468000029361 -0.019528879899101171 -0.046415562103862842 0.073401894489440886 0.003413900047302576 -0.05262586244964567 0.039037056540260552 -0.026774919044532552 -0.019806726994266555 -0.011591823943252422 -0.022517246640357771 -0.086398035674438489 0.16092816371227273 -0.017150723258914979 -0.17615372102657362 -0.22403815601174346 -0.23036238247701635 -0.0087210388195416051 -0.028016701577987746 0.06110644738519682 -0.0021960252773666868 -0.057534568379745112 0.0052339651038742835 0.99543580834007273
leaf_weight=2544 2441 874 1027 932 390 1507 1028 333 174 798 188 2625 1213 140 370 410 570 117 7746 255 151 2261 1548 107 126 678 116 107 188 23
leaf_count=2544 2441 874 1027 932 390 1507 1028 333 174 798 188 2625 1213 140 370 410 570 117 7746 255 151 2261 1548 107 126 678 116 107 188 23
internal_value=0 -0.00333154 -0.00408221 -0.00454473 0.00299356 0.00330993 -0.00489975 0.00380335 0.00237498 0.00027779 -0.00564117 -0.00365539 0.00167603 0.00396038 0.00135746 0.000541084 -0.00100405 6.71374e-05 0.00404097 0.00311171 -0.00186375 -0.00581114 -0.00523861 0.00319113 0.00255221 0.00308409 0.00358681 -0.00128128 0.00357235 -0.00666069
internal_weight=0 14847 13121 11407 16140 14456 10475 11103 1726 1684 6564 3911 3353 10770 1294 1917 1714 1144 10630 2884 1286 6376 3809 1436 924 1552 1329 1135 2629 2567
internal_count=30987 14847 13121 11407 16140 14456 10475 11103 1726 1684 6564 3911 3353 10770 1294 1917 1714 1144 10630 2884 1286 6376 3809 1436 924 1552 1329 1135 2629 2567
is_linear=0
shrinkage=0.1


Tree=8
num_leaves=31
num_cat=0
split_feature=1 69 1 78 46 1 67 76 1 16 42 1 42 65 1 65 40 65 44 65 1 69 69 19 41 41 76 4 40 41
split_gain=28.444 5.93464 2.18528 1.53424 1.42881 1.08397 0.892886 0.756748 0.753517 0.626616 0.598053 0.544003 0.540686 0.523522 0.506222 0.442672 0.420541 0.630714 0.387804 0.359596 0.314851 0.299604 0.731204 0.300513 0.285388 0.266461 0.262726 0.260322 0.237989 0.278691
threshold=23680.000000000004 2736.5000000000005 4097.0000000000009 20.500000000000004 0.4294588521617419 38.500000000000007 0.44597909514597767 0.0022276053968698071 192908.00000000003 7515.5000000000009 0.048424000000000009 342336.00000000006 0.068260504594773078 397098.00000000006 1153732.0000000002 2.5000000000000004 571.00000000000011 23.500000000000004 151666.50000000003 5.5000000000000009 150947.00000000003 1.5000000000000002 1.0000000180025095e-35 1.0000000180025095e-35 8.5000000000000018 20.030104166666664 0.055295664404084878 0.48990699170747604 1007.5000000000001 4.5000000000000009
decision_type=2 2 2 2 2 2 2 2 2 2 2 2 2 2 2 2 2 2 2 2 2 2 2 2 2 2 2 2 2 2
left_child=1 2 3 5 6 9 8 -3 10 21 15 -8 19 -13 18 -2 17 27 20 -7 -6 22 23 -1 -18 -12 -10 -4 29 -14
right_child=4 7 16 -5 14 12 11 -9 26 -11 25 13 28 -15 -16 -17 24 -19 -20 -21 -22 -23 -24 -25 -26 -27 -28 -29 -30 -31
leaf_value=-0.24292909117660494 0.063782891324504834 0.018807353938486315 0.025162192405151274 -0.032353416975894687 -0.0095469750831682632 -0.0090593568344345954 -0.018695356629129734 -0.048420184463269678 0.13857047002170939 0.035635382736778354 0.0097350678723049817 0.074182191902297842 -0.018176267180786354 -0.017961031759515578 0.078700706677001631 -0.014247473864313421 -0.0054797731474341312 -0.064731596806549163 -0.025639831928969771 -0.15941522899746374 0.042821455505832877 -0.21056682492389492 -0.20163434041056905 0.89589222750606545 -0.029353455483032323 -0.0048874944530442836 -0.015618422692142531 -0.017182402399612329 -0.066464273540268334 -0.042799391469573678
leaf_weight=2522 2725 1631 827 944 504 1030 358 143 7539 132 1362 699 726 234 782 183 483 172 488 153 433 1502 2261 41 440 412 98 115 791 1257
leaf_count=2522 2725 1631 827 944 504 1030 358 143 7539 132 1362 699 726 234 782 183 483 172 488 153 433 1502 2261 41 440 412 98 115 791 1257
internal_value=0 -0.00314947 -0.00386924 -0.0044101 0.00291134 -0.00476 0.00329408 0.00228573 0.00355628 -0.00555857 0.00255742 0.000792039 -0.00345669 0.0020636 0.000551116 0.00344017 -0.000853174 0.000454703 -0.000570812 -0.0016667 0.000619713 -0.00570086 -0.00531685 -0.0064732 -0.00243169 0.0011104 0.00416865 0.00147145 -0.00422005 -0.00363505
internal_weight=0 15170 13396 11359 15817 10415 13610 1774 12319 6458 4682 1291 3957 933 2207 2908 2037 1114 1425 1183 937 6326 4824 2563 923 1774 7637 942 2774 1983
internal_count=30987 15170 13396 11359 15817 10415 13610 1774 12319 6458 4682 1291 3957 933 2207 2908 2037 1114 1425 1183 937 6326 4824 2563 923 1774 7637 942 2774 1983
is_linear=0
shrinkage=0.1


Tree=9
num_leaves=31
num_cat=0
split_feature=1 69 1 65 42 78 1 44 65 42 76 16 46 75 76 65 4 108 1 1 46 69 69 1 41 69 1 69 41 22
split_gain=25.5172 5.92548 1.43431 1.37 1.4273 1.32143 1.7017 1.22069 0.985782 0.831003 0.743861 0.678841 0.511092 0.389839 0.363458 0.352452 0.327647 0.292388 0.280403 0.278516 0.264837 0.264006 0.695726 0.240053 0.342695 0.238343 0.236985 0.221002 0.191971 0.183484
threshold=9903.0000000000018 2191.0000000000005 342336.00000000006 2.5000000000000004 0.030370375230917204 17.000000000000004 32.500000000000007 206140.00000000003 141287.00000000003 0.37087926028473528 0.00011077786215801719 343.00000000000006 0.056796938908213031 0.01788930885529158 0.055295664404084878 6.5000000000000009 0.46386378317584182 1.0000000180025095e-35 82033.500000000015 1153732.0000000002 23.791850201963751 1.0000000180025095e-35 1.5000000000000002 1050.0000000000002 4.5000000000000009 60225.500000000007 2150.5000000000005 20503.000000000004 4.5000000000000009 0.99984753066374477
decision_type=2 2 2 2 2 2 2 2 2 2 2 2 2 2 2 2 2 2 2 2 2 2 2 2 2 2 2 2 2 2
left_child=1 5 3 4 13 6 11 8 14 15 25 21 17 16 -4 26 20 18 -6 -9 -2 29 -23 24 -11 27 -8 -3 -28 -1
right_child=2 10 7 -5 12 -7 9 19 -10 23 -12 -13 -14 -15 -16 -17 -18 -19 -20 -21 -22 22 -24 -25 -26 -27 28 -29 -30 -31
leaf_value=-0.22251820873130779 0.063402183788429059 0.010687825520955841 0.1298541090546948 -0.020483243216773774 0.002172571623766828 -0.028950228598617758 -0.024179609124013981 -0.018739315393890621 -0.0093005580539422539 -0.0078324079094542753 -0.033693335688150937 0.012403816585293015 -0.010414731578793024 -0.042868034107078762 -0.02304286277156109 -0.10682232555877641 0.0043921492158276012 -0.0067073545250547545 0.014695866890484766 0.033864689086507485 -0.14675302249112257 -0.1814709063695121 -0.19715727530504062 -0.053259944803794569 -0.04539256404747008 0.048620077101766412 0.0067858927126110309 -0.0015691433968903824 -0.012517671099472239 0.80630300475545913
leaf_weight=2452 3430 566 7838 835 969 956 1102 448 424 406 226 187 791 84 115 212 357 367 881 408 32 2261 1439 1151 798 736 692 308 493 23
leaf_count=2452 3430 566 7838 835 969 956 1102 448 424 406 226 187 791 84 115 212 357 367 881 408 32 2261 1439 1151 798 736 692 308 493 23
internal_value=0 -0.00327613 0.0024897 0.00148625 0.00194852 -0.00407491 -0.00437911 0.00333155 0.00369911 -0.00296894 0.00201951 -0.00545501 0.000311518 0.00321013 0.00394958 -0.00169877 0.00335835 0.00109012 0.00160162 -0.00026544 0.00365579 -0.00563477 -0.00509999 -0.00431679 -0.00332964 0.00277365 -0.00133719 0.00165712 -0.000355536 -0.00643424
internal_weight=0 14008 16979 7746 6911 12172 11216 9233 8377 4854 1836 6362 3008 3903 7953 2499 3819 2217 1850 856 3462 6175 3700 2355 1204 1610 2287 874 1185 2475
internal_count=30987 14008 16979 7746 6911 12172 11216 9233 8377 4854 1836 6362 3008 3903 7953 2499 3819 2217 1850 856 3462 6175 3700 2355 1204 1610 2287 874 1185 2475
is_linear=0
shrinkage=0.1


Tree=10
num_leaves=31
num_cat=0
split_feature=1 69 1 78 65 42 42 41 76 46 65 16 75 41 69 69 4 4 1 65 66 44 109 67 1 1 69 42 1 70
split_gain=22.7615 4.95253 1.99132 2.10528 1.3061 1.56846 1.07111 0.794943 0.776224 0.714015 0.701739 0.677846 0.544436 0.465537 0.395125 0.675958 0.390401 0.385478 0.347379 0.419061 0.345075 0.314137 0.312043 0.295778 0.289155 0.273504 0.250014 0.240732 0.22795 0.218164
threshold=23680.000000000004 1812.5000000000002 19.500000000000004 13.000000000000002 4998.0000000000009 0.078632294309532461 0.15409211937329653 20.001464843750011 0.0022276053968698071 2.9994572025052197 1.5000000000000002 66.500000000000014 0.14841055949439058 16.011904761904766 1.0000000180025095e-35 1.5000000000000002 1.1990260494215155 0.086640766860352644 127220.00000000001 1.5000000000000002 27.208496093750011 97152.000000000015 0.1259081686105232 0.18638311785868758 82033.500000000015 2984.5000000000005 77767.500000000015 0.0098973257854888929 78364.500000000015 14.000000000000002
decision_type=2 2 2 2 2 2 2 2 2 2 2 2 2 2 2 2 2 2 2 2 2 2 2 2 2 2 2 2 2 2
left_child=1 2 3 11 5 9 10 22 26 12 17 14 16 -8 -1 -16 18 25 19 -2 28 -20 24 -22 -7 -4 29 -27 -6 -3
right_child=4 8 6 -5 20 7 13 -9 -10 -11 -12 -13 -14 -15 15 -17 -18 -19 21 -21 23 -23 -24 -25 -26 27 -28 -29 -30 -31
leaf_value=-0.2355310706279525 0.04457264656192983 0.01582224430095245 -0.0093186722386352731 -0.025580848133775549 -0.027375574437660435 0.0028984780899705244 -0.022950596850031247 -0.0067607904283772061 -0.043007233956458536 -0.017138166235717379 -0.073795008245007315 0.0024319382526627464 -0.011843955964544151 -0.049089231390309608 -0.16332381573256091 -0.18149218406604053 -0.021620262116887903 -0.027811071714421945 0.13730059817363946 -0.012017562928528137 0.071984241402800117 0.028664886503717568 -0.0036965234996703348 -0.02963554569076763 0.018295287434489185 0.022756230629223141 0.048410034335132225 -0.0084526432797165547 0.01644653121298063 0.0025650054932743419
leaf_weight=2036 2333 341 881 967 61 581 2376 1119 163 348 351 207 287 1334 2261 1389 103 279 6892 266 89 621 314 574 1436 846 685 359 793 695
leaf_count=2036 2333 341 881 967 61 581 2376 1119 163 348 351 207 287 1334 2261 1389 103 279 6892 266 89 621 314 574 1436 846 685 359 793 695
internal_value=0 -0.00291569 -0.00359609 -0.00478099 0.002506 0.00280197 -0.00233117 0.000944711 0.0018825 0.00339253 -0.000822238 -0.00549063 0.0035402 -0.00343582 -0.00569527 -0.00507267 0.00366089 -0.000202995 0.00372328 0.00272676 -0.000283984 0.00406801 0.00199644 -0.00199572 0.00245294 0.000263911 0.00250718 0.00124299 0.00104491 0.00152711
internal_weight=0 15170 13286 6860 15817 14300 6426 3450 1884 10850 2716 5893 10502 3710 5686 3650 10215 2365 10112 2599 1517 7513 2331 663 2017 2086 1721 1205 854 1036
internal_count=30987 15170 13286 6860 15817 14300 6426 3450 1884 10850 2716 5893 10502 3710 5686 3650 10215 2365 10112 2599 1517 7513 2331 663 2017 2086 1721 1205 854 1036
is_linear=0
shrinkage=0.1


Tree=11
num_leaves=31
num_cat=0
split_feature=1 69 46 68 11 1 42 76 1 67 65 42 42 69 69 41 4 4 41 1 23 65 75 65 42 40 44 41 69 66
split_gain=20.7195 5.08978 1.41628 1.41013 1.59168 1.03726 0.850484 0.823337 0.794948 0.760874 0.74258 0.53927 0.453839 0.449717 0.470376 0.430184 0.353826 0.352717 0.329367 0.293671 0.280871 0.273219 0.267055 0.263134 0.297617 0.261273 0.259532 0.243657 0.239781 0.236794
threshold=9903.0000000000018 1362.0000000000002 0.20478380266652893 1.0000000180025095e-35 1.0000000180025095e-35 91100.000000000015 0.37087926028473528 0.0022276053968698071 1153732.0000000002 0.061129746656886537 48890.000000000007 0.015010002590353514 0.048424000000000009 1.5000000000000002 1.0000000180025095e-35 20.001464843750011 0.63216666666666688 0.086640766860352644 16.011904761904766 1050.0000000000002 1.0000000180025095e-35 130.50000000000003 0.036725637983084619 258.50000000000006 0.54894570178518387 18.500000000000004 1387.0000000000002 18.675900021114881 77767.500000000015 20.743164062500004
decision_type=2 2 2 2 2 2 2 2 2 2 2 2 2 2 2 2 2 2 2 2 2 2 2 2 2 2 2 2 2 2
left_child=1 3 5 4 6 9 20 28 23 11 12 17 16 14 -5 -14 22 26 19 25 21 -1 -7 24 -4 -8 -2 -13 -3 -12
right_child=2 7 8 13 -6 10 18 -9 -10 -11 29 27 15 -15 -16 -17 -18 -19 -20 -21 -22 -23 -24 -25 -26 -27 -28 -29 -30 -31
leaf_value=-0.017134084239404858 0.051560017959118909 0.0063178813994827724 0.0027782683588490897 -0.24085627090768646 -0.21500854980783296 0.12920999605891234 -0.064724791485019043 -0.039971502321067123 0.058656203533835341 -0.022458560093846461 0.012290411177633232 0.0053897844128609762 0.017518233666626061 -0.17208691936427042 -0.14699143415930482 -0.00056346354070200275 0.010871411159009981 -0.0047022793702410585 -0.057350359825985825 -0.040132621183456507 -0.15563107025461032 -0.09003430759950426 0.0045716573965741249 -0.042464968040139085 -0.015396655950757676 -0.01246055884952142 0.0026474253627682743 -0.0077216847446536013 0.043569030901619149 -0.01596661545030429
leaf_weight=3884 1796 1096 1421 432 820 6455 199 181 1069 318 325 1116 1172 1314 2261 617 497 250 1183 670 151 148 196 315 387 984 256 508 685 281
leaf_count=3884 1796 1096 1421 432 820 6455 199 181 1069 318 325 1116 1172 1314 2261 617 497 250 1183 670 151 148 196 315 387 984 256 508 685 281
internal_value=0 -0.00302196 0.00217364 -0.00379125 -0.00302738 0.0026131 -0.00255315 0.00170121 0.000275524 0.00131244 0.00319153 0.00169351 0.00342123 -0.00532374 -0.00458373 0.0019968 0.00377774 0.0026779 -0.0038272 -0.00299497 -0.00162845 -0.00146987 0.00397007 -0.000844305 -0.000379608 -0.00204756 0.00310996 0.000298144 0.00235426 -0.000196044
internal_weight=0 14008 16979 12046 8039 13787 7219 1962 3192 4244 9543 3926 8937 4007 2693 1789 7148 2302 3036 1853 4183 4032 6651 2123 1808 1183 2052 1624 1781 606
internal_count=30987 14008 16979 12046 8039 13787 7219 1962 3192 4244 9543 3926 8937 4007 2693 1789 7148 2302 3036 1853 4183 4032 6651 2123 1808 1183 2052 1624 1781 606
is_linear=0
shrinkage=0.1


Tree=12
num_leaves=31
num_cat=0
split_feature=1 69 1 65 68 11 46 65 76 42 42 44 4 69 69 1 5 40 41 76 41 40 46 1 69 65 23 44 70 108
split_gain=19.0392 4.89115 1.48708 1.4044 1.28531 1.60178 1.09212 0.847611 0.833125 0.695498 0.616171 0.52365 0.403908 0.380361 0.470376 0.348989 0.366476 0.343259 0.310065 0.300586 0.273734 0.271675 0.26067 0.259574 0.257363 0.255883 0.274409 0.253652 0.244771 0.244562
threshold=6792.5000000000009 1088.5000000000002 876502.00000000012 578.50000000000011 1.0000000180025095e-35 1.0000000180025095e-35 0.051561456775356986 85807.000000000015 0.0026536302971239276 0.54730837688769018 0.37087926028473528 502525.50000000006 0.37036691552104151 1.5000000000000002 1.0000000180025095e-35 1050.0000000000002 0.28105870032987729 82559.000000000015 25.991210937500007 0.66899688699131588 29.786132812500011 14.500000000000002 104.723850523945 250.00000000000003 427.50000000000006 5.5000000000000009 1.0000000180025095e-35 26.500000000000004 58.991210937500007 1.0000000180025095e-35
decision_type=2 2 2 2 2 2 2 2 2 2 2 2 2 2 2 2 2 2 2 2 2 2 2 2 2 2 2 2 2 2
left_child=1 4 3 6 5 10 9 11 28 12 25 19 -2 14 -6 16 21 -11 22 -4 29 -12 -8 -18 -15 26 -1 -23 -3 -19
right_child=2 8 7 -5 13 -7 18 -9 -10 17 15 -13 -14 24 -16 -17 23 20 -20 -21 -22 27 -24 -25 -26 -27 -28 -29 -30 -31
leaf_value=-0.017584183433177004 0.041940215975470707 0.013251053958386905 0.11926884722206417 -0.020553095432752147 -0.21677064381691782 -0.19350769482704974 0.0029316052293143716 -0.010388498111049672 -0.037509438764703876 -0.0034228296375331982 -0.073584097697905193 -0.0070773560349341128 0.00088993520189646353 -0.19211711140001136 -0.13229229074337426 -0.045141401113895085 -0.051156195316864134 0.014270818258008688 -0.014692888580087528 -0.071625917255283875 -0.0056549255095383446 -0.0030400267743058151 -0.3765353401304406 -0.020561131573729342 -0.028592865184191043 -0.090909102717886728 -0.14006796322914924 -0.13570604117856427 -0.025557426326726331 -0.0036757441527569771
leaf_weight=3534 5232 1766 5822 876 432 820 1702 480 180 947 142 309 544 1000 2261 956 607 655 441 61 201 786 42 225 264 194 151 125 66 166
leaf_count=3534 5232 1766 5822 876 432 820 1702 480 180 947 142 309 544 1000 2261 956 607 655 441 61 201 786 42 225 264 194 151 125 66 166
internal_value=0 -0.00299988 0.00199881 0.00127402 -0.00379589 -0.00302992 0.00161262 0.0031727 0.00154866 0.00216965 -0.00252078 0.00348651 0.00272293 -0.00525542 -0.00458373 -0.00363968 -0.00285038 0.000546612 -0.000361831 0.00369727 0.00181759 -0.00161097 0.000237197 -0.004419 -0.00668649 -0.00170129 -0.00151494 -0.000976812 0.0021865 0.00262737
internal_weight=0 13509 17478 10806 11497 7540 9930 6672 2012 7745 6720 6192 5776 3957 2693 2841 1885 1969 2185 5883 1022 1053 1744 832 1264 3879 3685 911 1832 821
internal_count=30987 13509 17478 10806 11497 7540 9930 6672 2012 7745 6720 6192 5776 3957 2693 2841 1885 1969 2185 5883 1022 1053 1744 832 1264 3879 3685 911 1832 821
is_linear=0
shrinkage=0.1


Tree=13
num_leaves=31
num_cat=0
split_feature=1 69 68 11 46 1 65 42 76 67 1 42 4 4 1 40 69 69 42 41 69 75 41 69 41 23 65 66 76 69
split_gain=17.3345 4.39235 1.42233 1.72327 1.38047 1.31324 0.767951 0.743732 0.743552 0.681498 0.645401 0.586608 0.360056 0.358538 0.33986 0.393192 0.336702 0.470376 0.334696 0.330342 0.320222 0.309709 0.302821 0.263511 0.261214 0.255132 0.271582 0.2524 0.245711 0.223393
threshold=6792.5000000000009 1088.5000000000002 1.0000000180025095e-35 1.0000000180025095e-35 0.20478380266652893 342336.00000000006 1.5000000000000002 0.015010002590353514 0.0026536302971239276 0.22499563915470908 1153732.0000000002 0.42395739753442935 0.14469328054513572 0.63216666666666688 1050.0000000000002 19.500000000000004 1.5000000000000002 1.0000000180025095e-35 0.037849864465253825 25.991210937500007 376.00000000000006 0.051805311119483444 4.5000000000000009 60225.500000000007 18.675900021114881 1.0000000180025095e-35 63.500000000000007 31.494140625000025 8.4329617463843373e-05 20503.000000000004
decision_type=2 2 2 2 2 2 2 2 2 2 2 2 2 2 2 2 2 2 2 2 2 2 2 2 2 2 2 2 2 2
left_child=1 2 3 11 5 6 7 12 23 13 -6 25 28 18 15 -13 17 -4 21 -20 -18 -7 -17 29 -9 26 -1 -11 -2 -3
right_child=4 8 16 -5 10 9 -8 24 -10 27 -12 14 -14 -15 -16 22 20 -19 19 -21 -22 -23 -24 -25 -26 -27 -28 -29 -30 -31
leaf_value=-0.016738381936486493 0.046778260466928859 0.0073898640452144454 -0.19509357943522598 -0.17415692534434479 -0.0081849157803127078 0.13961877856641181 -0.014131487706282543 0.006466761140569233 -0.033758494888233417 0.022307801013359808 0.042867116060850564 -0.072805468506727963 -0.00058296176214547304 0.0033675247862348101 -0.043095560868228237 -0.00091198801907239619 -0.17932915972045951 -0.11906306166903687 0.018450325522461952 -0.0071119333129516351 -0.026948082907715332 5.8676449155470323e-05 -0.024454835175358625 0.032882711807708277 -0.0039619735795987767 -0.12606116690623423 -0.086391537630424162 -0.021408153349540271 -0.032642969028043471 -0.0036523409004949772
leaf_weight=3701 2965 728 432 820 2199 4714 684 1741 180 763 1069 331 436 334 908 528 959 2261 688 244 305 177 973 761 1172 151 128 246 46 343
leaf_count=3701 2965 728 432 820 2199 4714 684 1741 180 763 1069 331 436 334 908 528 959 2261 688 244 305 177 973 761 1172 151 128 246 46 343
internal_value=0 -0.00292601 -0.00368034 -0.00287458 0.00184366 0.00226986 0.00130023 0.00164265 0.00138436 0.00322297 -9.54706e-06 -0.00234648 0.00263675 0.00361775 -0.00347253 -0.00268846 -0.0052157 -0.00458373 0.00380051 0.00206374 -0.00656213 0.00413146 -0.0020005 0.00198694 0.000466317 -0.00157127 -0.00141227 0.000813995 0.00302566 0.000975979
internal_weight=0 13509 11497 7540 17478 14210 7044 6360 2012 7166 3268 6720 3447 6157 2740 1832 3957 2693 5823 932 1264 4891 1501 1832 2913 3980 3829 1009 3011 1071
internal_count=30987 13509 11497 7540 17478 14210 7044 6360 2012 7166 3268 6720 3447 6157 2740 1832 3957 2693 5823 932 1264 4891 1501 1832 2913 3980 3829 1009 3011 1071
is_linear=0
shrinkage=0.1


Tree=14
num_leaves=31
num_cat=0
split_feature=1 69 1 78 44 1 65 16 65 42 65 76 109 41 41 69 69 69 4 1 4 44 76 75 40 70 3 65 72 1
split_gain=16.1384 3.34203 2.74533 2.02866 1.15586 1.00616 0.77351 0.757148 0.683771 0.666947 0.722317 0.646807 0.610271 0.540573 0.436955 0.402757 0.458966 0.418312 0.356132 0.294568 0.287942 0.287359 0.28429 0.278517 0.272116 0.265827 0.262357 0.240782 0.224973 0.196172
threshold=27168.000000000004 1205.5000000000002 19.500000000000004 8.5000000000000018 114768.00000000001 566558.50000000012 28.500000000000004 17.500000000000004 4998.0000000000009 0.068260504594773078 1.5000000000000002 0.0026536302971239276 0.030084880239016776 20.001464843750011 17.53789645522388 1.0000000180025095e-35 1.5000000000000002 363.00000000000006 0.08199873163009376 1153732.0000000002 0.40258302944332508 48.500000000000007 0.055295664404084878 0.0015799130067403165 794784.00000000012 20.174587673611118 0.28673603021002303 900866.00000000012 1.0000000180025095e-35 139576.50000000003
decision_type=2 2 2 2 2 2 2 2 2 2 2 2 2 2 2 2 2 2 2 2 2 2 2 2 2 2 2 2 2 2
left_child=1 2 3 7 5 6 12 15 20 10 18 25 14 21 23 -1 -17 -18 28 -6 22 -11 24 29 -7 -3 -16 -10 -4 -2
right_child=4 11 9 -5 19 8 -8 -9 27 13 -12 -13 -14 -15 26 16 17 -19 -20 -21 -22 -23 -24 -25 -26 -27 -28 -29 -30 -31
leaf_value=-0.15703925603378721 0.020460156584240965 0.018275432617010878 0.0097762657052175694 -0.016581054963495136 -0.012392966700469899 0.115345492968412 -0.010658186403769322 0.0044288199093212915 0.025976055077781626 -0.011554271459262466 -0.047821865359557236 -0.03019406421301625 -0.0085644163577029541 -0.042368035578065392 0.030728159254692501 -0.1071567555021332 -0.1625006939742436 -0.023130799946533644 -0.019985214292328735 0.014861759184765689 0.0082959973414148177 -0.043002688585587735 -0.023620870957578435 -0.02134323151003166 -3.7044192833235456e-06 0.0032631895788334479 0.00050828819816004509 -0.016564815736754213 -0.095778871487773296 0.03687418263463265
leaf_weight=1996 2639 913 1753 985 827 5205 759 229 651 2763 392 177 408 875 682 2261 944 343 275 591 343 468 92 93 177 896 1431 212 68 1539
leaf_count=1996 2639 913 1753 985 827 5205 759 229 651 2763 392 177 408 875 682 2261 944 343 275 591 343 468 92 93 177 896 1431 212 68 1539
internal_value=0 -0.0025693 -0.00313859 -0.00455501 0.00199519 0.00226648 0.00147562 -0.00527068 0.00316047 -0.00168696 -0.000394976 0.00125811 0.00181396 -0.00246982 0.00205359 -0.00550343 -0.00486414 -0.00637165 0.000341886 -0.00072744 0.00355016 -0.00187271 0.00372628 0.0026355 0.0038205 0.00182261 0.000877375 0.000533763 0.000848435 0.00275598
internal_weight=0 15338 13352 6758 15649 14231 7551 5773 6680 6594 2488 1986 6792 4106 6384 5544 3548 1287 2096 1418 5817 3231 5474 4271 5382 1809 2113 863 1821 4178
internal_count=30987 15338 13352 6758 15649 14231 7551 5773 6680 6594 2488 1986 6792 4106 6384 5544 3548 1287 2096 1418 5817 3231 5474 4271 5382 1809 2113 863 1821 4178
is_linear=0
shrinkage=0.1


Tree=15
num_leaves=31
num_cat=0
split_feature=1 69 1 78 1 46 67 42 16 40 76 65 4 46 1 41 69 69 44 44 69 109 65 41 46 65 41 1 69 76
split_gain=14.6571 3.72042 1.78876 2.06807 1.32321 1.16385 0.778567 0.751107 0.73649 0.688251 0.680477 0.65956 0.475599 0.459202 0.380589 0.363587 0.325141 0.568627 0.315733 0.298063 0.270017 0.263746 0.258889 0.316017 0.259454 0.256125 0.255574 0.244148 0.237989 0.224152
threshold=6792.5000000000009 892.50000000000011 16.500000000000004 8.5000000000000018 1153732.0000000002 0.054003437500000008 0.057371832361864418 0.015966799322209138 17.500000000000004 1156.0000000000002 0.0020592224068515844 996000.00000000012 0.37036691552104151 0.40025324383569111 61445.000000000007 18.675900021114881 1.0000000180025095e-35 1.5000000000000002 92356.000000000015 956.50000000000011 85877.500000000015 0.030084880239016776 508.50000000000006 4.5000000000000009 8.4652766463664744 272.50000000000006 4.5000000000000009 330590.00000000006 251.00000000000003 0.52041666666666686
decision_type=2 2 2 2 2 2 2 2 2 2 2 2 2 2 2 2 2 2 2 2 2 2 2 2 2 2 2 2 2 2
left_child=1 2 3 8 5 6 7 12 16 13 20 18 14 25 19 21 -1 -18 29 -2 -3 27 23 24 -7 26 -4 -9 -19 -6
right_child=4 10 9 -5 11 22 -8 15 -10 -11 -12 -13 -14 -15 -16 -17 17 28 -20 -21 -22 -23 -24 -25 -26 -27 -28 -29 -30 -31
leaf_value=-0.1413353304304085 0.029914880308220759 0.0035863670749176181 -0.00036584621173538782 -0.014922949467145586 0.1080401389430989 0.0079831169387965424 -0.0095923677633923191 0.0068172369683644268 0.0039859379183891262 -0.034491189967493341 -0.028002491596798153 -0.017610856440910896 -0.00067829726715125111 -0.075288711060840896 0.067000731234706734 -0.0036286776925752665 -0.096441079951919848 -0.15620460025430952 0.014959650462855124 -0.018813575286674933 0.037132692286729711 -0.0036921618451621896 -0.034245469269864874 -0.0081683045862412495 -0.072133871114951384 -0.084204385411260324 -0.012781906798891641 0.019405788509990175 -0.025915713230383733 -0.062107106078913434
leaf_weight=1976 1227 1245 1693 985 4323 1326 906 1320 229 824 209 215 566 492 3062 1339 2261 869 648 218 630 288 351 1126 142 95 1681 367 320 54
leaf_count=1976 1227 1245 1693 985 4323 1326 906 1320 229 824 209 215 566 492 3062 1339 2261 869 648 218 630 288 351 1126 142 95 1681 367 320 54
internal_value=0 -0.00278091 -0.00348968 -0.00455188 0.00160497 0.00103562 0.0015846 0.00188544 -0.00528842 -0.0020157 0.00110474 0.00293468 0.00265031 -0.0014687 0.00299344 0.000714579 -0.00552287 -0.00493703 0.00316675 0.00165575 0.00170804 0.00157703 -0.000696702 -0.00035181 0.000614856 -0.00106321 -0.000919023 0.0020545 -0.0067074 0.00347174
internal_weight=0 13509 11425 6640 17478 12238 9293 8387 5655 4785 2084 5240 5073 3961 4507 3314 5426 3450 5025 1445 1875 1975 2945 2594 1468 3469 3374 1687 1189 4377
internal_count=30987 13509 11425 6640 17478 12238 9293 8387 5655 4785 2084 5240 5073 3961 4507 3314 5426 3450 5025 1445 1875 1975 2945 2594 1468 3469 3374 1687 1189 4377
is_linear=0
shrinkage=0.1


Tree=16
num_leaves=31
num_cat=0
split_feature=1 69 68 11 1 44 65 42 4 76 75 40 3 6 69 69 69 41 69 67 66 46 109 1 65 78 77 44 1 65
split_gain=13.2836 3.36981 1.951 2.10031 1.14074 1.18468 0.780578 0.876732 0.699889 0.596933 0.489496 0.438746 0.430683 0.342766 0.315264 0.470376 0.288976 0.281421 0.279513 0.275447 0.281557 0.253545 0.24832 0.240911 0.309252 0.28232 0.358063 0.253361 0.236172 0.235768
threshold=6792.5000000000009 892.50000000000011 1.0000000180025095e-35 1.0000000180025095e-35 72406.000000000015 49813.500000000007 457.50000000000006 0.015010002590353514 0.22363248860528487 8.8536432654053518e-06 0.0097151188380829399 1103.5000000000002 0.7000833333333335 0.49999843750000006 1.5000000000000002 1.0000000180025095e-35 208.50000000000003 18.675900021114881 96492.500000000015 0.061129746656886537 20.743164062500004 104.723850523945 0.030084880239016776 2150.5000000000005 272.50000000000006 8.5000000000000018 1.0000000180025095e-35 45.500000000000007 1153732.0000000002 363.00000000000006
decision_type=2 2 2 2 2 2 2 2 2 2 2 2 2 2 2 2 2 2 2 2 2 2 2 2 2 2 2 2 2 2
left_child=1 2 3 11 12 6 7 8 10 18 13 23 -2 -6 15 -4 -16 22 -3 -8 -21 28 -9 25 -25 26 27 -1 -7 -14
right_child=4 9 14 -5 5 21 19 17 -10 -11 -12 -13 29 -15 16 -17 -18 -19 -20 20 -22 -23 -24 24 -26 -27 -28 -29 -30 -31
leaf_value=-0.015281811028743597 0.0093768292752606907 0.003860877384782491 -0.14574676284528396 -0.12690377416349072 0.095014604948159234 -0.0052120989710697785 0.077153278115387997 0.011499924296349207 0.0025376415622350382 -0.020631873563196557 -0.0076396673797034971 -0.028197813364652546 -0.0040184942810071794 0.015579625751561112 -0.14389911215270673 -0.08679697195672792 -0.022249414467464847 -0.00046411389555274242 0.039793400719189624 0.011983753276488686 -0.016019678670144446 -0.41516504271615529 -0.0026694202565582972 0.0030590771326622248 -0.051232487959574517 -0.013430654520431063 -0.13038620119440303 -0.062916135469311033 0.019371993527386878 -0.027484708864961863
leaf_weight=3115 1835 1228 432 820 5742 1303 197 1109 683 299 260 920 2041 518 829 2261 363 1151 557 695 642 46 228 952 80 985 236 432 850 178
leaf_count=3115 1835 1228 432 820 5742 1303 197 1109 683 299 260 920 2041 518 829 2261 363 1151 557 695 642 46 228 952 80 985 236 432 850 178
internal_value=0 -0.00268801 -0.00336256 -0.00242454 0.00148731 0.00193127 0.00234707 0.00267884 0.00323785 0.00101002 0.00355689 -0.00184153 1.72113e-05 0.00373347 -0.00518305 -0.00458373 -0.00653706 0.00106046 0.0017027 0.000251088 -0.00026328 -0.000191192 0.00204725 -0.00151972 -0.000134421 -0.00181955 -0.0022122 -0.00196125 -3.42388e-05 -0.000920084
internal_weight=0 13509 11425 7540 17478 13424 11225 9691 7203 2084 6520 6720 4054 6260 3885 2693 1192 2488 1785 1534 1337 2199 1337 5800 1032 4768 3783 3547 2153 2219
internal_count=30987 13509 11425 7540 17478 13424 11225 9691 7203 2084 6520 6720 4054 6260 3885 2693 1192 2488 1785 1534 1337 2199 1337 5800 1032 4768 3783 3547 2153 2219
is_linear=0
shrinkage=0.1


Tree=17
num_leaves=31
num_cat=0
split_feature=1 69 1 78 1 3 16 65 41 67 40 76 75 4 69 69 69 70 65 40 46 46 44 75 1 65 1 4 39 6
split_gain=12.3827 3.15703 2.02008 2.01182 1.14437 0.990483 0.759485 0.648463 0.704321 0.61704 0.576534 0.534589 0.465771 0.35196 0.338922 0.447058 0.321055 0.305068 0.297393 0.28499 0.273633 0.269698 0.259523 0.254476 0.243187 0.240225 0.237016 0.226648 0.256093 0.221117
threshold=6066.0000000000009 892.50000000000011 11.500000000000002 6.5000000000000009 1153732.0000000002 0.20497136962654208 17.500000000000004 14.500000000000002 4.5000000000000009 0.34483966331455868 1103.5000000000002 0.0026536302971239276 0.005124377118504473 0.22363248860528487 1.0000000180025095e-35 1.5000000000000002 178.00000000000003 20.174587673611118 996000.00000000012 1213306.5000000002 0.42297741363276042 0.54731328890100428 146893.50000000003 0.0079554964559801124 268757.00000000006 272.50000000000006 82033.500000000015 0.21579685077636948 1.0000000180025095e-35 0.1221309070653068
decision_type=2 2 2 2 2 2 2 2 2 2 2 2 2 2 2 2 2 2 2 2 2 2 2 2 2 2 2 2 2 2
left_child=1 2 3 6 5 29 14 8 12 13 20 17 22 19 -1 -16 -17 -3 -11 23 25 26 24 -6 -7 27 -10 28 -4 -2
right_child=4 11 10 -5 9 7 -8 -9 21 18 -12 -13 -14 -15 15 16 -18 -19 -20 -21 -22 -23 -24 -25 -26 -27 -28 -29 -30 -31
leaf_value=-0.11540033980134085 0.037698536883651462 0.014634148294136652 0.015760018074101722 -0.012009769244169279 0.10293257804709342 0.011295808233466787 0.0069618174974404928 -0.014053125905791931 -0.0057958661342386369 0.0264169261975713 -0.028088204258720141 -0.025556028046039361 -0.034275340971106162 -0.002804397530286096 -0.078117274761055108 -0.13247617710320761 -0.020024473020718327 0.00054180290830210256 -0.017627904423998333 -0.052410163659836334 -0.061605857138154363 -0.015097944234431539 -0.0046697157336510033 4.734530785768243e-05 0.047006755847700893 -0.084683504147692198 0.003921603505202498 -0.036646502751835189 -0.0075145390300264125 0.0064846407666323104
leaf_weight=1868 2511 956 514 999 3559 2220 229 1373 1488 970 834 199 196 259 2261 801 388 929 198 61 496 365 330 193 1181 89 2123 189 2706 502
leaf_count=1868 2511 956 514 999 3559 2220 229 1373 1488 970 834 199 196 259 2261 801 388 929 198 61 496 365 330 193 1181 89 2123 189 2706 502
internal_value=0 -0.00263204 -0.00328765 -0.00443217 0.00140095 0.000873343 -0.00517614 0.00036168 0.000710179 0.00263832 -0.00173586 0.00094609 0.00166009 0.00321949 -0.00541896 -0.00483153 -0.00640129 0.00146648 0.000612158 0.0034618 -0.00123651 -0.000228024 0.0019097 0.00357203 0.0021695 -0.000924825 3.38234e-05 -0.000790925 -0.00059338 0.00244858
internal_weight=0 13458 11374 6546 17529 12289 5547 9276 7903 5240 4828 2084 3927 4072 5318 3450 1189 1885 1168 3813 3994 3976 3731 3752 3401 3498 3611 3409 3220 3013
internal_count=30987 13458 11374 6546 17529 12289 5547 9276 7903 5240 4828 2084 3927 4072 5318 3450 1189 1885 1168 3813 3994 3976 3731 3752 3401 3498 3611 3409 3220 3013
is_linear=0
shrinkage=0.1


Tree=18
num_leaves=31
num_cat=0
split_feature=1 69 68 11 42 67 4 76 1 41 76 1 40 69 69 69 65 69 44 6 6 44 44 1 109 3 66 1 70 3
split_gain=11.1707 2.88006 1.95939 2.27156 1.16412 1.76951 0.742203 0.728899 0.672051 0.495342 0.473604 0.416569 0.33443 0.320714 0.331195 0.363388 0.289834 0.280787 0.27176 0.295562 0.262042 0.234448 0.217025 0.209935 0.228028 0.218607 0.204094 0.194045 0.190016 0.184892
threshold=4097.0000000000009 892.50000000000011 1.0000000180025095e-35 1.0000000180025095e-35 0.016939961061830114 0.22078865116963367 0.21579685077636948 6.7900344373734887e-06 144736.50000000003 24.695800781250011 0.0053087217205772478 3449506.5000000005 934.50000000000011 1.0000000180025095e-35 1.5000000000000002 126.50000000000001 258.50000000000006 85877.500000000015 956.50000000000011 0.27227047380555564 0.46903667846653591 199.50000000000003 46906.000000000007 82033.500000000015 0.030084880239016776 0.68166991854619485 31.494140625000025 2778.5000000000005 31.494140625000025 0.0012478695806924123
decision_type=2 2 2 2 2 2 2 2 2 2 2 2 2 2 2 2 2 2 2 2 2 2 2 2 2 2 2 2 2 2
left_child=1 2 3 12 5 6 7 8 18 23 17 16 21 -4 -15 -16 -7 -3 19 -2 22 27 -10 25 -25 -6 -13 -1 -19 -8
right_child=4 10 13 -5 9 11 29 -9 20 -11 -12 26 -14 14 15 -17 -18 28 -20 -21 -22 -23 -24 24 -26 -27 -28 -29 -30 -31
leaf_value=-0.015140789550094525 0.031583083125527982 0.0020054327077279055 -0.11963205258062147 -0.10267336276700761 0.0074508033189751195 0.0031121010385838591 0.016452666409484708 -0.018461303987888301 0.096293101482192972 -0.0098502008862187303 -0.027676558660090934 0.041228903229487204 -0.024007018184239115 -0.07030554728494956 -0.12740336026568963 -0.018627799644427689 -0.017885851948690145 0.05959445477819969 -0.002076523002378039 -0.0087390838890375033 0.018605339016859547 -0.045837691611751198 0.02120668062581892 0.0069962534310043624 -0.0061957391824577716 -0.0060335606934120989 -0.0070968307316242379 0.0057576518939146844 0.0058028719946239711 -0.010284577894444881
leaf_weight=4790 2074 1270 432 820 586 885 314 366 4539 1237 184 542 895 2261 731 461 1296 403 537 315 436 312 614 1904 307 1065 252 347 227 585
leaf_count=4790 2074 1270 432 820 586 885 314 366 4539 1237 184 542 895 2261 731 461 1296 403 537 315 436 312 614 1904 307 1065 252 347 227 585
internal_value=0 -0.00258702 -0.00323017 -0.00224951 0.00125518 0.00176572 0.00241535 0.00269251 0.00288034 -2.19274e-05 0.000822797 -0.000369839 -0.00160932 -0.00503851 -0.00471714 -0.00606597 -0.00108381 0.00129192 0.00165251 0.00210942 0.00352314 -0.00131506 0.00372232 0.000535886 0.001173 -0.000317326 0.00159134 -0.00115341 0.00301793 -0.000322713
internal_weight=0 13133 11049 7164 17854 12755 9780 8881 8515 5099 2084 2975 6344 3885 3453 1192 2181 1900 2926 2389 5589 5449 5153 3862 2211 1651 794 5137 630 899
internal_count=30987 13133 11049 7164 17854 12755 9780 8881 8515 5099 2084 2975 6344 3885 3453 1192 2181 1900 2926 2389 5589 5449 5153 3862 2211 1651 794 5137 630 899
is_linear=0
shrinkage=0.1


Tree=19
num_leaves=31
num_cat=0
split_feature=1 69 1 78 1 44 16 65 42 4 40 69 75 11 44 65 76 6 72 44 42 6 65 5 1 43 41 109 1 4
split_gain=10.2855 2.63147 2.08462 1.89906 1.08317 1.09188 0.736095 0.577904 0.912559 0.571397 0.453203 0.406627 0.387378 0.385811 0.38524 0.386088 0.369492 0.368328 0.299035 0.295348 0.271816 0.237509 0.245688 0.239757 0.397541 0.281104 0.231362 0.248586 0.229689 0.228355
threshold=4097.0000000000009 892.50000000000011 11.500000000000002 5.5000000000000009 72406.000000000015 49813.500000000007 66.500000000000014 45.500000000000007 0.0098973257854888929 0.21579685077636948 934.50000000000011 96492.500000000015 0.005124377118504473 1.0000000180025095e-35 956.50000000000011 363.00000000000006 0.0053087217205772478 0.41622469579120808 1.0000000180025095e-35 48.500000000000007 0.78033499101793991 0.16102645121189982 14.500000000000002 0.082792626660448398 88.000000000000014 1.0000000180025095e-35 44.625000000000021 0.030084880239016776 3449506.5000000005 0.095793428539345651
decision_type=2 2 2 2 2 2 2 2 2 2 2 2 2 2 2 2 2 2 2 2 2 2 2 2 2 2 2 2 2 2
left_child=1 2 3 6 14 7 13 8 9 12 19 16 17 18 15 20 -3 -6 -1 21 29 22 23 -4 25 -25 27 -10 -9 -2
right_child=4 11 10 -5 5 -7 -8 28 26 -11 -12 -13 -14 -15 -16 -17 -18 -19 -20 -21 -22 -23 -24 24 -26 -27 -28 -29 -30 -31
leaf_value=-0.065136946291806205 0.011825576462213406 0.0019014505978887542 0.0074166088648716768 -0.0085552342998013852 0.075612558187467732 -0.0032305432177761164 0.01168543632039807 -0.0044501412736792645 0.006344311803724168 0.0016605989529157484 -0.023696742609709533 0.030208190452723473 -0.0051160209528308799 -0.092406026490306922 -0.015062991893567813 -0.020957943917231249 -0.026307689741230968 0.010637822058140501 -0.17669398236284251 -0.035859333578273936 -0.0047767635664371262 -0.031532327189517421 -0.078065944943411847 -0.023093364017849186 0.0035664818426482726 0.00058522964587908182 -0.015242413742731742 -0.0063352900200712272 0.036032326592854248 -0.008651595046646322
leaf_weight=4160 2279 1312 1017 1005 5314 2199 206 1148 2072 663 810 617 267 820 948 198 155 547 355 547 765 216 105 583 932 293 207 338 669 240
leaf_count=4160 2279 1312 1017 1005 5314 2199 206 1148 2072 663 810 617 267 820 948 198 155 547 355 547 765 216 105 583 932 293 207 338 669 240
internal_value=0 -0.00250107 -0.00311583 -0.00425507 0.00118575 0.0016332 -0.00498046 0.00203238 0.0023477 0.00295909 -0.00145972 0.000758271 0.00326081 -0.00520695 -0.00017012 0.00031646 -0.000147622 0.00343051 -0.00484454 -0.000989882 0.000575018 -0.000616982 -0.000381068 -0.000204528 -0.000895463 -0.00242496 0.000761179 0.00103674 0.000399677 0.00107638
internal_weight=0 13133 11049 6546 17854 13424 5541 11225 9408 6791 4503 2084 6128 5335 4430 3482 1467 5861 4515 3693 3284 3146 2930 2825 1808 876 2617 2410 1817 2519
internal_count=30987 13133 11049 6546 17854 13424 5541 11225 9408 6791 4503 2084 6128 5335 4430 3482 1467 5861 4515 3693 3284 3146 2930 2825 1808 876 2617 2410 1817 2519
is_linear=0
shrinkage=0.1


Tree=20
num_leaves=31
num_cat=0
split_feature=1 69 1 78 42 67 16 1 41 76 11 4 70 66 72 69 44 69 6 44 69 76 40 1 42 6 44 65 4 1
split_gain=9.28481 2.56215 1.81819 1.795 1.15816 1.49969 0.68827 0.633154 0.509411 0.480995 0.438125 0.436842 0.421094 0.384309 0.326624 0.389834 0.323662 0.291154 0.289503 0.288192 0.278076 0.253908 0.253651 0.237191 0.22777 0.20333 0.21551 0.19936 0.209691 0.189683
threshold=3354.0000000000005 831.50000000000011 11.500000000000002 5.5000000000000009 0.016939961061830114 0.22078865116963367 66.500000000000014 150947.00000000003 24.695800781250011 6.7900344373734887e-06 1.0000000180025095e-35 0.13023480189589356 14.000000000000002 31.494140625000025 1.0000000180025095e-35 110.50000000000001 26.500000000000004 1.5000000000000002 0.063720914040695006 567.50000000000011 90414.000000000015 0.0085902186859764026 1156.0000000000002 3449506.5000000005 0.11318744945968866 0.46903667846653591 16770.500000000004 1.5000000000000002 0.26287044158840872 38915.000000000007
decision_type=2 2 2 2 2 2 2 2 2 2 2 2 2 2 2 2 2 2 2 2 2 2 2 2 2 2 2 2 2 2
left_child=1 2 3 6 5 7 10 18 -6 11 14 25 -3 23 15 17 22 -1 19 -2 21 -14 27 -7 -18 26 -9 28 -4 -10
right_child=4 12 16 -5 8 13 -8 9 29 -11 -12 -13 20 -15 -16 -17 24 -19 -20 -21 -22 -23 -24 -25 -26 -27 -28 -29 -30 -31
leaf_value=-0.059608492598904841 0.021744501526435658 0.016172815118997264 -0.0021773552098807158 -0.0076997108698211754 0.0018811304239758188 -0.0025663764400754019 0.010516892688358226 0.08545414258885381 -0.026009917387730043 -0.010033067892361913 -0.08316542384127619 0.0032868311449547605 -0.0015378542262734385 -0.019381891230744231 -0.1596914885760212 -0.0051609911394809417 -0.010549820658331301 -0.095515815205643062 -0.010438814719633883 -0.002928875705456946 0.0094647586087759812 -0.029222761888192575 -0.018851329823348098 0.033098093889408986 -0.065555779796294553 0.01625959366957801 0.021999049726743894 -0.077147812706456168 -0.03680010794853672 -0.0057479132995833741
leaf_weight=3209 2564 664 2578 1005 4062 1411 206 4130 382 295 820 562 893 1044 351 384 247 546 499 678 428 124 452 542 407 410 855 105 134 1000
leaf_count=3209 2564 664 2578 1005 4062 1411 206 4130 382 295 820 562 893 1044 351 384 247 546 499 678 428 124 452 542 407 410 855 105 134 1000
internal_value=0 -0.00246607 -0.00310807 -0.00413145 0.00106002 0.00157315 -0.00483963 0.00216157 -0.000164377 0.00277731 -0.00505965 0.0029725 0.000713171 -0.00038886 -0.00467147 -0.00442309 -0.00140695 -0.00473344 0.00113256 0.00147768 -0.000244688 -0.00114462 -0.00100068 0.000439074 -0.00343769 0.00324888 0.00342495 -0.000647828 -0.000482298 -0.00182278
internal_weight=0 12553 10444 6521 18434 12990 5516 9993 5444 6252 5310 5957 2109 2997 4490 4139 3923 3755 3741 3242 1445 1017 3269 1953 654 5395 4985 2817 2712 1382
internal_count=30987 12553 10444 6521 18434 12990 5516 9993 5444 6252 5310 5957 2109 2997 4490 4139 3923 3755 3741 3242 1445 1017 3269 1953 654 5395 4985 2817 2712 1382
is_linear=0
shrinkage=0.1


Tree=21
num_leaves=31
num_cat=0
split_feature=1 11 70 69 69 44 1 68 65 41 65 40 4 1 46 72 74 76 46 65 40 69 109 6 46 4 40 41 66 6
split_gain=8.68915 2.2563 1.73772 2.29097 0.95627 0.798761 0.734393 0.595813 0.55868 0.46605 0.435649 0.41574 0.358876 0.310848 0.294517 0.276874 0.26105 0.251328 0.227926 0.218709 0.3129 0.213554 0.204411 0.203305 0.1972 0.193418 0.193135 0.186112 0.182644 0.171272
threshold=27168.000000000004 1.0000000180025095e-35 14.000000000000002 779.50000000000011 547.00000000000011 46906.000000000007 322490.00000000006 1.0000000180025095e-35 1980.5000000000002 8.5000000000000018 363.00000000000006 452520.00000000006 0.22363248860528487 2457.5000000000005 0.23496565226412441 1.0000000180025095e-35 30.016113281249989 0.0053087217205772478 0.59529273501897306 1.5000000000000002 122.50000000000001 80.500000000000014 0.0013667150459603292 0.04804674444047493 53.405332220303826 0.0018145559474388279 34.500000000000007 8.5000000000000018 18.316406250000011 0.55999872952716301
decision_type=2 2 2 2 2 2 2 2 2 2 2 2 2 2 2 2 2 2 2 2 2 2 2 2 2 2 2 2 2 2
left_child=1 2 4 15 7 6 19 9 11 10 13 12 16 -1 -11 21 22 -5 25 20 23 -4 29 -2 -7 -15 -16 -13 -10 -8
right_child=5 -3 3 17 -6 24 8 -9 28 14 -12 27 -14 18 26 -17 -18 -19 -20 -21 -22 -23 -24 -25 -26 -27 -28 -29 -30 -31
leaf_value=-0.010713885400087976 0.0231192462354219 -0.074848881457148589 -0.055216056119776091 0.00063112698683625017 0.014009627500288958 -0.0021919086832873805 0.05594754724427347 -0.050175601255274142 0.014781846619227323 -0.013178924139178962 -0.031530031367145737 0.02084436455565495 0.00046852012495861577 0.009173358915676744 0.010034980538780758 -0.14540035452560537 -0.020164832644615417 -0.023599033347921506 -0.031391259193190989 -0.008265202051823196 0.00050271310733478462 -0.0079489495010042436 -0.0065814783055170526 -0.0060398038833898941 -0.2916246736263215 -0.0084775711159064578 -0.080339543815767203 -0.0096302649839479677 -0.014671524820822414 0.011671271215609381
leaf_weight=3543 1985 820 2236 1293 699 2257 5449 995 482 2589 226 83 479 1488 41 312 128 162 185 567 2505 272 104 362 64 187 290 250 607 327
leaf_count=3543 1985 820 2236 1293 699 2257 5449 995 482 2589 226 83 479 1488 41 312 128 162 185 567 2505 272 104 362 64 187 290 250 607 327
internal_value=0 -0.00208177 -0.00179352 -0.00348701 -0.00108673 0.00126751 0.00156565 -0.00134821 0.00218009 -0.00107866 -0.000546879 0.00251593 0.00269283 -0.000366955 -0.0021038 -0.00514984 0.00290285 -0.000264196 0.000679897 0.000668872 0.000886044 -0.00480036 0.0030001 0.00171568 -0.000444519 0.00104779 -0.00491257 -0.000930092 7.67978e-05 0.00307922
internal_weight=0 15338 14518 4275 10243 15649 13328 9544 7909 8549 5629 6820 6487 5403 2920 2820 6008 1455 1860 5419 4852 2508 5880 2347 2321 1675 331 333 1089 5776
internal_count=30987 15338 14518 4275 10243 15649 13328 9544 7909 8549 5629 6820 6487 5403 2920 2820 6008 1455 1860 5419 4852 2508 5880 2347 2321 1675 331 333 1089 5776
is_linear=0
shrinkage=0.1


Tree=22
num_leaves=31
num_cat=0
split_feature=1 69 1 78 42 67 16 4 76 1 41 69 23 69 76 69 69 40 66 76 44 6 65 5 42 3 44 1 44 41
split_gain=7.66399 2.15717 1.93307 1.74728 1.13946 1.30235 0.721093 0.595223 0.631948 0.511059 0.501888 0.454748 0.369833 0.369099 0.323271 0.431248 0.296081 0.295748 0.291054 0.284424 0.233184 0.257298 0.226496 0.224271 0.313896 0.213708 0.24007 0.21262 0.20009 0.197629
threshold=2984.5000000000005 699.50000000000011 9.0000000000000018 4.5000000000000009 0.0092492979002769728 0.19533072485415248 17.500000000000004 0.099401376967095875 6.7900344373734887e-06 373155.00000000006 24.695800781250011 1.0000000180025095e-35 1.0000000180025095e-35 99919.000000000015 0.016495175305243959 77.500000000000014 1.5000000000000002 720.50000000000011 31.494140625000025 0.0063929010417304736 1606.5000000000002 0.17260503822263126 1.5000000000000002 0.21167538723544019 0.49995322707217066 0.91312641041260434 26.500000000000004 3449506.5000000005 12219.000000000002 12.500000000000002
decision_type=2 2 2 2 2 2 2 2 2 2 2 2 2 2 2 2 2 2 2 2 2 2 2 2 2 2 2 2 2 2
left_child=1 2 3 6 5 7 11 8 9 20 -6 12 -1 19 15 16 -13 22 27 -3 21 -2 23 25 -25 -4 -27 -7 -11 -28
right_child=4 13 17 -5 10 18 -8 -9 -10 28 -12 14 -14 -15 -16 -17 -18 -19 -20 -21 -22 -23 -24 24 -26 26 29 -29 -30 -31
leaf_value=-0.072206057349098532 0.024076066205764236 0.00056694921819779867 -0.021303026758251777 -0.0058583512428302953 0.0011136609844690781 -0.0020892072477543878 0.0079594793715099151 -0.0026410287656219115 -0.018110940194016933 0.075943289881949039 -0.0099725651245535125 -0.045332439551987846 -0.030809265108814366 0.026957596196675839 -0.11656674378617958 -0.0033244506591607603 -0.085532769369487838 -0.021222033032449874 -0.017126701053015482 -0.020743449877501697 -0.0028923082647139609 -0.0046339315911620108 -0.071900339845421254 -0.0025985235447379298 -0.023677142810889864 0.011636084529836666 0.034149287109940474 0.027300607428239233 0.02059285140377938 -0.095242154231266696
leaf_weight=1582 2616 1389 159 1019 4264 1452 229 1003 369 3840 1451 2247 208 606 236 399 493 768 1072 164 568 425 130 1328 678 782 46 549 842 73
leaf_count=1582 2616 1389 159 1019 4264 1452 229 1003 369 3840 1451 2247 208 606 236 399 493 768 1072 164 568 425 130 1328 678 782 46 549 842 73
internal_value=0 -0.00233388 -0.00293223 -0.00400529 0.000870378 0.0013968 -0.00472272 0.00196706 0.00223416 0.00241437 -0.000302757 -0.00496618 -0.00625461 0.000542006 -0.00428284 -0.00401448 -0.00446176 -0.00119622 -0.000396376 -0.000274756 0.00152013 0.00186753 -0.000772805 -0.000599459 -0.00122117 0.000577099 0.00117358 0.000315951 0.00310367 -0.00301085
internal_weight=0 12536 10377 6413 18451 12736 5394 9663 8660 8291 5715 5165 1790 2159 3375 3139 2740 3964 3073 1553 3609 3041 3196 3066 2006 1060 901 2001 4682 119
internal_count=30987 12536 10377 6413 18451 12736 5394 9663 8660 8291 5715 5165 1790 2159 3375 3139 2740 3964 3073 1553 3609 3041 3196 3066 2006 1060 901 2001 4682 119
is_linear=0
shrinkage=0.1


Tree=23
num_leaves=31
num_cat=0
split_feature=1 69 68 11 1 64 65 42 65 69 70 69 69 75 46 41 6 45 41 42 4 76 69 65 46 46 75 42 4 108
split_gain=6.60243 1.62506 2.24343 1.513 0.915386 0.789734 0.594638 0.640251 0.53244 0.436765 0.386069 0.368343 0.387586 0.357451 0.339783 0.320906 0.318226 0.350614 0.282822 0.292261 0.273367 0.243555 0.218485 0.205435 0.19087 0.17595 0.172239 0.170716 0.165213 0.16467
threshold=6792.5000000000009 617.50000000000011 1.0000000180025095e-35 1.0000000180025095e-35 1059596.0000000002 1.0000000180025095e-35 7.5000000000000009 0.0020018669065423752 141287.00000000003 42.500000000000007 20.174587673611118 1.5000000000000002 1.0000000180025095e-35 0.001303959343883686 0.34926956833472028 20.030104166666664 0.1221309070653068 0.13609202271710621 24.014648437500025 0.098136928160830347 0.5875691425062024 0.028471311425382177 96492.500000000015 272.50000000000006 104.723850523945 0.025976086201533403 0.75249543138288544 0.17726751207729471 0.5875691425062024 1.5000000000000002
decision_type=2 2 2 2 2 2 2 2 2 2 2 2 2 2 2 2 2 2 2 2 2 2 2 2 2 2 2 2 2 2
left_child=1 2 3 18 6 -5 7 13 14 11 22 12 -4 16 20 25 17 -2 23 -20 26 -11 -3 -1 28 29 27 -6 -19 -9
right_child=4 10 9 5 8 -7 -8 15 -10 21 -12 -13 -14 -15 -16 -17 -18 24 19 -21 -22 -23 -24 -25 -26 -27 -28 -29 -30 -31
leaf_value=-0.0072462670286920884 0.039056416395831663 0.0033305718879226734 -0.082547869598197293 -0.061918556949082416 0.063766535578300684 -0.00076590802330116507 -0.011723574689806428 0.0042954562480922226 -0.014486090524203021 -0.0037444733060175042 -0.0032364623263493545 -0.11444347471151667 -0.040891606638048833 -0.025867143818584282 0.0070670284599170692 -0.0060740534731888122 -0.0041363989651244997 0.014534688725854041 0.0015610741609563663 -0.036643107358511888 -0.011973877208457752 -0.033413418684485489 0.064347894503394093 -0.0430631209408876 -0.26452149140406755 -0.0037998220339176218 -0.014082009111825045 -0.0035918384666111082 -0.010836491920908388 -0.0088771721838597269
leaf_weight=5772 1914 770 432 593 3865 227 1456 2613 385 461 1133 507 2261 202 915 1728 701 2169 245 593 212 106 299 110 33 800 83 110 162 130
leaf_count=5772 1914 770 432 593 3865 227 1456 2613 385 461 1133 507 2261 202 915 1728 701 2169 245 593 212 106 299 110 33 800 83 110 162 130
internal_value=0 -0.00206585 -0.00254986 -0.00155424 0.000877786 -0.00560943 0.000382833 0.00064658 0.00193594 -0.0045427 0.0004195 -0.00499595 -0.00453043 0.00143601 0.00220236 -0.000129374 0.00160332 0.00192694 -0.00105941 -0.00277816 0.00257709 -0.00198464 0.00178267 -0.000814543 0.00111234 0.000415541 0.00275997 0.00285411 0.00121926 0.000796118
internal_weight=0 13509 11307 7540 17478 820 11908 10452 5570 3767 2202 3200 2693 5181 5185 5271 4979 4278 6720 838 4270 567 1069 5882 2364 3543 4058 3975 2331 2743
internal_count=30987 13509 11307 7540 17478 820 11908 10452 5570 3767 2202 3200 2693 5181 5185 5271 4979 4278 6720 838 4270 567 1069 5882 2364 3543 4058 3975 2331 2743
is_linear=0
shrinkage=0.1


Tree=24
num_leaves=31
num_cat=0
split_feature=1 69 70 11 42 65 64 4 75 45 6 41 1 68 69 70 42 44 42 72 1 69 65 44 3 40 41 65 1 76
split_gain=5.91541 1.70118 1.9705 1.33028 0.822687 1.03789 0.789734 0.515504 0.527198 0.485305 0.400111 0.38994 0.370358 0.353386 0.40092 0.333082 0.23718 0.224567 0.230292 0.220176 0.220039 0.192232 0.190466 0.18208 0.174695 0.22219 0.169732 0.161673 0.16146 0.160834
threshold=2984.5000000000005 617.50000000000011 14.000000000000002 1.0000000180025095e-35 0.010087914592182739 3.5000000000000004 1.0000000180025095e-35 0.063484858899155935 0.25782902427396842 0.38676099693302673 0.17260503822263126 18.675900021114881 3449506.5000000005 1.0000000180025095e-35 42.500000000000007 14.000000000000002 0.0001077508376115545 26.500000000000004 0.12530780220801899 1.0000000180025095e-35 1153732.0000000002 66.500000000000014 4750345.5000000009 243995.50000000003 0.50000915004460278 47140.000000000007 48.000976562500007 234.50000000000003 79994.000000000015 0.0056782369367668652
decision_type=2 2 2 2 2 2 2 2 2 2 2 2 2 2 2 2 2 2 2 2 2 2 2 2 2 2 2 2 2 2
left_child=1 2 3 13 5 7 -5 8 9 10 16 24 -7 17 -15 -3 -2 27 -19 21 23 -4 -14 28 -6 -26 -13 -1 -11 -17
right_child=4 15 19 6 11 12 -8 -9 -10 20 -12 26 22 14 -16 29 -18 18 -20 -21 -22 -23 -24 -25 25 -27 -28 -29 -30 -31
leaf_value=-0.0074510422939637168 0.07376590913592089 0.011746812981195022 -0.040765534963501798 -0.055726701254174144 0.010825152741331934 -0.0096204859128150143 -0.0006893172209711196 -0.0036726770717823601 -0.026065724928498926 0.00016413198054685552 0.0065461117577285677 -0.0038582464382901807 0.031786683651106887 -0.041262332525147376 0.0050140373762047833 -0.00031196470144401189 0.019408668674302378 -0.0051504685108000109 -0.051156164962121053 -0.11703628397713467 0.035257028710435991 -0.0071645852119418766 -0.015007963344341136 -0.011127527145293215 -0.0047736047466070634 0.0034522046540352846 -0.02048315525767528 -0.063305079628662497 0.017831720072423708 -0.020141800071939643
leaf_weight=4959 3009 696 2214 593 941 2140 227 1003 300 1022 636 2163 805 827 171 1333 715 300 429 300 1536 255 90 217 1017 1128 408 59 1321 173
leaf_count=4959 3009 696 2214 593 941 2140 227 1003 300 1022 636 2163 805 827 171 1333 715 300 429 300 1536 255 90 217 1017 1128 408 59 1321 173
internal_value=0 -0.0021039 -0.00264164 -0.00180621 0.000711192 0.00115521 -0.00560943 0.00165749 0.00190348 0.00204963 0.00278391 -0.000293002 -0.000459882 -0.00134384 -0.0030808 0.000419698 0.0031798 -0.00104221 -0.00268225 -0.00492407 0.00126803 -0.00461324 0.00124827 0.00070029 0.000464805 -3.35327e-05 -0.00120261 -0.000803951 0.000956948 -0.000416403
internal_weight=0 12536 10334 7565 18451 12794 820 9759 8756 8456 4360 5657 3035 6745 998 2202 3724 5747 729 2769 4096 2469 895 2560 3086 2145 2571 5018 2343 1506
internal_count=30987 12536 10334 7565 18451 12794 820 9759 8756 8456 4360 5657 3035 6745 998 2202 3724 5747 729 2769 4096 2469 895 2560 3086 2145 2571 5018 2343 1506
is_linear=0
shrinkage=0.1


Tree=25
num_leaves=31
num_cat=0
split_feature=1 69 78 1 44 40 46 65 11 42 67 6 41 70 65 19 75 4 40 4 69 69 69 65 44 44 40 41 72 64
split_gain=5.5629 2.62074 1.47735 1.25766 0.693913 0.636098 0.608653 0.482667 0.501439 0.46772 0.632104 0.429196 0.361207 0.344909 0.338402 0.331781 0.331255 0.333408 0.307872 0.282087 0.24894 0.208747 0.192259 0.18687 0.182156 0.174044 0.173101 0.171608 0.200485 0.243175
threshold=25.500000000000004 60.500000000000007 4.5000000000000009 72406.000000000015 63940.000000000007 16.500000000000004 0.59529273501897306 1.0000000180025095e-35 1.0000000180025095e-35 0.0031843560600919138 0.0066456795049698123 0.1277791685679017 18.675900021114881 14.000000000000002 272.50000000000006 1.0000000180025095e-35 0.001646302877882934 0.020491686933423753 51.500000000000007 0.36563263840080057 1.5000000000000002 35.500000000000007 106317.00000000001 900866.00000000012 2.5000000000000004 1287116.5000000002 383.50000000000006 1.0000000180025095e-35 1.0000000180025095e-35 1.0000000180025095e-35
decision_type=2 2 2 2 2 2 2 2 2 2 2 2 2 2 2 2 2 2 2 2 2 2 2 2 2 2 2 2 2 2
left_child=1 2 5 6 9 7 12 8 15 10 11 16 14 22 19 20 17 -5 -8 27 24 -22 -3 -12 -1 -6 -14 28 29 -2
right_child=3 13 -4 4 25 -7 18 -9 -10 -11 23 -13 26 -15 -16 -17 -18 -19 -20 -21 21 -23 -24 -25 -26 -27 -28 -29 -30 -31
leaf_value=-0.037158475333118446 0.027951930614775834 0.003698428680145938 -0.0038027851862814546 0.05649254581517376 -0.0026716317787300881 0.0026905309749237108 -0.020672808385915079 -0.00089027533041701194 -0.050154031128756674 0.0013442574294248999 0.0070143242323918997 0.0040263043539283672 -0.0037177138850974958 -0.002653567454221495 -0.016486706529799732 0.82102749808430786 -0.0057638189995010691 0.0061373409892439669 -0.053825162286019079 -0.018012003820104993 -0.1033939399757795 -0.019747816273967978 0.08501868193364609 -0.013775149492817107 0.0015873598450003358 -0.051683074079039319 -0.012724620138570942 0.001113435191741985 -0.048923876326979969 0.001111873790351936
leaf_weight=3377 786 640 1019 4136 1863 309 415 314 593 3106 2315 790 1281 1852 332 87 290 603 318 275 448 113 200 201 94 120 1123 3352 79 556
leaf_count=3377 786 640 1019 4136 1863 309 415 314 593 3106 2315 790 1281 1852 332 87 290 603 318 275 448 113 200 201 94 120 1123 3352 79 556
internal_value=0 -0.00251271 -0.0036206 0.000434319 0.00103737 -0.004287 -0.000516181 -0.00455775 -0.00481072 0.0013367 0.00172701 0.00229963 -0.000256768 0.000102282 0.00019859 -0.00441931 0.00264002 0.00284079 -0.00327099 0.000401983 -0.00455114 -0.00650563 0.001783 0.000402633 -0.00423525 -0.000689586 -0.00127583 0.000581416 0.00150235 0.00179054
internal_weight=0 9046 6354 21941 13424 5335 8517 5026 4712 11441 8335 5819 7784 2692 5380 4119 5029 4739 733 5048 4032 561 840 2516 3471 1983 2404 4773 1421 1342
internal_count=30987 9046 6354 21941 13424 5335 8517 5026 4712 11441 8335 5819 7784 2692 5380 4119 5029 4739 733 5048 4032 561 840 2516 3471 1983 2404 4773 1421 1342
is_linear=0
shrinkage=0.1


Tree=26
num_leaves=31
num_cat=0
split_feature=1 69 78 1 40 67 65 11 46 1 41 65 40 42 70 22 4 42 4 44 66 41 6 72 76 69 74 44 5 6
split_gain=5.23428 2.43457 1.40015 1.09027 0.60471 0.504859 0.499729 0.543742 0.430818 0.338688 0.325733 0.364555 0.313801 0.303018 0.302297 0.291576 0.288127 0.315974 0.244956 0.267394 0.225721 0.221312 0.22092 0.26912 0.216529 0.201443 0.195128 0.192053 0.19165 0.206934
threshold=25.500000000000004 60.500000000000007 4.5000000000000009 838531.00000000012 16.500000000000004 0.30026850208768269 1.0000000180025095e-35 1.0000000180025095e-35 0.64004659459065938 36814.500000000007 17.962890625000011 1.5000000000000002 51.500000000000007 0.0098973257854888929 20.174587673611118 0.99984753066374477 0.017006113031179271 0.00051199793789509821 0.063484858899155935 7206.0000000000009 16.316406250000011 8.5000000000000018 0.053016145816637696 1.0000000180025095e-35 0.73120199045015588 110689.50000000001 14.000000000000002 877488.00000000012 1.3336588340815549 0.24855218146720576
decision_type=2 2 2 2 2 2 2 2 2 2 2 2 2 2 2 2 2 2 2 2 2 2 2 2 2 2 2 2 2 2
left_child=1 2 4 8 6 13 7 15 10 12 11 16 -10 18 25 24 17 22 19 26 -7 -15 23 -2 -1 -3 28 -11 29 -5
right_child=3 14 -4 5 -6 20 -8 -9 9 27 -12 -13 -14 21 -16 -17 -18 -19 -20 -21 -22 -23 -24 -25 -26 -27 -28 -29 -30 -31
leaf_value=-0.034536015403566371 0.023341495094805612 0.0019145008054170633 -0.0034225066676533801 0.076067213963148472 0.002421477877431322 0.017083637294459209 -0.00080124779737538181 -0.045138628015880936 -0.021000271192422915 0.00023176105545417159 -0.0039270788800664039 -0.0079029160142084724 -0.053911005072991007 0.02093596213657847 -0.0033976749727154146 0.73892474827587695 -0.0088920240312358352 0.0015360842917729657 -0.0029184254713491955 0.014071747361573017 -0.01049972037245297 -0.0097260894560839972 -0.0045179562848755243 -0.015192928948858153 -0.13733551844981004 0.063007635578660279 -0.0066305218003911651 -0.038317603529791459 0.014909395171449092 0.0097598024309103696
leaf_weight=3904 2405 996 1019 2473 309 634 314 593 363 765 4208 1225 276 206 1412 81 658 4595 374 989 934 403 473 165 134 284 157 81 297 260
leaf_count=3904 2405 996 1019 2473 309 634 314 593 363 765 4208 1225 276 206 1412 81 658 4595 374 989 934 403 473 165 134 284 157 81 297 260
internal_value=0 -0.0024604 -0.00352822 0.000398254 -0.00417698 0.00145836 -0.00444096 -0.00469836 -7.04809e-05 -0.00168849 0.000104532 0.000428355 -0.00342618 0.00193596 5.99958e-05 -0.00429077 0.000666134 0.000839108 0.00221635 0.00243593 -0.000113029 -0.000158867 0.00162947 0.00199501 -0.00440993 0.00117299 0.00288169 -0.000375985 0.0030598 0.00332198
internal_weight=0 9046 6354 21941 5335 6727 5026 4712 15214 1485 13729 9521 639 5159 2692 4119 8296 7638 4550 4176 1568 609 3043 2570 4038 1280 3187 846 3030 2733
internal_count=30987 9046 6354 21941 5335 6727 5026 4712 15214 1485 13729 9521 639 5159 2692 4119 8296 7638 4550 4176 1568 609 3043 2570 4038 1280 3187 846 3030 2733
is_linear=0
shrinkage=0.1


Tree=27
num_leaves=31
num_cat=0
split_feature=1 69 78 1 40 44 65 11 46 5 42 65 8 16 41 65 74 72 69 40 76 6 66 5 69 69 4 4 46 72
split_gain=4.97561 2.39737 1.37108 1.00321 0.642287 0.552406 0.522857 0.510082 0.477439 0.448351 0.358052 0.596901 0.386517 0.311563 0.2876 0.299559 0.274132 0.271545 0.268192 0.268124 0.255569 0.196463 0.170758 0.1688 0.167129 0.176379 0.161168 0.160245 0.152454 0.150551
threshold=25.500000000000004 53.500000000000007 4.5000000000000009 82033.500000000015 2.5000000000000004 97152.000000000015 1.0000000180025095e-35 1.0000000180025095e-35 0.64004659459065938 0.90484047435848247 0.0011613848174450096 1.5000000000000002 0.01269201327387399 2.5000000000000004 4.5000000000000009 1.5000000000000002 30.016113281249989 1.0000000180025095e-35 79571.000000000015 45.500000000000007 0.018783068783068787 0.5819361055789396 29.031249999999993 1.4920935547688465 28.500000000000004 1.5000000000000002 0.5875691425062024 0.0048437480346653601 104.723850523945 1.0000000180025095e-35
decision_type=2 2 2 2 2 2 2 2 2 2 2 2 2 2 2 2 2 2 2 2 2 2 2 2 2 2 2 2 2 2
left_child=1 2 4 8 6 10 7 13 14 -6 11 12 16 17 15 27 21 24 20 -10 -3 23 -13 26 25 -1 -5 29 -7 -2
right_child=3 18 -4 5 9 28 -8 -9 19 -11 -12 22 -14 -15 -16 -17 -18 -19 -20 -21 -22 -23 -24 -25 -26 -27 -28 -29 -30 -31
leaf_value=-0.029220174025563317 0.0074992053970188268 -0.00029293667136442991 -0.0030802560008879711 0.051767542341747588 0.0067195210109005643 -0.0047655537071243266 -0.00072112301763791473 -0.040624765214292861 -0.01764842252266945 -0.028376598330944525 0.0014195417216754437 0.0076807694365271578 -0.0042515015024701345 0.12609482420151608 -0.0055111651797915334 -0.010516426633633814 -0.018294765314869822 -0.10874944280111816 0.014948060846699463 -0.04498261342549377 -0.01610113853395987 0.0041041620005493945 -0.010274948374333804 0.0055559598142455261 -0.00092385453751830937 -0.069241654314859249 0.0045318750141856157 -0.00998899873708794 -0.32361769773844495 -0.042512195799395872
leaf_weight=3016 3276 1767 1019 4002 404 1512 314 593 412 236 3311 1463 612 100 4164 556 157 242 708 321 230 327 760 378 104 313 265 301 42 82
leaf_count=3016 3276 1767 1019 4002 404 1512 314 593 412 236 3311 1463 612 100 4164 556 157 242 708 321 230 327 760 378 104 313 265 301 42 82
internal_value=0 -0.00240678 -0.00347005 0.000380345 -0.00411348 0.000950219 -0.00451965 -0.00480298 -0.000421993 -0.00114214 0.00119383 0.00155718 0.0020959 -0.00437468 -0.000207897 0.000374413 0.00237934 -0.00452454 8.57177e-05 -0.00286934 -0.000507163 0.00250925 0.000165921 0.00267603 -0.00429632 -0.00441964 0.00285545 0.000703037 -0.000817307 0.000901169
internal_weight=0 9046 6341 21941 5322 12829 4682 4368 9112 640 11275 7964 5741 3775 8379 4215 5129 3675 2705 733 1997 4972 2223 4645 3433 3329 4267 3659 1554 3358
internal_count=30987 9046 6341 21941 5322 12829 4682 4368 9112 640 11275 7964 5741 3775 8379 4215 5129 3675 2705 733 1997 4972 2223 4645 3433 3329 4267 3659 1554 3358
is_linear=0
shrinkage=0.1


Tree=28
num_leaves=31
num_cat=0
split_feature=1 69 78 1 40 65 11 3 3 5 46 41 70 17 65 40 72 5 65 3 1 72 73 44 4 44 1 1 46 40
split_gain=4.67641 2.29446 1.3565 0.953689 0.657491 0.525954 0.51741 0.436288 0.42359 0.397099 0.298383 0.310846 0.288628 0.285721 0.252838 0.238554 0.30483 0.235085 0.23453 0.228197 0.201327 0.181639 0.217419 0.178927 0.177886 0.171838 0.192386 0.159855 0.345434 0.248508
threshold=25.500000000000004 42.500000000000007 3.5000000000000004 997404.50000000012 1.5000000000000002 1.0000000180025095e-35 1.0000000180025095e-35 0.78265528025620557 0.51999915561680699 0.90484047435848247 8.4652766463664744 8.5000000000000018 18.316406250000011 1.0000000180025095e-35 1.5000000000000002 72.500000000000014 1.0000000180025095e-35 0.0073624730042594422 93076.000000000015 0.99998321256038658 268757.00000000006 1.0000000180025095e-35 40.500000000000007 7206.0000000000009 0.015664706415901446 72.500000000000014 55.000000000000007 33963.500000000007 0.64004659459065938 195.50000000000003
decision_type=2 2 2 2 2 2 2 2 2 2 2 2 2 2 2 2 2 2 2 2 2 2 2 2 2 2 2 2 2 2
left_child=1 2 4 8 5 6 13 -5 20 -6 11 14 -3 21 15 16 17 19 23 -10 24 -1 -23 -9 25 26 -2 28 29 -13
right_child=3 12 -4 7 9 -7 -8 18 10 -11 -12 27 -14 -15 -16 -17 -18 -19 -20 -21 -22 22 -24 -25 -26 -27 -28 -29 -30 -31
leaf_value=-0.028112712744833249 -0.017731374433954273 0.006423959170504645 -0.0027722304007991028 0.044793105700756897 0.0046238581039151688 -0.00064901071587417656 -0.036562288692863557 0.028197058638533081 -0.0039535268343243507 -0.025538938497849984 -0.12682477172386869 0.00077677508306415186 -0.0031810182053149563 0.66795429085084557 -0.0087840955546941053 -0.0015663254867519074 -0.023219692059139874 0.0038056805500254146 -0.013410370629625846 0.033389025653122316 0.016367399229133994 -0.10191704172273042 0.021017843002067594 -8.9478933799469484e-05 -0.0096579546936734328 -0.0062654795573880767 0.0072972397784063503 -0.0018269431914674783 -0.059670393999637562 -0.012816670991868407
leaf_weight=3358 161 1109 1025 2608 420 312 593 1736 232 237 211 760 1660 87 1292 2124 209 1447 352 937 1513 217 28 1152 485 626 2902 1994 207 993
leaf_count=3358 161 1109 1025 2608 420 312 593 1736 232 237 211 760 1660 87 1292 2124 209 1447 352 937 1513 217 28 1152 485 626 2902 1994 207 993
internal_value=0 -0.00236869 -0.00342648 0.000333334 -0.00407591 -0.00449899 -0.00478775 0.00142701 -6.40961e-05 -0.00111693 -0.000443371 -0.000366335 2.91813e-05 -0.00434714 7.31763e-05 0.000398388 0.0010004 0.00129401 0.00065208 0.00234869 0.000629896 -0.00448387 -0.0071125 0.00094911 0.000271674 0.000508381 0.000816926 -0.00106006 -0.00170139 -0.00124519
internal_weight=0 9046 6277 21941 5252 4595 4283 5848 16093 657 10406 10195 2769 3690 6241 4949 2825 2616 3240 1169 5687 3603 245 2888 4174 3689 3063 3954 1960 1753
internal_count=30987 9046 6277 21941 5252 4595 4283 5848 16093 657 10406 10195 2769 3690 6241 4949 2825 2616 3240 1169 5687 3603 245 2888 4174 3689 3063 3954 1960 1753
is_linear=0
shrinkage=0.1


Tree=29
num_leaves=31
num_cat=0
split_feature=1 69 78 1 16 67 65 11 44 69 76 41 65 75 40 6 66 46 1 41 76 66 65 7 1 70 77 70 69 4
split_gain=4.46793 2.36655 1.46868 0.844067 0.562721 0.459334 0.43029 0.543659 0.320999 0.297577 0.297538 0.279141 0.337129 0.260818 0.287989 0.301325 0.246727 0.229699 0.221983 0.205864 0.269927 0.229823 0.256981 0.222476 0.178988 0.178841 0.213022 0.177599 0.19129 0.175683
threshold=16.500000000000004 26.500000000000004 3.5000000000000004 566558.50000000012 343.00000000000006 0.17456269822461273 1.0000000180025095e-35 1.0000000180025095e-35 7206.0000000000009 1.5000000000000002 0.018783068783068787 8.5000000000000018 1.5000000000000002 0.68500245855273179 1333.5000000000002 0.1277791685679017 16.316406250000011 0.89125579666846033 19838.000000000004 1.0000000180025095e-35 0.00014456281534427708 6.0000000000000009 1.0000000180025095e-35 0.004892764778152277 2300.0000000000005 14.000000000000002 1.0000000180025095e-35 36.147460937500007 129263.50000000001 0.58203120291385768
decision_type=2 2 2 2 2 2 2 2 2 2 2 2 2 2 2 2 2 2 2 2 2 2 2 2 2 2 2 2 2 2
left_child=1 2 4 11 6 8 7 9 13 25 27 12 19 14 15 29 -7 -13 -19 20 21 23 -23 -2 -14 26 -1 28 -3 -5
right_child=3 10 -4 5 -6 16 -8 -9 -10 -11 -12 17 24 -15 -16 -17 -18 18 -20 -21 -22 22 -24 -25 -26 -27 -28 -29 -30 -31
leaf_value=-0.020694943705762549 0.024291467355451249 0.00092403113370309597 -0.0024950073607193702 0.0582857208088619 0.015780088588384446 0.013409913225813953 -0.00085323653637665593 -0.032906059823577215 0.0031478197062984495 -0.079487220416507048 -0.013452751502138939 -0.00335367123596555 -0.11477622378482125 -0.016824261725831135 0.0035573375092106119 0.0038476211753987856 -0.01033503496209498 -0.05928406099252808 -0.0027190620845392033 0.00014108674366326569 -0.050804000470735744 -0.024038978962920156 0.0086489566202104136 0.00071724383692775009 -0.0073708864520554591 -0.023329338351453368 -0.072196300892464829 -0.003966413498005395 0.028867326251522843 0.0011842312055058814
leaf_weight=1169 1311 1610 1025 2726 186 801 287 593 1593 402 294 5369 66 117 729 448 1160 149 188 4571 126 240 787 450 1223 2006 196 531 425 209
leaf_count=1169 1311 1610 1025 2726 186 801 287 593 1593 402 294 5369 66 117 729 448 1160 149 188 4571 126 240 787 450 1223 2006 196 531 425 209
internal_value=0 -0.00237401 -0.00352425 0.000295876 -0.00425262 0.00113574 -0.00446822 -0.00471478 0.00158159 -0.00427239 -1.56321e-05 -0.000155549 0.000198525 0.00203732 0.00216979 0.00255827 -0.000187959 -0.000700002 -0.00323248 0.00045576 0.00111259 0.0013172 0.000128299 0.00201056 -0.00129519 -0.0039657 -0.00308272 0.000329617 0.000754586 0.002927
internal_weight=0 8724 5864 22263 4839 7783 4653 4366 5822 3773 2860 14480 8774 4229 4112 3383 1961 5706 337 7485 2914 2788 1027 1761 1289 3371 1365 2566 2035 2935
internal_count=30987 8724 5864 22263 4839 7783 4653 4366 5822 3773 2860 14480 8774 4229 4112 3383 1961 5706 337 7485 2914 2788 1027 1761 1289 3371 1365 2566 2035 2935
is_linear=0
shrinkage=0.1


Tree=30
num_leaves=31
num_cat=0
split_feature=1 69 78 1 16 65 11 3 3 41 46 76 72 24 4 108 4 65 44 1 65 41 72 66 65 40 46 1 70 1
split_gain=4.18345 2.28088 1.45801 0.760457 0.528568 0.455396 0.560116 0.350313 0.335192 0.292523 0.281862 0.261554 0.248714 0.212897 0.205853 0.213878 0.179893 0.176256 0.173462 0.169721 0.166209 0.231535 0.252643 0.206445 0.175134 0.17236 0.189187 0.303009 0.164803 0.160142
threshold=11.500000000000002 26.500000000000004 3.5000000000000004 997404.50000000012 343.00000000000006 1.0000000180025095e-35 1.0000000180025095e-35 0.15362782031717984 0.78265528025620557 28.816406250000011 7.0104444381416995 0.018783068783068787 1.0000000180025095e-35 1.0000000180025095e-35 0.31244428634504023 1.5000000000000002 0.017657473753239609 1147336.5000000002 626596.00000000012 322490.00000000006 1.5000000000000002 1.0000000180025095e-35 1.0000000180025095e-35 14.000000000000002 1.0000000180025095e-35 35262.000000000007 0.6155197318366763 62.000000000000007 10.000000000000002 2300.0000000000005
decision_type=2 2 2 2 2 2 2 2 2 2 2 2 2 2 2 2 2 2 2 2 2 2 2 2 2 2 2 2 2 2
left_child=1 2 4 7 5 6 12 19 16 10 14 28 13 -1 15 20 -5 18 -10 -2 21 22 23 -9 -25 26 -23 -28 -3 -22
right_child=3 11 -4 8 -6 -7 -8 9 17 -11 -12 -13 -14 -15 -16 -17 -18 -19 -20 -21 29 25 -24 24 -26 -27 27 -29 -30 -31
leaf_value=-0.023232363855449911 0.0036925612292026955 0.0089427919339897244 -0.0022455066246475754 0.044329280721937182 0.014202079729545859 -0.00076791288273891922 -0.029615453841219441 0.021424592329002224 0.012954868587241465 -0.0088600858355663455 -0.10135583792976705 -0.012107476351924974 -0.090317670849082002 0.0017076694294502204 -0.01597191697340037 -0.014511918029410965 -0.0032365232676671244 -0.01449188877842076 -0.032878600582682084 0.027414403047092507 -0.093161138790372189 -0.0010288967038540875 -0.020158597354712173 -0.025018230895436845 0.0065887785401454128 0.002836681005049968 0.012765321285279897 -0.032121976818032749 -0.00045413812758354766 -0.0054161907221516262
leaf_weight=3363 2216 590 1025 2312 186 281 593 1658 2863 1937 223 294 210 112 446 223 296 189 188 764 54 4484 240 142 634 1716 109 218 1976 1445
leaf_count=3363 2216 590 1025 2312 186 281 593 1658 2863 1937 223 294 210 112 446 223 296 189 188 764 54 4484 240 142 634 1716 109 218 1976 1445
internal_value=0 -0.0023244 -0.00346896 0.000267662 -0.00420778 -0.00442096 -0.00467711 -7.94534e-05 0.00124757 -0.000295647 -0.000105569 -1.52548e-05 -0.0042181 -0.00401614 -3.6508e-05 4.94753e-05 0.00209142 0.000568333 0.000751906 0.000902051 0.000113356 0.000272437 0.00105617 0.00136139 1.52131e-05 -4.86437e-05 -0.000355548 -0.00267768 0.000308445 -0.000863097
internal_weight=0 8630 5770 22357 4745 4559 4278 16509 5848 13529 11592 2860 3685 3475 11369 10923 2608 3240 3051 2980 10700 9201 2674 2434 776 6527 4811 327 2566 1499
internal_count=30987 8630 5770 22357 4745 4559 4278 16509 5848 13529 11592 2860 3685 3475 11369 10923 2608 3240 3051 2980 10700 9201 2674 2434 776 6527 4811 327 2566 1499
is_linear=0
shrinkage=0.1


Tree=31
num_leaves=31
num_cat=0
split_feature=1 69 78 1 16 3 65 11 1 72 76 46 40 1 1 67 65 24 41 4 46 74 1 6 65 41 109 46 70 69
split_gain=3.99886 2.18969 1.42426 0.656661 0.49232 0.457541 0.444936 0.587234 0.344915 0.240343 0.231864 0.229412 0.252402 0.213922 0.305434 0.215602 0.212245 0.205579 0.198047 0.197365 0.196877 0.178834 0.158062 0.151087 0.147864 0.145579 0.141158 0.157845 0.140228 0.144505
threshold=11.500000000000002 24.500000000000004 3.5000000000000004 27168.000000000004 343.00000000000006 0.29113721742928911 1.0000000180025095e-35 1.0000000180025095e-35 3083119.5000000005 1.0000000180025095e-35 0.018783068783068787 0.6155197318366763 45.500000000000007 4683900.0000000009 6278596.0000000009 0.41794191157084609 635.50000000000011 1.0000000180025095e-35 4.5000000000000009 0.017006113031179271 244.16940584840242 16.396267361111104 268757.00000000006 0.0049278315575190584 900866.00000000012 62.965332031250043 0.017746907981792424 0.0070531849282253469 14.000000000000002 129263.50000000001
decision_type=2 2 2 2 2 2 2 2 2 2 2 2 2 2 2 2 2 2 2 2 2 2 2 2 2 2 2 2 2 2
left_child=1 2 4 11 6 19 7 9 20 17 28 16 -13 -10 -15 21 18 -1 23 22 24 -16 -5 -2 25 26 27 -7 29 -3
right_child=3 10 -4 5 -6 8 -8 -9 13 -11 -12 12 -14 14 15 -17 -18 -19 -20 -21 -22 -23 -24 -25 -26 -27 -28 -29 -30 -31
leaf_value=-0.02103937878412836 0.0033206167444213008 0.002638334358782757 -0.0020209559621829245 0.0091511365024850022 0.012781871756591201 0.0035761305737569415 -0.00069112159446511618 -0.026653908457097586 0.038769029305123229 -0.083669421983167958 -0.011241915947895011 -0.0094846646706679763 -0.04038882903084904 -0.021628003038382818 0.042705340467476566 -0.006496438231842561 -0.018294934716533363 0.0015369024865051985 -0.0059829606838125221 -0.00064666970555329331 -0.29795756805109053 -0.043605277318240356 0.035050170067366083 -0.01485299796950983 -0.025027556840381139 -0.015203980779476113 -0.0064719136792366072 -0.0017059835325259343 -0.00092664796540500307 0.086870868296523795
leaf_weight=3354 2655 680 1025 1475 186 4736 280 593 740 204 300 362 254 290 937 356 173 112 3018 675 37 61 2172 246 78 251 436 3405 1714 182
leaf_count=3354 2655 680 1025 1475 186 4736 280 593 740 204 300 362 254 290 937 356 173 112 3018 675 37 61 2172 246 78 251 436 3405 1714 182
internal_value=0 -0.00229101 -0.00341716 0.000243218 -0.00414962 0.000598046 -0.00435608 -0.00460971 0.000264038 -0.00413792 -3.79311e-05 -0.000584553 -0.00242364 0.00133282 0.00069728 0.00132809 -0.000398592 -0.00394159 -0.000297681 0.00147341 -2.08736e-05 0.00208175 0.00176413 0.00029231 9.36878e-06 4.76694e-05 0.000117138 0.000211021 0.000268484 0.00130887
